up 0.120117 -0.0201416 0.207031 0.145508 -0.216797 -0.0942383 0.0617676 -0.090332 -0.0588379 0.162109 0.00497437 -0.124512 0.0698242 -0.106934 -0.0888672 -0.134766 0.0267334 0.111816 -0.0722656 -0.178711 0.0310059 0.105957 0.0164795 0.00921631 0.164062 0.0249023 -0.102539 -0.0810547 0.00463867 0.0559082 -0.00063324 -0.00714111 -0.0922852 -0.234375 -0.11377 0.0644531 -0.207031 -0.105469 0.03125 0.21875 0.248047 -0.271484 0.0603027 -0.147461 -0.160156 -0.0108643 -0.0192871 0.119629 0.130859 -0.0476074 0.137695 -0.139648 -0.0732422 -0.0285645 -0.196289 -0.0883789 -0.0302734 0.0235596 0.045166 -0.189453 -0.15918 0.123047 0.00762939 -0.283203 -0.212891 0.0654297 -0.173828 0.0795898 0.101562 0.246094 0.179688 0.11084 0.242188 0.296875 -0.193359 -0.00537109 0.0201416 0.166992 -0.102051 -0.0495605 0.102539 -0.102539 -0.114746 0.0432129 0.151367 -0.0539551 -0.186523 0.0610352 -0.000808716 -0.0220947 0.102051 0.0917969 -0.0634766 -0.3125 -0.0737305 0.0791016 0.0217285 -0.0368652 -0.15625 -0.181641 -0.224609 -0.202148 -0.0167236 0.0488281 -0.107422 -0.0339355 0.00540161 -0.0368652 -0.0737305 0.0986328 0.0246582 0.158203 0.0483398 -0.00817871 0.0830078 -0.0488281 0.0834961 0.259766 2.46763e-05 0.0791016 -0.0932617 -0.101562 -0.109863 0.041748 0.0375977 0.0476074 -0.143555 0.0727539 0.00579834 0.0588379 -0.220703 -0.00247192 0.123535 -0.0634766 0.106934 0.198242 0.0375977 -0.0737305 -0.203125 0.0241699 0.0144043 0.0286865 -0.052002 0.165039 -0.198242 0.0062561 0.0339355 -0.10498 0.0264893 0.163086 0.0678711 0.0214844 -0.132812 0.0322266 0.0456543 0.168945 -0.255859 -0.160156 -0.0107422 0.126953 0.0088501 0.161133 -0.0966797 0.0942383 0.0610352 -0.145508 0.0306396 -0.136719 0.0444336 -0.269531 -0.275391 -0.0461426 -0.065918 -0.0249023 -0.231445 -0.046875 0.0339355 -0.0164795 -0.0529785 0.0869141 -0.00497437 -0.0361328 0.133789 0.122559 -0.155273 -0.046875 -0.0844727 0.118164 0.210938 -0.0498047 0.108887 0.0334473 0.108887 -0.0356445 -0.0644531 -0.0849609 0.0332031 0.000759125 -0.214844 -0.185547 0.131836 0.137695 0.0834961 -0.107422 0.132812 0.115234 -0.131836 -0.0090332 0.18457 0.0654297 -0.0246582 0.0098877 -0.0549316 0.213867 0.0231934 0.186523 -0.03125 0.0698242 -0.0456543 0.0581055 -0.118652 0.160156 0.0163574 -0.0957031 -0.124512 -0.0791016 -0.059082 0.178711 0.0480957 0.0551758 0.0239258 -0.111816 -0.0615234 -0.136719 -0.0927734 0.0412598 0.0639648 0.09375 0.0605469 0.162109 -0.111328 0.0227051 -0.114258 0.0883789 -0.0771484 -0.0820312 0.0830078 0.136719 0.00183868 -0.0830078 -0.132812 -0.0549316 -0.0727539 0.166992 -0.0216064 0.0203857 0.163086 0.000150681 0.019165 -0.0737305 -0.0629883 0.0917969 -0.225586 -0.0869141 0.019165 0.129883 -0.119141 0.0115967 -0.0559082 0.032959 -0.057373 0.0344238 0.134766 -0.03125 0.0556641 -0.166992 0.0893555 -0.237305 0.0186768 0.0612793 0.120117 -0.0344238 -0.126953 -0.0874023 0.065918 0.0830078 -0.0805664 0.046875 0.0473633 -0.0123901 0.345703 0.0810547 -0.249023 0.0751953 -0.0834961 -0.000858307 -0.121582 0.229492 -0.294922 0.0119019
down 0.0245361 -0.10498 0.261719 0.185547 -0.0493164 -0.176758 0.0375977 -0.115723 0.203125 0.267578 -0.0368652 -0.224609 0.246094 -0.0439453 -0.167969 -0.267578 -0.0588379 -0.0351562 -0.145508 -0.263672 0.109863 0.0583496 0.0605469 -0.105957 0.25 0.106445 -0.0147095 -0.0742188 0.146484 -0.101074 0.139648 -0.0294189 0.0429688 -0.0932617 -0.116211 0.160156 -0.283203 -0.0296631 -0.121094 0.251953 0.144531 -0.457031 0.103516 -0.163086 -0.133789 0.0786133 -0.0581055 0.0476074 0.244141 -0.059082 -0.000261307 -0.0678711 -0.0712891 0.03125 -0.193359 -0.03125 -0.137695 0.0932617 0.128906 0.0170898 -0.0649414 -0.0240479 0.102539 -0.21875 -0.0324707 -0.0571289 -0.0610352 0.182617 0.143555 0.199219 0.0771484 -0.0830078 0.229492 0.180664 -0.125977 -0.00309753 0.161133 0.0527344 -0.0703125 0.0449219 0.0922852 -0.0839844 0.186523 -0.000564575 0.162109 -0.0168457 -0.163086 0.320312 0.108887 0.0893555 0.11377 0.207031 -0.0180664 -0.185547 -0.15332 -0.134766 -0.0299072 -0.00854492 -0.214844 -0.155273 -0.224609 -0.277344 0.168945 0.148438 0.0013504 -0.0654297 -0.0874023 0.0527344 0.0220947 -0.0698242 0.121582 0.0874023 0.117676 0.00364685 0.0544434 -0.0272217 0.185547 0.0473633 -0.119141 0.0571289 -0.118652 0.139648 -0.0683594 0.00390625 -0.0732422 0.0143433 -0.172852 -0.027832 0.00686646 0.0463867 -0.0446777 -0.0717773 0.186523 -0.101562 0.0737305 0.0761719 -0.115234 -0.175781 -0.230469 -0.0461426 0.0859375 -0.183594 -0.135742 0.140625 -0.135742 0.0324707 -0.0270996 -0.263672 -0.118652 0.201172 0.0115356 -0.0795898 -0.0776367 0.224609 -0.134766 0.291016 -0.0751953 0.117676 0.00106049 0.0375977 0.106934 0.246094 0.111328 -0.0571289 0.000151634 -0.177734 -0.0151978 -0.0317383 0.0388184 -0.130859 -0.253906 -0.00921631 -0.134766 0.0786133 -0.0229492 0.0708008 0.0883789 -0.0250244 -0.183594 0.205078 -0.0810547 0.0463867 0.0554199 0.181641 -0.0296631 0.0908203 0.0488281 0.169922 0.198242 -0.0336914 0.123535 0.0429688 -0.0463867 0.0605469 -0.141602 0.0035553 0.00823975 0.0108643 -0.0280762 -0.112793 0.249023 -0.00946045 0.0532227 -0.0201416 0.285156 0.0349121 -0.124512 -0.043457 -0.0228271 0.112793 -0.138672 -0.0159912 -0.176758 0.214844 0.0668945 0.0761719 0.00491333 -0.138672 -0.123535 -0.0253906 -0.0305176 0.0791016 -0.114258 -0.0693359 -0.0224609 -0.0119019 0.203125 0.15625 0.00897217 0.139648 0.138672 -0.0800781 -0.0708008 -0.25 -0.0463867 0.0791016 0.228516 0.0634766 0.108398 0.390625 0.0458984 0.0244141 -0.257812 -0.0600586 -0.0908203 -0.0996094 -0.0742188 0.116699 -0.0214844 -0.019043 0.111328 -0.0986328 0.0441895 -0.0927734 -0.129883 -0.130859 0.081543 -0.078125 0.026001 -0.0942383 -0.0441895 -0.0157471 -0.0996094 -0.108398 0.045166 0.0844727 -0.163086 -0.0588379 -0.0358887 0.0319824 0.0395508 0.0324707 0.135742 -0.257812 -0.0285645 -0.176758 -0.130859 -0.316406 -0.0334473 -0.0957031 0.0314941 -0.00259399 -0.172852 -0.0510254 0.131836 0.0976562 -0.223633 0.148438 0.0727539 -0.144531 0.140625 0.104492 -0.166016 0.0839844 -0.207031 0.253906 0.0336914 0.0605469 -0.165039 0.178711
front 0.193359 0.0649414 -0.074707 0.000873566 -0.0834961 -0.296875 -0.0296631 -0.0622559 -0.0393066 0.249023 0.326172 -0.158203 0.0742188 0.0668945 -0.0119019 -0.102051 0.0825195 -0.0319824 0.0844727 -0.0439453 0.18457 0.138672 -0.169922 0.0332031 -0.0429688 0.0158691 -0.207031 0.065918 -0.0588379 -0.0170898 -0.0402832 -0.0187988 0.0149536 0.0098877 0.178711 -0.198242 0.078125 0.189453 -0.209961 0.00756836 -0.15625 -0.175781 0.0507812 -0.120117 -0.0961914 0.347656 -0.249023 0.102539 0.102051 -0.0246582 0.0688477 0.0576172 -0.0571289 -0.0297852 0.0427246 0.0400391 0.0405273 0.00334167 0.0610352 -0.0258789 -0.245117 -0.0246582 -0.0253906 -0.310547 -0.0644531 0.146484 0.107422 0.102539 -0.0339355 0.425781 0.143555 0.170898 0.234375 -0.020752 -0.206055 -0.117188 0.0917969 0.0427246 -0.0119019 -0.103027 0.0302734 0.0371094 0.1875 0.0673828 0.1875 -0.019165 0.0300293 -0.0174561 -0.0422363 -0.0844727 -0.0683594 0.0263672 0.0354004 0.020752 -0.172852 -0.165039 -0.0776367 0.0839844 -0.0864258 0.000591278 -0.0854492 -0.289062 0.178711 -0.124512 -0.00830078 0.0280762 0.0336914 -0.0617676 0.020752 0.00799561 -0.0849609 0.0270996 -0.00325012 0.0334473 0.131836 -0.147461 -0.0378418 0.131836 0.0148315 0.102539 -0.0693359 -0.188477 -0.0981445 -0.0279541 -0.0383301 -0.0981445 -0.137695 0.0688477 0.130859 0.0209961 0.107422 -0.154297 0.00279236 -0.0214844 0.109863 -0.113281 0.065918 -0.0117188 -0.0529785 -0.00872803 0.213867 0.0476074 0.065918 -0.00717163 0.0766602 0.0981445 0.0317383 -0.193359 0.0371094 0.0922852 0.0498047 0.166992 0.114746 0.059082 0.0644531 0.0371094 -0.150391 -0.0390625 0.132812 0.154297 -0.11377 -0.00823975 -0.00396729 0.0766602 0.041748 -0.0756836 0.103516 -0.144531 -0.100098 -0.161133 -0.259766 -0.0415039 -0.0339355 -0.193359 -0.21582 -0.00439453 0.0581055 -0.0693359 -0.0109253 -0.102539 -0.191406 -0.0839844 0.0429688 -0.0532227 -0.28125 -0.123535 0.118164 0.167969 -0.0400391 -0.032959 0.198242 0.0115967 -0.0466309 0.0140991 -0.0144043 0.136719 0.169922 0.195312 -0.172852 -0.0122681 0.0305176 -0.0483398 -0.0148926 -0.163086 0.205078 -0.149414 0.202148 0.124512 0.0238037 0.0917969 -0.167969 0.0161133 -0.0280762 -0.11377 -0.000452042 -0.0231934 0.0151367 0.112793 -0.245117 0.0568848 -0.121582 0.0834961 0.12793 -0.0289307 -0.141602 -0.0178223 0.11377 0.0307617 0.118652 -0.0668945 -0.139648 -0.024292 0.1875 -9.9659e-05 -0.129883 -0.0898438 0.0213623 0.0683594 0.139648 0.121582 -0.0456543 0.269531 -0.118652 -0.112793 -0.133789 0.0512695 0.0583496 0.0830078 0.108398 -0.0136108 0.0136719 -0.124512 0.0820312 0.0922852 0.0583496 -0.209961 -0.151367 0.0354004 -0.238281 0.110352 0.0412598 0.0279541 -0.00190735 0.0600586 0.106445 0.115234 0.041748 0.0766602 -0.0629883 -0.0878906 -0.0588379 0.202148 0.146484 -0.139648 0.0147095 0.298828 -0.0771484 -0.0825195 -0.193359 0.0322266 0.0751953 -0.034668 -0.0400391 0.197266 0.00167847 -0.0148315 -0.212891 -0.046875 0.0849609 -0.139648 0.0383301 0.0507812 0.000185966 0.169922 0.0202637 0.0957031 -0.0771484 -0.0634766 -0.179688 -0.161133
back 0.074707 0.0163574 0.0878906 0.155273 0.00976562 -0.152344 -0.0461426 -0.263672 0.102051 0.168945 0.00415039 -0.0498047 0.0991211 0.120117 -0.228516 -0.09375 0.15625 0.196289 0.0688477 -0.11377 0.118652 0.165039 0.117188 0.0305176 0.00448608 0.181641 0.105957 -0.0222168 0.134766 -0.0751953 0.0327148 0.0947266 -0.0864258 0.0688477 -0.144531 -0.177734 0.0476074 -0.0664062 -0.0617676 0.217773 0.0400391 -0.211914 0.283203 -0.0888672 0.00686646 0.160156 -0.139648 0.0471191 0.222656 -0.0683594 -0.00915527 0.0961914 -0.142578 -0.104492 -0.101562 -0.0424805 0.0383301 0.0566406 0.102539 -0.108887 -0.0368652 -0.0205078 -0.164062 -0.0368652 -0.0727539 -0.0800781 0.0693359 0.175781 0.0415039 0.202148 0.10498 0.0067749 0.128906 0.097168 -0.195312 0.0498047 0.138672 0.0227051 -0.107422 -0.0306396 0.0402832 -0.0446777 0.195312 -0.145508 0.162109 -0.0294189 -0.188477 0.0388184 0.0673828 0.0761719 0.0123291 0.265625 -0.00363159 -0.277344 0.0172119 -0.0471191 0.0996094 0.0776367 -0.0620117 -0.0150757 -0.168945 -0.209961 0.125977 0.0664062 -0.0595703 -0.0761719 -0.0179443 0.0424805 0.048584 -0.0708008 0.0351562 0.216797 0.0854492 -0.036377 -0.0422363 -0.00396729 -0.00402832 0.148438 0.000808716 0.123535 -0.169922 -0.0581055 -0.0113525 0.101562 -0.0712891 -0.0874023 -0.146484 -0.0622559 -0.0559082 0.0463867 -0.0698242 -0.291016 -0.0786133 -0.163086 -0.173828 -0.0639648 0.0529785 0.0258789 -0.132812 0.140625 -0.0766602 -0.150391 0.101074 0.0505371 -0.106445 0.0585938 -0.19043 -0.0761719 -0.169922 0.131836 0.171875 0.0529785 -0.164062 0.233398 0.00674438 0.0708008 0.0183105 0.167969 0.104004 -0.131836 -0.026123 -0.0200195 0.136719 -0.0932617 0.0864258 -0.220703 -0.0500488 -0.0216064 -0.00769043 -0.0688477 -0.111816 -0.112793 0.0344238 0.0917969 0.0388184 0.0164795 0.0996094 -0.0571289 -0.060791 0.032959 -0.217773 0.0234375 0.0578613 0.205078 -0.0478516 0.0153809 -0.00367737 0.125 0.130859 -0.116699 0.0786133 -0.0185547 0.112793 -0.0620117 0.0825195 0.0205078 0.0393066 0.0898438 -0.00613403 -0.0378418 0.0273438 -0.0264893 0.103516 0.00479126 0.145508 0.145508 -0.160156 -0.074707 0.0893555 0.113281 -0.15918 0.203125 -0.109375 0.116699 0.0257568 -0.00558472 0.0605469 -0.0110474 -0.0554199 -0.0588379 -0.0654297 0.0334473 -0.00717163 -0.0177002 0.036377 -0.114258 0.0515137 0.126953 -0.0957031 -0.060791 -0.0131226 -0.0693359 0.00872803 -0.0583496 -0.155273 0.249023 0.013916 0.041748 0.0644531 0.186523 0.0284424 0.00521851 -0.233398 -0.237305 -0.0405273 0.00445557 -0.0644531 0.0157471 0.241211 0.140625 0.0600586 -0.0179443 -0.0756836 -0.0771484 -0.0874023 -0.0288086 -0.0178223 0.032959 -0.170898 0.0305176 0.000823975 0.122559 -0.183594 0.164062 0.163086 -0.0181885 0.0140991 -0.0229492 0.0688477 -0.0678711 0.0510254 0.0839844 0.220703 -0.116211 0.189453 -0.0678711 -0.0673828 -0.285156 -0.0668945 -0.0737305 0.0776367 -0.177734 -0.12207 -0.00976562 -0.0241699 0.0722656 -0.291016 0.0654297 0.0708008 0.0284424 -0.0429688 0.231445 -0.0878906 0.0698242 -0.133789 0.161133 -0.000272751 -0.0456543 0.013855 -0.0839844
left 0.233398 0.0732422 0.0444336 -0.0102539 -0.0556641 -0.176758 0.017334 -0.3125 0.169922 0.0166016 -0.0444336 -0.105469 0.0625 0.165039 -0.0368652 -0.110352 0.0296631 0.117676 -0.0324707 -0.0240479 0.128906 0.279297 0.0559082 0.220703 0.0490723 0.0222168 -0.0515137 -0.0495605 0.122559 -0.0568848 0.0272217 0.00604248 -0.160156 -0.052002 -0.146484 -0.032959 0.0466309 0.125977 -0.163086 0.100098 -0.0834961 -0.180664 0.104004 -0.145508 0.0649414 0.169922 0.00415039 -0.106445 0.113281 -0.0844727 -0.188477 0.0649414 -0.0678711 -0.125977 -0.0249023 0.129883 -0.0620117 0.0820312 -0.0476074 -0.045166 -0.0795898 0.150391 -0.125977 -0.217773 -0.152344 -0.137695 0.167969 0.0771484 -0.0668945 0.041748 0.150391 0.0898438 -0.0373535 0.00921631 -0.241211 -0.154297 -0.0162354 0.00915527 -0.182617 0.0177002 0.170898 -0.0273438 0.0378418 -0.0717773 0.00708008 -0.149414 0.00189972 -0.0673828 0.0137939 -0.00717163 -0.078125 0.0541992 0.19043 0.0405273 -0.121582 -0.191406 0.0476074 0.0893555 -0.0449219 0.0644531 -0.0402832 -0.0378418 0.0424805 0.144531 0.078125 -0.104004 0.165039 -0.0576172 -0.00265503 -0.15918 0.175781 -0.0766602 -0.0251465 -0.0253906 -0.100098 0.123535 0.122559 -0.0566406 0.186523 0.229492 -0.119629 0.0712891 -0.0795898 0.166016 0.0317383 -0.101562 -0.0157471 -0.0393066 -0.0678711 0.172852 0.0397949 0.000356674 0.0217285 0.0290527 -0.194336 -0.0727539 0.00524902 0.170898 0.0116577 -0.0639648 -0.139648 0.0756836 0.12793 0.0776367 -0.00872803 0.21582 -0.289062 -0.0810547 -0.106445 -0.102539 0.0795898 0.0991211 -0.0263672 0.0893555 0.154297 0.145508 -0.132812 -0.224609 0.0703125 -0.0100098 -0.226562 0.0537109 -0.0230713 0.0517578 0.0461426 -0.113281 0.090332 -0.0144043 -0.11377 -0.201172 -0.261719 -0.0101318 -0.100586 -0.109375 0.0231934 0.0229492 0.0388184 -0.0583496 0.0175781 0.0388184 -0.100586 0.0932617 0.0239258 0.0712891 -0.162109 0.0539551 0.0512695 0.105957 0.195312 0.0383301 0.0427246 -0.0737305 0.195312 0.0927734 -0.0422363 0.359375 0.106445 -0.0471191 0.00811768 0.00148773 -0.0991211 -0.15918 -0.120605 -0.0402832 0.166992 0.00656128 -0.0634766 0.0200195 0.0805664 -0.1875 -0.0583496 -0.179688 0.0878906 0.132812 0.052002 -0.0400391 -0.0612793 0.032959 -0.122559 0.00506592 -0.0791016 0.0189209 -0.041748 -0.0776367 0.195312 -0.11084 0.0136719 0.0708008 -0.0913086 0.00515747 0.147461 0.00534058 0.0134888 0.0168457 0.0544434 0.0427246 0.144531 -0.176758 0.020874 0.0800781 -0.036377 -0.0135498 0.0088501 -0.246094 -0.048584 0.120605 0.131836 -0.0126953 0.129883 0.0898438 0.100586 -0.337891 0.043457 0.132812 0.136719 -0.244141 0.157227 -0.0336914 -0.149414 0.0219727 -0.205078 0.0893555 -0.0402832 0.113281 -0.0217285 0.027832 0.138672 0.12207 0.0581055 0.0932617 0.125 -0.0444336 -0.103027 -0.209961 -0.0405273 -0.0291748 -0.0549316 -0.0639648 0.0339355 0.129883 0.121094 -0.145508 -0.0683594 0.0732422 0.0098877 0.0136719 -0.0400391 0.0849609 -0.21875 -0.0393066 -0.146484 0.0249023 -0.0605469 0.0961914 0.102051 -0.00909424 0.0854492 -0.162109 -0.123535 -0.0305176
right 0.145508 -0.0189209 0.0961914 0.128906 -0.12207 -0.201172 0.205078 -0.128906 -0.0532227 -0.0373535 -0.119141 -0.0810547 0.0424805 0.0703125 -0.196289 0.0476074 0.0917969 0.0424805 0.0317383 -0.167969 0.0495605 0.143555 -0.0170898 0.074707 0.100586 0.0227051 -0.0378418 0.0251465 0.0800781 -0.00653076 -0.034668 0.106934 0.0412598 0.0142822 -0.0319824 0.0220947 0.078125 0.0324707 -0.110352 0.00300598 -0.0839844 -0.104492 0.240234 -0.170898 -0.0441895 0.158203 0.0625 -0.09375 0.0947266 -0.134766 -0.168945 0.18457 0.059082 -0.121094 -0.162109 0.0598145 -0.0461426 -0.097168 -0.0961914 -0.128906 -0.160156 0.00964355 -0.0598145 -0.214844 -0.00897217 -0.107422 0.081543 0.0617676 -0.0791016 0.0810547 0.135742 -0.00848389 0.107422 -0.0471191 -0.154297 -0.0957031 0.189453 0.0292969 -0.183594 0.24707 0.0756836 0.12793 0.103516 -0.0405273 0.0913086 -0.174805 -0.041748 0.157227 0.0742188 -0.0791016 -0.138672 0.189453 0.00579834 -0.0505371 -0.170898 -0.174805 -0.00241089 -0.0368652 -0.036377 0.0854492 -0.0446777 -0.00860596 0.146484 0.0454102 -0.0131836 -0.0275879 -0.0751953 -0.0395508 0.0561523 -0.141602 -0.0544434 -0.155273 -0.197266 0.102051 0.020874 0.145508 0.118652 0.0683594 -0.0883789 0.0240479 -0.108398 0.0698242 -0.0446777 0.246094 -0.15625 -0.1875 -0.163086 -0.137695 -0.0825195 0.126953 -0.106445 -0.0115356 -0.0961914 0.0308838 0.0158691 -0.404297 0.110352 0.279297 0.227539 0.000991821 0.0493164 0.108398 0.188477 0.0834961 0.00149536 0.0444336 0.00320435 -0.0257568 0.0727539 -0.0820312 0.117188 0.170898 -0.0849609 0.165039 0.18457 0.125 -0.15625 -0.205078 0.0854492 -0.0311279 -0.180664 -0.026123 0.161133 -0.0307617 0.0302734 -0.168945 -0.0771484 -0.0952148 -0.136719 -0.0761719 -0.18457 -0.0267334 -0.00161743 0.010376 0.00242615 0.0307617 0.10498 -0.145508 -0.132812 0.000461578 -0.271484 -0.102051 0.0375977 -0.141602 0.0319824 -0.0255127 -0.0649414 0.078125 0.186523 -0.0288086 0.00946045 0.271484 0.0578613 -0.121094 -0.0203857 -0.0344238 -0.111328 0.0281982 0.108887 -0.0135498 -0.105957 -0.0454102 0.0341797 -0.027832 0.0383301 -0.0698242 -0.0405273 -0.0246582 0.0205078 0.0532227 -0.010437 0.000644684 -0.0693359 0.104004 0.0274658 -0.00683594 0.216797 0.00640869 -0.0253906 0.010376 -0.188477 -0.0098877 -0.0805664 -0.178711 0.169922 -0.0336914 0.0849609 0.0395508 -0.00744629 0.103516 0.0135498 -0.105469 -0.0942383 0.0476074 0.0505371 0.155273 -0.0227051 0.0146484 0.0303955 0.273438 0.0483398 0.0211182 -0.121582 -0.241211 0.0534668 0.0593262 0.0620117 0.112793 0.146484 0.0324707 -0.0250244 -0.216797 0.0167236 0.013916 0.226562 -0.230469 -0.0439453 0.0155029 -0.090332 -0.108887 -0.148438 -0.000240326 -0.120117 0.0878906 0.122559 0.112793 0.0981445 -0.043457 -0.0693359 0.0581055 0.00177002 0.1875 0.255859 0.00245667 -0.129883 -0.0405273 -0.0703125 -0.129883 -0.104004 0.0893555 0.0834961 -0.0922852 0.0227051 0.160156 -0.00325012 0.144531 -0.0245361 -0.112793 -0.0947266 -0.0529785 0.0629883 0.120605 -0.0410156 0.0172119 0.125 0.102539 0.185547 -0.0449219 -0.0539551 0.0300293
near 0.0922852 -0.201172 0.0693359 0.168945 0.078125 -0.0280762 -0.057373 -0.205078 0.126953 0.0976562 -0.168945 0.0625 -0.155273 0.0341797 -0.0727539 -0.21582 -0.138672 0.111328 -0.0198975 -0.181641 -0.147461 -0.0262451 -0.316406 -0.00515747 0.0878906 -0.28125 0.00427246 0.0588379 0.0922852 -0.206055 0.152344 -0.117188 -0.0228271 -0.255859 -0.21582 0.0050354 0.0966797 -0.100586 -0.0358887 0.0117188 -0.257812 -0.0405273 -0.0390625 -0.267578 -0.205078 0.00592041 -0.0308838 0.0294189 -0.0388184 0.183594 0.108398 0.121094 0.114258 -0.0986328 -0.0639648 -0.0358887 -0.0766602 -0.00582886 0.171875 -0.12793 -0.0859375 -0.0500488 -0.0698242 -0.314453 -0.0625 0.104004 0.261719 0.0825195 -0.0157471 0.198242 0.163086 -0.00430298 -0.0050354 0.090332 -0.112793 -0.0810547 -0.25 -0.0424805 -0.0218506 -0.0220947 0.125 0.057373 0.134766 0.0427246 0.168945 0.00976562 -0.0422363 -0.12207 -0.107422 -0.0634766 -0.123535 -0.0991211 -0.081543 0.052002 -0.208984 0.0732422 0.161133 0.121582 0.0800781 -0.160156 0.090332 0.0147705 0.298828 0.0126953 0.289062 -0.102051 -0.046875 -0.0981445 -0.204102 -0.0844727 0.03125 0.137695 0.0703125 -0.122559 -0.0571289 -0.129883 0.027832 0.124512 -0.0257568 0.0673828 0.176758 0.00744629 0.0339355 -0.0791016 -0.0147705 -0.029541 -0.0732422 -0.205078 0.115234 0.0859375 -0.0791016 -0.166992 0.0493164 -0.0585938 -0.0947266 -0.100098 0.0419922 -0.165039 -0.202148 0.21875 0.121094 0.00205994 0.179688 0.152344 0.0576172 -0.00288391 0.0195312 -0.0708008 -0.259766 -0.185547 -0.0133057 0.15918 0.11377 0.0233154 -0.144531 0.102051 -0.0688477 0.251953 0.0490723 0.074707 -0.0786133 -0.0390625 -0.118652 0.0471191 0.100098 0.237305 0.197266 -0.0128784 -0.0612793 -0.217773 -0.0678711 -0.0495605 -0.0383301 -0.128906 -0.048584 -0.0844727 0.0324707 0.0898438 -0.0407715 0.136719 -0.0986328 0.0393066 -0.108887 0.0766602 -0.0888672 -0.0908203 0.122559 0.152344 0.132812 0.240234 -0.0534668 0.0751953 0.00515747 0.208984 -0.308594 0.0893555 -0.230469 0.0541992 0.128906 -0.108887 0.225586 -0.125 -0.0151367 -0.277344 0.116699 -0.0354004 0.032959 0.137695 0.0302734 -0.0830078 0.0090332 -0.0673828 -0.246094 0.0437012 -0.146484 -0.0712891 0.160156 0.0135498 -0.201172 0.22168 0.043457 0.267578 -0.0532227 -0.168945 0.15332 -0.108398 0.0258789 0.00921631 0.131836 -0.0402832 0.0712891 -0.203125 0.0490723 0.0830078 0.0712891 -0.00708008 0.104492 0.0288086 0.275391 0.207031 -0.0388184 -0.0168457 -0.0524902 -0.287109 -0.0981445 0.029541 0.0922852 -0.0264893 0.0703125 0.032959 -0.10498 -0.0751953 0.275391 0.123047 0.142578 -0.0776367 0.0529785 0.173828 -0.12207 -0.0088501 0.00390625 0.0378418 0.125977 0.203125 0.235352 0.135742 -0.0625 -0.198242 0.0673828 0.0888672 -0.123535 -0.110352 -0.036377 -0.119629 -0.0864258 -0.131836 -0.0289307 -0.213867 -0.0217285 -0.0854492 0.059082 -0.027832 -0.114258 0.196289 -0.024292 0.0551758 -0.172852 -0.0732422 -0.109375 0.060791 -0.112305 0.0264893 -0.119141 0.0634766 0.0456543 -0.0966797 -0.194336 -0.00866699 0.128906 -0.21582
far -0.0253906 -0.00158691 -0.0283203 0.0544434 0.0407715 -0.00408936 0.0693359 -0.0854492 0.253906 0.133789 0.0189209 -0.171875 0.292969 0.128906 0.0397949 0.141602 0.178711 -0.0510254 -0.0128174 -0.0233154 -0.0458984 0.0127563 0.0578613 -0.209961 0.300781 -0.177734 0.046875 -0.0844727 0.019043 -0.090332 0.065918 0.15918 -0.0727539 -0.197266 -0.194336 0.0554199 -0.0717773 -0.0368652 0.0612793 0.0351562 0.109375 -0.0458984 -0.015625 0.15918 -0.160156 -0.107422 -0.188477 0.166016 0.116211 -0.296875 0.245117 -0.157227 0.0327148 -0.0490723 0.0598145 0.160156 -0.0541992 -0.0688477 -0.0380859 -0.0057373 -0.121582 0.191406 0.151367 -0.296875 0.0174561 -0.120605 0.0480957 0.135742 -0.126953 0.111328 0.0830078 0.065918 0.152344 -0.145508 -0.0302734 0.0388184 0.0786133 0.0546875 0.135742 -0.097168 0.0539551 -0.0776367 0.165039 0.0419922 -0.169922 -0.103516 -0.259766 -0.057373 0.0786133 -0.0603027 0.180664 0.164062 -0.292969 -0.101074 -0.0292969 -0.0400391 0.0334473 0.0510254 -0.0664062 0.107422 -0.034668 -0.0776367 -0.0786133 0.129883 0.0137939 -0.207031 0.0600586 -0.0786133 0.052002 -0.132812 0.0947266 0.0471191 0.163086 -0.078125 0.0500488 0.206055 0.320312 -0.19043 0.0532227 0.108398 0.00518799 0.263672 -0.0654297 0.0194092 -0.106445 0.024292 -0.0537109 -0.0529785 -0.0805664 -0.140625 -0.130859 -0.208984 0.0683594 -0.116699 -0.220703 -0.15332 0.138672 0.196289 0.151367 -0.0742188 0.032959 0.0517578 0.163086 -0.0649414 0.170898 -0.0283203 -0.163086 -0.015564 -0.238281 -0.0588379 -0.0795898 -0.074707 -0.181641 -0.0368652 -0.0913086 0.0463867 0.125977 -0.0300293 -0.175781 0.00970459 -0.0169678 0.249023 0.0581055 -0.128906 0.194336 -0.175781 0.0112305 0.00334167 -0.0397949 -0.0162354 -0.1875 0.0756836 -0.0144043 -0.18457 0.114258 0.065918 -0.0932617 -0.210938 -0.013855 -0.0981445 0.03125 -0.12207 -0.0617676 0.024292 0.0251465 0.0517578 -0.0986328 0.0649414 -0.0625 0.208984 0.196289 0.106934 0.229492 0.0727539 -0.0795898 -0.074707 -0.0149536 0.00640869 0.212891 -0.19043 0.0233154 0.0883789 0.0751953 0.176758 0.0148315 -0.126953 -0.162109 -0.202148 -0.181641 0.09375 -0.119629 -0.0693359 -0.0932617 -0.103516 -0.302734 -0.161133 0.206055 0.0568848 0.0203857 0.168945 -0.090332 -0.0737305 0.0407715 0.0898438 -0.0424805 -0.104492 0.115723 0.0473633 0.137695 -0.100098 0.0310059 -0.259766 0.24707 -0.104492 -0.0444336 0.169922 -0.201172 -0.306641 0.122559 -0.0132446 0.0668945 0.0432129 0.202148 -0.199219 0.10791 0.137695 0.00335693 0.0228271 -0.0727539 0.142578 0.0239258 -0.00817871 0.271484 0.0356445 0.00250244 -0.0505371 0.134766 0.134766 0.00524902 -0.18457 0.111328 -0.0620117 -0.0192871 -0.172852 0.219727 0.200195 -0.245117 -0.222656 -0.0683594 0.0378418 -0.0390625 0.0402832 0.120605 -0.0158691 -0.199219 0.00933838 -0.145508 -0.0966797 -0.078125 -0.0878906 0.154297 0.0344238 -0.125 -0.0554199 -0.0133057 0.0805664 -0.0629883 -0.126953 0.165039 0.15625 -0.373047 -0.0966797 -0.0737305 0.0820312 0.0649414 0.0378418 0.21582 -0.185547 0.110352 -0.157227
center 0.045166 0.114258 0.137695 -0.0771484 -0.168945 -0.113281 0.126953 -0.0654297 -0.209961 -0.0122681 -0.106934 -0.144531 0.065918 -0.164062 0.0649414 -0.154297 -0.0349121 -0.208984 0.199219 -0.154297 0.116211 0.133789 -0.0461426 0.0854492 0.0505371 -0.166016 -0.0373535 -0.0351562 0.104492 -0.182617 0.149414 -0.0358887 -0.196289 0.0883789 -0.0898438 -0.347656 -0.175781 -0.0057373 0.0349121 -0.0859375 -0.0625 -0.224609 -0.150391 -0.0233154 -0.00393677 -0.167969 -0.027832 0.050293 0.0917969 0.0449219 0.0212402 0.304688 -0.145508 -0.130859 -0.0742188 -0.126953 -0.214844 -0.0825195 -0.136719 -0.164062 -0.0158691 -0.188477 -0.113281 -0.421875 0.0922852 -0.0136108 -0.111816 0.0986328 0.15625 -0.0466309 -0.141602 -0.015625 0.176758 -0.0551758 -0.289062 0.00546265 -0.123047 0.140625 -0.00222778 -0.0229492 0.114258 0.11084 0.00159454 -0.231445 0.143555 -0.204102 -0.130859 -0.019165 0.121094 -0.0932617 0.124512 -0.00253296 0.00695801 -0.180664 0.0161133 0.157227 0.105469 -0.0756836 -0.131836 0.0291748 0.0458984 -0.0172119 0.0412598 0.103516 -0.0478516 -0.178711 -0.131836 -0.0961914 -0.0888672 -0.219727 -0.0256348 0.0776367 0.0888672 0.0274658 -0.0314941 0.116211 0.110352 0.10791 0.208008 0.0223389 -0.145508 -0.208008 -0.0187988 0.291016 -0.11377 -0.0766602 -0.140625 0.0233154 0.34375 -0.0195312 0.131836 -0.130859 0.0756836 0.143555 -0.0424805 -0.265625 -0.0292969 0.102539 -0.0742188 -0.176758 -0.00747681 -0.0761719 0.398438 0.0820312 -0.0668945 -0.175781 -0.0334473 0.097168 -0.139648 -0.0488281 0.34375 0.178711 -0.229492 0.212891 0.172852 0.0917969 -0.0356445 -0.0100098 0.191406 -0.155273 0.00253296 0.0664062 0.181641 -0.183594 -0.0128174 0.110352 0.046875 -0.0673828 -0.12207 -0.189453 0.0654297 -0.204102 -0.0529785 -0.125 0.181641 0.041748 0.115234 0.00228882 0.139648 0.0874023 -0.0534668 0.0189209 -0.0136108 -0.0339355 -0.0268555 -0.196289 0.090332 0.0820312 0.0625 0.0292969 -0.0177002 -0.130859 0.241211 -0.0317383 0.0264893 -0.0400391 -0.0566406 0.00479126 0.0458984 -0.103516 -0.171875 -0.149414 -0.0839844 -0.161133 0.255859 -0.0410156 0.40625 -0.0524902 0.25 -0.116699 0.0065918 -0.171875 -0.216797 0.0874023 -0.000579834 0.0155029 -0.102051 0.0194092 -0.157227 0.141602 0.196289 0.172852 -0.0368652 -0.157227 0.0180664 0.138672 -0.181641 0.135742 -0.104492 -0.124512 0.228516 0.0164795 0.0113525 -0.134766 -0.0947266 0.0854492 -0.145508 -0.0107422 0.0388184 -0.0908203 0.0942383 0.0231934 0.0664062 -0.11377 -0.0368652 -0.118652 0.12207 -0.0183105 0.102539 -0.160156 -0.0292969 -0.0859375 0.0947266 -0.0776367 0.0546875 -0.145508 -0.00753784 0.081543 -0.449219 0.119629 0.0185547 -0.0888672 -0.0563965 0.21875 0.279297 0.0257568 0.249023 0.0976562 -0.232422 0.324219 -0.0966797 -0.170898 -0.0737305 -0.279297 0.102051 0.125 0.0020752 -0.130859 -0.24707 -0.0466309 0.0268555 0.0737305 0.12207 0.25 -0.0678711 0.0291748 0.0981445 0.0551758 0.189453 0.0976562 0.0563965 0.139648 -0.0424805 0.138672 0.0603027 -0.12793 0.134766 -0.0327148 -0.117188 0.0737305
periphery 0.214844 0.0751953 -0.0113525 0.219727 -0.316406 0.0981445 0.0888672 -0.155273 -0.287109 0.0322266 -0.0327148 -0.183594 0.151367 0.0544434 -0.129883 -0.0756836 -0.0209961 -0.0286865 0.0480957 0.116211 0.0419922 0.104004 0.0947266 0.111328 0.0119019 -0.145508 -0.191406 0.0727539 0.0114746 -0.119141 -0.107422 -0.0617676 0.155273 -0.0128174 -0.241211 -0.183594 -0.193359 -0.128906 0.162109 0.116699 -0.0559082 0.12793 0.0712891 -0.0419922 0.0605469 0.1875 0.0554199 -0.0776367 0.0874023 -0.103516 -0.0839844 0.0274658 -0.119141 -0.0634766 0.0844727 -0.245117 0.0849609 0.0507812 0.117188 -0.333984 -0.15332 -0.0981445 -0.0500488 -0.3125 0.0683594 -0.238281 -0.0612793 0.230469 0.000740051 0.0136108 0.0327148 -0.212891 0.371094 -0.0932617 -0.0578613 -0.357422 -0.000152588 -0.117676 -0.0268555 0.00823975 0.322266 0.398438 0.0859375 -0.0139771 0.0317383 -0.0732422 -0.0805664 -0.208984 0.130859 -0.0153198 -0.114746 -0.182617 -0.0966797 0.103516 -0.251953 -0.00830078 0.337891 -0.0952148 -0.126953 -0.0712891 -0.00680542 -0.0917969 0.21582 0.0927734 0.0620117 -0.108398 -0.232422 0.0299072 0.0446777 -0.210938 -0.226562 0.0214844 0.24707 0.00216675 0.0388184 -0.164062 -0.0849609 0.125 0.347656 0.12793 -0.125977 0.104004 -0.191406 0.0625 -0.197266 -0.22168 -0.0303955 0.170898 -0.059082 -0.246094 0.251953 -0.090332 0.026001 0.203125 -0.208984 -0.045166 -0.0563965 -0.116211 0.0383301 -0.00970459 0.21875 -0.322266 0.21875 0.201172 0.133789 -0.0167236 -0.0820312 0.163086 -0.253906 -0.0378418 0.0441895 0.125977 -0.0297852 -0.114746 0.0864258 0.326172 -0.192383 -0.0177002 0.106445 0.120117 0.277344 -0.0441895 0.022583 -0.149414 0.204102 0.240234 0.182617 -0.0227051 -0.191406 0.00860596 -0.0639648 -0.12207 0.289062 -0.0766602 0.125 -0.148438 -0.106934 -0.234375 0.347656 -0.205078 -0.097168 -0.128906 0.0913086 0.152344 0.104004 0.119629 0.0996094 0.0332031 0.0617676 0.0791016 0.244141 0.0378418 -0.00619507 0.114746 0.00570679 0.0639648 -0.116699 0.261719 0.0732422 0.104004 0.19043 0.225586 -0.0947266 -0.337891 0.257812 -0.121582 0.124023 -0.155273 0.121094 -0.230469 -0.0878906 -0.351562 -0.197266 0.0268555 -0.0078125 -0.207031 -0.034668 0.0610352 0.174805 0.0466309 -0.081543 0.0883789 -0.285156 0.189453 -0.298828 0.228516 -0.0556641 0.188477 0.18457 -0.0424805 0.136719 -0.306641 0.141602 0.139648 0.0908203 -0.164062 -0.0961914 -0.200195 0.133789 0.00175476 0.126953 0.0354004 0.12207 -0.119141 -0.152344 0.0148926 0.183594 -0.0708008 -0.161133 0.294922 0.176758 0.0334473 0.261719 0.200195 0.0473633 -0.285156 -0.0279541 0.0927734 -0.0742188 0.0393066 -0.0878906 -0.265625 0.0189209 0.203125 0.146484 0.173828 -0.178711 -0.298828 -0.285156 -0.285156 -0.21582 -0.0136108 -0.0071106 -0.0168457 0.0327148 -0.0957031 0.0201416 -0.0302734 -0.263672 0.0649414 -0.00427246 -0.109863 0.129883 -0.0561523 -0.0727539 0.1875 -0.332031 0.0383301 0.0849609 -0.0478516 -0.178711 0.267578 -0.0142212 -0.0488281 -0.0410156 0.248047 -0.0432129 -0.0400391 0.134766 -0.0673828
contact 0.046875 -0.239258 -0.0030365 -0.224609 -0.124512 0.302734 -0.00717163 0.0439453 0.0250244 -0.106934 -0.108398 -0.0140991 -0.322266 0.132812 0.0639648 0.0874023 0.174805 -0.0957031 -0.0888672 -0.0114136 0.314453 -0.0820312 -0.0568848 0.0795898 -0.161133 0.204102 -0.0179443 0.0102539 0.294922 -0.162109 0.144531 -0.182617 -0.161133 -0.417969 0.109863 -0.203125 0.197266 -0.12207 0.00842285 -0.15918 -0.0976562 -0.065918 -0.265625 -0.125977 -0.104492 -0.00396729 -0.0349121 0.0444336 -0.103027 0.0130615 -0.0258789 -0.146484 0.0603027 0.0559082 -0.0854492 -0.15332 0.298828 0.0544434 -0.0922852 -0.043457 -0.106934 -0.3125 -0.199219 0.090332 -0.273438 0.120605 0.0385742 0.0588379 0.110352 0.25 -0.0361328 -0.123535 0.0498047 0.0419922 -0.143555 -0.0246582 0.0527344 -0.00531006 0.410156 0.224609 0.0368652 0.0478516 0.316406 0.165039 0.155273 -0.253906 -0.124512 -0.349609 0.109375 0.160156 0.239258 -0.0549316 0.0402832 -0.265625 0.0976562 0.168945 0.306641 0.142578 -0.0130615 0.15918 -0.146484 -0.101074 -0.0393066 0.34375 -0.00239563 -0.170898 0.0717773 0.21582 0.0957031 0.0966797 -0.136719 -0.261719 0.0588379 -0.154297 -0.271484 -0.0595703 -0.034668 0.0375977 0.182617 0.0688477 -0.208008 0.177734 0.145508 0.527344 -0.158203 -0.0771484 -0.15332 -0.0356445 0.394531 0.173828 -0.152344 -0.310547 0.0332031 0.0805664 0.152344 -0.287109 0.0708008 -0.1875 -0.0771484 0.0942383 0.19043 0.146484 -0.4375 -0.0510254 0.197266 0.314453 -0.121094 -0.105957 -0.162109 0.0395508 0.320312 0.0456543 -0.261719 0.298828 -0.0922852 -0.152344 -0.114746 -0.0515137 -0.109863 -0.0510254 0.128906 0.210938 -0.166992 -0.0495605 -0.0761719 0.0144653 -0.0693359 -0.0524902 -0.0419922 0.0981445 0.118164 0.0319824 0.349609 -0.0576172 -0.0571289 -0.0805664 0.11084 -0.0864258 -0.228516 0.097168 -0.09375 0.0071106 0.244141 -0.0810547 0.108398 -0.228516 -0.0673828 -0.269531 -0.0673828 0.176758 -0.143555 0.00909424 -0.149414 -0.0703125 0.222656 0.261719 0.185547 0.00512695 -0.0180664 -0.283203 0.304688 0.1875 -0.0830078 0.0194092 0.0864258 -0.263672 -0.170898 -0.241211 0.0874023 0.0280762 0.104492 -0.120605 -0.0957031 -0.0114136 -0.0981445 -0.0571289 0.112305 0.0220947 -0.00952148 -0.230469 0.0407715 0.203125 -0.0432129 0.230469 0.081543 0.135742 0.223633 0.322266 0.00159454 -0.145508 0.15625 0.171875 -0.176758 -0.0952148 -0.0932617 -0.183594 -0.0483398 -0.151367 -0.255859 -0.0664062 0.0771484 0.0673828 -0.0229492 -0.0253906 0.306641 0.212891 0.131836 0.0844727 0.19043 -0.0888672 0.175781 0.0512695 -0.074707 -0.0332031 0.195312 -0.0234375 -0.168945 -0.0603027 -0.180664 0.21875 0.0996094 -0.0351562 -0.212891 0.0703125 0.132812 0.142578 0.246094 0.0668945 0.060791 -0.081543 -0.00056076 0.241211 -0.0554199 0.0324707 0.0192871 -0.246094 -0.133789 0.00454712 -0.166016 0.197266 0.026001 0.143555 0.248047 0.0805664 -0.0159912 0.041748 -0.201172 0.40625 -0.0578613 -0.271484 -0.146484 0.3125 0.198242 0.0698242 0.231445 0.0830078 0.177734 0.0546875 -0.0854492 -0.183594
path 0.0834961 0.138672 0.00582886 0.213867 0.0249023 -0.131836 0.121094 -0.412109 -0.236328 0.349609 -0.0678711 -0.151367 0.136719 -0.229492 0.169922 -0.0859375 0.0559082 -0.0581055 0.148438 -0.15332 0.333984 0.365234 -0.036377 0.116211 0.154297 -0.081543 -0.291016 -0.193359 0.133789 0.112793 0.128906 -0.0849609 -0.201172 0.145508 -0.353516 0.0390625 0.0766602 -0.369141 -0.0869141 -0.0913086 0.0761719 0.0922852 0.118164 0.0297852 -0.21582 0.129883 0.0125732 -0.0559082 -0.00915527 -0.0113525 -0.0957031 0.00509644 0.0629883 -0.0612793 0.398438 -0.0366211 -0.119629 -0.257812 -0.135742 -0.103027 -0.0664062 -0.00210571 0.294922 0.146484 0.059082 0.141602 0.347656 0.176758 -0.0153198 0.0654297 -0.237305 0.0649414 0.298828 -0.388672 -0.00915527 -0.162109 -0.0090332 0.151367 0.206055 0.0488281 0.174805 0.0253906 0.131836 -0.316406 0.472656 0.143555 0.0130005 -0.0131836 0.523438 0.0247803 0.0966797 -0.143555 -0.0284424 0.121582 0.223633 -0.0507812 -0.0332031 0.0317383 -0.175781 -0.164062 0.0766602 -0.0290527 0.0388184 0.269531 -0.0395508 -0.0844727 -0.164062 -0.237305 0.175781 -0.132812 -0.074707 -0.065918 0.0874023 -0.00662231 -0.000686646 0.214844 -0.0177002 0.0913086 -0.173828 0.330078 0.0231934 0.104004 0.131836 -0.0390625 -0.144531 0.0947266 -0.243164 0.0201416 0.100586 0.133789 -0.185547 0.0319824 0.00138092 -0.0172119 0.104004 -0.050293 -0.333984 0.0380859 0.0869141 0.22168 0.00735474 -0.00448608 -0.126953 0.137695 -0.017334 0.00439453 -0.0214844 -0.445312 -0.253906 0.0727539 -0.244141 -0.206055 0.0307617 0.209961 -0.439453 0.0791016 -0.255859 -0.0996094 0.292969 -0.00692749 -0.0361328 0.210938 0.125977 -0.0585938 -0.0854492 -0.111328 0.0490723 0.0174561 -0.275391 -0.183594 0.202148 0.209961 -0.202148 -0.0615234 0.148438 -0.148438 0.0791016 -0.125977 -0.0756836 0.0407715 -0.492188 -0.174805 -0.0549316 0.032959 -0.144531 -0.255859 -0.0147705 0.19043 0.236328 0.0016098 0.476562 -0.026123 -0.00836182 0.0834961 -0.174805 -0.171875 -0.503906 0.206055 -0.138672 -0.0883789 0.154297 0.0854492 -0.0427246 -0.123047 -0.106934 0.0917969 0.0529785 -0.121094 -0.045166 -0.296875 -0.0341797 0.204102 -0.294922 0.154297 -0.106934 0.109375 0.173828 0.283203 0.0317383 0.0737305 -0.0314941 -0.197266 -0.00665283 0.193359 -0.0412598 -0.25 0.198242 -0.167969 0.271484 0.226562 0.181641 -0.10498 0.090332 -0.0527344 0.0922852 0.0155029 -0.302734 -0.155273 0.136719 0.0722656 -0.176758 0.0317383 -0.0603027 -0.0341797 0.0473633 -0.0378418 0.157227 0.320312 0.0588379 -0.148438 0.0478516 0.145508 -0.11377 0.129883 0.126953 -0.0240479 0.152344 0.202148 -0.337891 -0.129883 -0.0483398 -0.160156 0.0275879 0.324219 0.193359 0.289062 -0.174805 -0.205078 -0.242188 0.0373535 -0.0668945 -0.0698242 -0.0324707 0.318359 -0.279297 0.00349426 -0.179688 -0.00637817 0.259766 -0.0839844 0.0324707 0.0022583 -0.206055 -0.0198975 -0.00473022 0.12793 -0.234375 0.257812 -0.0522461 0.103027 -0.0629883 0.154297 -0.226562 0.0554199 0.0473633 -0.046875 0.109863 0.0368652 0.0324707 0.0198975
reducing -0.337891 0.104004 -0.0888672 -0.0251465 -0.0795898 -0.0290527 0.0429688 0.0490723 0.235352 0.0834961 -0.0947266 -0.225586 0.131836 0.186523 -0.0825195 -0.328125 -0.242188 0.129883 -0.162109 0.196289 0.116699 -0.045166 -0.122559 -0.0786133 -0.0991211 0.0551758 -0.161133 0.102051 -0.202148 0.0194092 0.0917969 -0.417969 -0.0981445 -0.0305176 0.024292 -0.151367 0.0668945 -0.0634766 0.335938 0.386719 0.0490723 -0.0194092 -0.00148773 0.128906 -0.367188 -0.185547 0.15625 0.15918 0.109375 -0.273438 0.161133 -0.0120239 -0.03125 -0.300781 0.0449219 -0.155273 -0.384766 -0.006073 0.0639648 0.00878906 -0.0524902 0.423828 -0.251953 -0.192383 0.214844 0.279297 -0.0546875 0.289062 -0.238281 -0.106445 0.000938416 0.166016 -0.0942383 0.22168 -0.300781 -0.402344 0.141602 0.261719 -0.217773 0.0500488 0.0163574 -0.185547 -0.0795898 -0.112793 0.306641 -0.000640869 -0.0490723 0.300781 0.191406 0.101074 0.140625 -0.0981445 0.02771 -0.0854492 -0.108887 -0.164062 -0.0515137 0.0234375 -0.0446777 0.176758 -0.195312 -0.177734 0.0766602 -0.137695 -0.0688477 0.043457 0.0922852 -0.235352 0.225586 -0.460938 0.119629 -0.15332 0.0153809 0.146484 0.188477 0.074707 0.078125 -0.00799561 0.147461 0.154297 0.0055542 0.330078 0.0286865 0.0629883 0.0297852 0.0996094 -0.275391 0.0301514 -0.0356445 0.232422 0.198242 0.0341797 -0.111328 -0.0588379 0.0615234 -0.165039 -0.131836 -0.150391 0.149414 0.246094 0.0332031 -0.216797 -0.0722656 0.178711 0.140625 -0.0712891 -0.121094 -0.242188 0.0549316 -0.00189209 0.138672 -0.125 -0.0209961 -0.0878906 0.24707 0.00793457 0.149414 0.00646973 -0.365234 0.00466919 0.136719 0.0197754 -0.0181885 -0.0957031 -0.179688 0.230469 -0.0522461 0.0114136 0.117676 -0.400391 -0.0483398 -0.121582 -0.144531 0.150391 -0.0407715 -0.00598145 0.207031 -0.0578613 -0.265625 -0.0480957 -0.169922 -0.0101318 0.253906 0.178711 0.0649414 0.19043 -0.289062 -0.0167236 0.0703125 0.02771 -0.302734 -0.0334473 -0.0441895 -0.097168 -0.196289 -0.180664 0.0805664 -0.0211182 0.197266 -0.114746 0.137695 -0.081543 0.0629883 -0.234375 0.110352 0.019043 -0.0622559 0.0737305 -0.255859 -0.12207 0.101562 -0.24707 -0.0255127 0.231445 0.0422363 0.0296631 -0.0639648 -0.182617 -0.103027 0.0996094 -0.0252686 0.0432129 0.283203 -0.116211 -0.175781 0.111816 -0.112793 -0.0952148 -0.0045166 0.111328 -0.195312 0.0437012 0.128906 -0.020752 -0.209961 -0.253906 -0.173828 0.0568848 -0.134766 -0.186523 -0.135742 0.0913086 -0.0732422 -0.136719 0.034668 -0.148438 -0.103516 0.065918 -0.0222168 -0.140625 -0.209961 -0.00396729 -0.0427246 -0.0927734 -0.179688 -0.0585938 0.101562 0.0634766 -0.010498 0.0654297 0.292969 -0.10498 -0.0262451 -0.152344 -0.0018158 -0.0981445 -0.0688477 -0.0203857 -0.0922852 -0.135742 0.0319824 0.302734 -0.0874023 -0.357422 -0.110352 -0.148438 -0.237305 0.0698242 -0.0598145 -0.0296631 -0.0480957 0.100098 0.0100098 -0.292969 -0.0634766 0.0639648 -0.0415039 0.128906 0.191406 -0.114258 -0.238281 0.118652 -0.00643921 0.0262451 -0.353516 0.205078 -0.0273438 -0.125 -0.0437012 0.12793
growing -0.0942383 0.333984 -0.201172 0.0952148 -0.242188 -0.0427246 -0.231445 -0.294922 -0.114746 0.157227 0.0183105 -0.0324707 0.0527344 -0.0612793 -0.193359 -0.324219 -0.143555 0.200195 -0.045166 0.0512695 -0.0334473 0.101562 -0.0390625 0.0317383 -0.174805 -0.125977 -0.167969 0.178711 0.0878906 -0.0230713 0.0761719 -0.0551758 -0.0732422 -0.200195 0.202148 0.00128937 0.114258 -0.172852 0.143555 0.148438 0.296875 -0.128906 -0.0986328 -0.0488281 -0.0546875 -0.195312 0.0473633 -0.0090332 -0.0427246 -0.1875 0.0603027 -0.134766 -0.128906 -0.0849609 0.235352 0.267578 -0.0563965 -0.0678711 0.0668945 -0.0805664 0.0195312 0.259766 -0.152344 -0.0981445 -0.0654297 0.174805 -0.0883789 0.0294189 0.0167236 -0.106934 0.0742188 0.0859375 -0.0466309 0.217773 -0.00160217 0.0334473 -0.0664062 0.017334 -0.036377 0.267578 0.170898 -0.0524902 0.0419922 0.151367 -0.200195 -0.269531 -0.335938 0.294922 -0.0115356 0.124023 0.535156 -0.0981445 -0.134766 -0.0927734 -0.148438 0.0874023 0.167969 0.0410156 -0.0878906 -0.185547 -0.330078 -0.0678711 0.0163574 -0.0534668 0.00299072 0.00427246 0.0196533 -0.166992 0.0634766 -0.193359 0.0351562 -0.416016 -0.22168 0.0947266 0.0996094 0.130859 0.0639648 -0.0152588 0.235352 0.0830078 0.0717773 -0.0917969 -0.0424805 0.0551758 -0.0454102 0.179688 -0.197266 -0.0490723 -0.0168457 0.194336 0.0751953 0.15625 -0.0319824 -0.0181885 0.214844 0.0439453 0.228516 -0.0756836 0.163086 -0.236328 -0.28125 -0.106934 -0.11084 0.0727539 0.0791016 -0.122559 -0.00521851 -0.0742188 0.0339355 -0.157227 0.132812 0.0883789 0.200195 -0.0712891 -0.0722656 0.134766 -0.142578 -0.155273 -0.0297852 -0.101562 0.0478516 -0.124512 -0.130859 -0.271484 0.0893555 0.134766 0.15332 -0.097168 0.200195 -0.0441895 -0.167969 0.0654297 -0.0216064 0.09375 0.0795898 0.00793457 -0.109863 -0.0476074 -0.00860596 0.0981445 0.203125 -0.0883789 0.03125 -0.292969 0.0490723 0.0986328 -0.171875 0.00069046 -0.109375 0.0893555 -0.010376 -0.10498 -0.0688477 -0.345703 -0.0947266 -0.00964355 -0.228516 -0.0454102 0.12793 -0.0913086 -0.168945 0.0576172 0.195312 -0.0634766 -0.0698242 0.173828 0.28125 -0.0546875 0.0463867 0.186523 -0.249023 -0.00775146 -0.0708008 -0.019165 -0.117188 0.149414 -0.0111084 -0.0776367 -0.0102539 0.222656 0.15332 0.157227 -0.0444336 -0.0149536 -0.00610352 -0.10791 -0.235352 -0.445312 0.00228882 0.0605469 -0.289062 0.020874 0.166016 0.045166 -0.0556641 -0.15918 -0.140625 -0.0290527 -0.0859375 -0.0505371 0.0510254 -0.0673828 0.0175781 -0.015564 0.137695 0.118652 0.176758 -0.109375 -0.0776367 0.0112915 -0.120117 0.074707 0.155273 0.0493164 0.166992 0.0198975 0.106445 -0.226562 -0.333984 0.145508 0.0678711 -0.0722656 0.108887 0.118164 0.125977 0.209961 -0.337891 -0.0693359 -0.0368652 -0.0761719 -0.205078 0.158203 0.0991211 -0.0407715 -0.111328 -0.166992 -0.28125 -0.125 -0.036377 -0.0820312 -0.144531 -0.024292 -0.0761719 -0.0539551 -0.165039 0.0766602 0.0157471 0.198242 0.105957 0.231445 -0.00723267 0.189453 -0.21875 0.0605469 -0.0395508 -0.0505371 -0.0588379 0.170898 0.253906 -0.277344
containment -0.111816 0.202148 -0.157227 0.263672 0.220703 0.0668945 0.0649414 -0.0913086 0.212891 -0.234375 0.0761719 -0.339844 0.429688 0.0137329 -0.472656 -0.115234 0.0524902 -0.0612793 -0.0908203 0.109863 0.241211 0.114746 0.0922852 0.0913086 0.0307617 0.318359 -0.412109 -0.057373 0.503906 0.176758 -0.133789 -0.226562 -0.0186768 -0.173828 0.0839844 0.22168 0.09375 0.183594 0.210938 0.050293 0.279297 -0.0517578 -0.233398 -0.345703 -0.222656 -0.361328 -0.0668945 -0.133789 -0.137695 -0.0255127 0.211914 -0.097168 0.0625 -0.161133 0.029541 -0.228516 0.132812 0.0170898 0.200195 -0.135742 -0.273438 0.074707 -0.043457 -0.249023 -0.124512 0.193359 0.296875 0.466797 -0.147461 0.0412598 0.0273438 0.0405273 0.488281 0.0427246 -0.625 -0.249023 0.104492 -0.376953 0.0407715 0.0239258 0.150391 0.173828 -0.143555 0.0566406 0.158203 0.314453 -0.0981445 -0.0407715 0.0236816 -0.265625 0.232422 -0.0634766 -0.081543 0.353516 0.0844727 0.204102 -0.175781 -0.193359 -0.00628662 0.136719 -0.00122833 -0.00367737 0.476562 -0.298828 -0.114258 -0.12793 -0.0678711 0.052002 0.149414 -0.225586 -0.208984 -0.0732422 -0.12793 0.0583496 -0.273438 0.168945 0.229492 -0.112305 -0.0115967 0.306641 -0.206055 -0.0186768 0.242188 0.427734 0.170898 -0.339844 0.174805 0.226562 -0.026123 -0.0240479 0.109375 0.150391 -0.104004 -0.125 -0.0466309 0.0113525 0.0742188 -0.143555 0.0825195 0.267578 0.020752 -0.138672 0.00454712 -0.0610352 0.032959 -0.0305176 0.164062 -0.0478516 -0.308594 0.15332 0.289062 -0.40625 0.132812 0.507812 -0.0776367 0.147461 0.333984 -0.0444336 -0.0698242 0.144531 0.232422 0.0349121 -0.605469 0.0198975 -0.251953 -0.0078125 -0.0830078 0.118652 -0.0266113 0.236328 0.0157471 -0.0539551 -0.330078 -0.224609 -0.199219 -0.0410156 0.170898 0.287109 -0.507812 -0.131836 -0.202148 -0.205078 -0.00952148 -0.235352 0.166016 0.0541992 0.048584 -0.168945 0.257812 0.535156 -0.316406 0.279297 -0.100098 0.0495605 -0.46875 0.135742 -0.173828 -0.117188 0.0223389 0.0888672 0.163086 0.0722656 0.109375 -0.136719 -0.0727539 0.146484 -0.0820312 -0.174805 0.172852 -0.220703 0.257812 -0.0688477 -0.152344 -0.149414 -0.147461 0.0273438 0.0629883 -0.3125 0.114746 0.402344 -0.408203 0.199219 0.253906 -0.322266 0.0244141 -0.169922 0.124512 0.242188 0.474609 -0.154297 0.166992 0.133789 0.0981445 -0.28125 -0.0476074 0.0664062 -0.28125 -0.0776367 0.269531 -0.227539 0.12207 0.474609 0.198242 -0.28125 0.24707 -0.181641 -0.135742 -0.125 -0.135742 -0.157227 -0.376953 0.193359 0.283203 0.345703 0.0966797 0.0581055 -0.00540161 -0.494141 -0.0732422 0.0830078 0.0932617 0.0128174 0.0030365 0.0114746 0.201172 -0.230469 0.122559 -0.628906 -0.470703 0.0996094 -0.0771484 -0.0148315 0.117188 -0.189453 0.139648 0.494141 0.0617676 -0.1875 0.21582 -0.116699 -0.00576782 0.546875 0.0622559 -0.00878906 0.120605 -0.322266 0.114258 0.216797 0.0869141 -0.237305 -0.110352 -0.0412598 -0.0791016 0.21582 0.0683594 -0.0495605 0.0771484 0.154297 0.034668 0.0224609
in 0.0703125 0.0869141 0.0878906 0.0625 0.0693359 -0.108887 -0.081543 -0.154297 0.020752 0.131836 -0.11377 -0.0373535 0.0693359 0.078125 -0.103027 -0.0976562 0.0441895 0.102539 -0.060791 -0.0361328 -0.0454102 0.0473633 -0.120605 -0.0639648 0.0022583 0.0371094 -0.00291443 0.117676 0.0617676 0.0639648 0.0810547 -0.0688477 -0.0213623 0.0551758 -0.0854492 0.0688477 -0.12793 -0.0332031 0.0986328 0.175781 0.11084 -0.034668 -0.0471191 -0.00848389 0.0358887 0.103027 0.0269775 -0.0286865 -0.00512695 0.106445 0.0598145 0.0942383 0.0336914 -0.0270996 -0.0942383 0.00102997 -0.0483398 0.0344238 0.0810547 -0.113281 -0.0888672 0.0358887 -0.145508 -0.244141 -0.0615234 0.0529785 0.0568848 0.179688 0.0610352 0.0869141 0.124023 -0.0402832 0.022583 0.177734 -0.0296631 -0.0296631 0.117188 0.0311279 -0.0961914 0.0664062 0.00469971 -0.0800781 0.0629883 -0.0206299 -0.0546875 -0.135742 -0.0634766 0.0834961 -0.0639648 0.0214844 0.0771484 -0.0371094 -0.0336914 -0.183594 -0.0727539 0.0158691 0.0932617 -0.0615234 -0.0142212 -0.00344849 0.0111084 -0.158203 -0.0170898 0.00619507 -0.00872803 -0.0805664 -0.0152588 -0.0878906 0.003479 -0.0161133 -0.0123291 0.0976562 -0.139648 -0.0859375 -0.0268555 0.0539551 0.132812 0.112793 0.121094 0.0854492 -0.0071106 0.0446777 -0.145508 -0.00320435 -0.117676 -0.0654297 0.0712891 -0.0942383 -0.0302734 0.120117 0.0800781 -0.0947266 -0.162109 -0.0776367 0.0212402 -0.081543 0.00393677 -0.157227 -0.0981445 0.0397949 0.0393066 -0.00909424 0.103027 0.0678711 -0.0427246 0.0634766 -0.0490723 0.020874 -0.166992 0.0932617 0.09375 0.00686646 0.0537109 0.0524902 -0.0244141 -0.0324707 -0.0615234 -0.0055542 0.0961914 0.0378418 0.012207 -0.0439453 -0.00747681 0.105469 0.0203857 0.145508 0.0820312 0.00576782 0.00457764 -0.0927734 -0.138672 -0.057373 -0.0515137 -0.130859 -0.139648 -0.0205078 -0.0270996 0.0327148 0.10498 -0.00233459 -0.022583 0.00050354 -0.11084 0.0849609 -0.129883 -0.0174561 -0.000358582 0.10791 0.0888672 0.0446777 0.0251465 0.0238037 0.0810547 0.0236816 -0.109863 0.00537109 -0.0177002 -0.0339355 -0.032959 -0.164062 0.0957031 -0.0183105 0.00531006 -0.0344238 -0.0441895 -0.0664062 -0.0179443 -0.0296631 -0.00759888 -0.0512695 -0.0541992 0.0893555 -0.0717773 0.0152588 -0.0825195 -0.0317383 0.0356445 -0.0212402 -0.0593262 -0.0130615 0.046875 0.0230713 0.0209961 -0.0786133 -0.00805664 0.0195312 -0.0055542 0.0415039 0.027832 0.0136108 0.034668 -0.182617 0.120117 0.0742188 -0.0410156 -0.00994873 0.0429688 -0.0072937 0.123047 0.0576172 -0.0534668 -0.0322266 -0.00909424 -0.0466309 0.0439453 -0.0507812 0.0688477 0.00299072 -0.00418091 -0.0441895 0.0737305 -0.0127563 0.0673828 0.00628662 0.0751953 -0.0378418 0.00488281 0.0446777 -0.0673828 0.00970459 0.00473022 0.0205078 0.0712891 0.170898 0.173828 0.0556641 0.0913086 -0.0373535 0.0498047 -0.0393066 0.0441895 0.0625 0.048584 -0.0532227 0.0488281 -0.130859 -0.0289307 -0.0361328 -0.060791 -0.057373 0.123047 -0.0825195 -0.0119019 0.125 0.00135803 0.0639648 -0.106445 -0.143555 -0.0422363 0.0240479 -0.168945 -0.0888672 -0.0805664 0.0649414 0.0612793 -0.0473633 -0.0588379 -0.0476074 0.0144653 -0.0625
out 0.11084 -0.158203 0.020752 0.166992 -0.0991211 -0.154297 0.0200195 -0.265625 0.0368652 0.0893555 -0.0336914 -0.257812 0.144531 0.0307617 -0.102539 -0.0717773 0.0947266 0.045166 0.0252686 -0.133789 0.131836 0.147461 -0.024292 -0.0537109 0.0908203 0.0712891 0.0349121 -0.0378418 0.116699 -0.0639648 0.0756836 0.207031 0.0476074 0.0693359 -0.126953 0.0800781 -0.0683594 -0.0874023 -0.00704956 0.164062 0.210938 -0.324219 0.034668 -0.0515137 -0.165039 0.0393066 -0.172852 -0.0142212 0.0495605 -0.0004673 0.00735474 0.219727 -0.117676 -0.0688477 -0.292969 -0.0932617 -0.0327148 -0.0437012 0.158203 -0.116699 0.101562 -0.0610352 -0.0505371 -0.131836 -0.133789 -0.100098 0.124023 0.166016 0.11084 0.107422 0.0612793 -0.00561523 0.223633 0.130859 -0.110352 0.0336914 0.0585938 0.0541992 -0.0996094 0.0751953 -0.115234 -0.0576172 0.0211182 -0.0471191 0.0205078 -0.0458984 -0.0878906 0.230469 0.0849609 -0.00239563 -0.00320435 0.113281 0.0771484 -0.211914 -0.0505371 -0.0549316 0.169922 -0.0683594 -0.124023 -0.0546875 -0.183594 -0.287109 0.101562 0.22168 -0.176758 -0.0554199 -0.0629883 0.0830078 0.163086 -0.0166016 -0.0820312 0.10498 -0.0578613 -0.1875 0.0529785 0.0703125 0.0942383 0.189453 0.0439453 0.167969 -0.183594 0.0629883 -0.0844727 -0.0133667 0.010376 -0.0244141 -0.0810547 0.0244141 -0.0712891 -0.0913086 -0.0247803 -0.164062 -0.0101929 -0.0500488 -0.102051 0.0957031 0.0751953 -0.0130615 -0.0244141 0.09375 0.0859375 -0.0566406 0.00891113 0.0507812 -0.0368652 0.0549316 -0.124023 -0.0800781 -0.196289 0.21875 0.0957031 0.0405273 -0.163086 0.0620117 0.0184326 0.246094 -0.0810547 -0.050293 0.0664062 0.0554199 -0.00939941 0.0147705 0.0683594 -0.169922 0.114746 -0.220703 -0.0203857 0.00744629 0.0415039 -0.1875 -0.0625 -0.000617981 -0.125 0.108887 -0.138672 0.0314941 0.0952148 -0.149414 -0.0351562 0.0512695 -0.0878906 -0.0527344 0.174805 0.242188 0.0805664 0.0324707 -0.114746 0.118652 0.043457 0.0800781 -0.0490723 0.0859375 -0.0883789 -0.124512 -0.15918 -0.0375977 -0.0291748 -0.137695 -0.0605469 -0.122559 0.206055 -0.00723267 -0.146484 -0.0368652 0.12793 0.143555 -0.234375 -0.0603027 -0.0123901 0.0771484 0.0412598 0.0157471 -0.177734 0.0893555 0.0388184 0.0634766 0.0441895 -0.0308838 -0.195312 0.100098 0.043457 0.078125 0.0300293 0.0507812 0.0583496 -0.0986328 0.148438 0.306641 -0.0668945 -0.123535 0.0578613 -0.163086 0.112305 -0.0976562 0.0257568 0.175781 0.0878906 0.0654297 0.237305 0.229492 -0.0917969 -0.00656128 -0.0673828 -0.109375 -0.114258 -0.0123901 0.0180664 0.108398 0.0177002 0.0429688 -0.0664062 -0.109863 0.00836182 -0.00491333 0.0206299 0.0213623 -0.00738525 -0.0441895 -0.0307617 -0.0805664 -0.144531 0.059082 -0.232422 -0.0212402 -0.0366211 0.0961914 0.0224609 0.116699 0.0113525 -0.0130615 0.0766602 -0.118164 0.0145264 0.0913086 0.208008 -0.104004 0.0110474 -0.241211 0.0341797 -0.0390625 0.112793 -0.0766602 -0.105957 0.101074 0.0742188 0.152344 -0.205078 -0.000267029 0.106934 -0.232422 0.0019989 -0.0356445 -0.212891 -0.0571289 -0.194336 0.133789 0.0120239 0.151367 -0.165039 0.0197754
surface -0.203125 0.171875 0.180664 -0.172852 -0.304688 -0.0568848 -0.0541992 -0.173828 0.097168 0.189453 -0.182617 -0.0854492 0.213867 -0.219727 -0.183594 0.036377 -0.150391 0.229492 0.0505371 0.0493164 -0.135742 0.134766 -0.0703125 -0.269531 0.0615234 -0.232422 -0.0480957 0.195312 -0.0302734 -0.188477 -0.279297 -0.109375 0.074707 -0.0742188 -0.132812 0.240234 0.11377 0.108398 0.0371094 -0.106445 0.259766 -0.120605 0.241211 0.0197754 0.115234 -0.0795898 0.238281 -0.0202637 0.237305 0.0016098 0.363281 -0.144531 0.00408936 -0.167969 0.106934 0.125977 0.0524902 -0.158203 0.175781 0.0776367 -0.0195312 -0.0742188 -0.15625 -0.0456543 -0.00927734 0.15918 -0.108398 0.0439453 0.129883 0.243164 -0.0498047 -0.180664 0.233398 -0.0849609 -0.161133 -0.394531 0.166016 0.12793 -0.0581055 0.121094 0.113281 0.0766602 0.0854492 -0.0952148 0.142578 -0.0581055 0.214844 0.0358887 0.0351562 0.255859 -0.136719 -0.204102 0.019165 0.15625 -0.105469 0.0791016 0.194336 -0.244141 0.106445 0.120117 0.0303955 -0.0140991 0.0693359 -0.0761719 -0.201172 -0.00759888 0.240234 -0.00872803 -0.0214844 -0.0986328 -0.0139771 -0.0126953 0.365234 -0.148438 -0.0913086 0.0454102 0.00595093 -0.0368652 -0.18457 -0.0522461 -0.341797 -0.017334 0.119141 0.104004 -0.0654297 -0.193359 -0.0927734 -0.0766602 0.102051 -0.188477 0.165039 0.193359 -0.188477 0.0859375 0.0203857 0.0256348 0.0593262 -0.161133 -0.078125 0.242188 -0.120117 -0.0585938 0.0410156 0.0683594 0.0673828 -0.131836 -0.0490723 0.0844727 -0.166992 -0.0761719 -0.0957031 -0.328125 -0.265625 0.206055 -0.116211 0.0549316 0.116699 -0.0878906 0.0244141 0.0585938 0.212891 0.138672 0.0067749 -0.0756836 0.0966797 -0.0561523 -0.110352 -0.154297 -0.00726318 0.193359 0.0727539 0.0673828 -0.104004 0.0539551 -0.0198975 0.00854492 -0.460938 -0.225586 -0.308594 -0.0756836 -0.226562 0.165039 -0.251953 0.0213623 -0.0480957 -0.0234375 0.0189209 0.0458984 0.090332 0.267578 -0.130859 -0.0236816 -0.11084 -0.115234 -0.224609 0.201172 -0.0834961 0.0622559 -0.0952148 -0.00216675 0.345703 0.132812 -0.507812 0.052002 0.214844 0.0751953 -0.116699 0.074707 -0.189453 -0.102051 0.0390625 0.0332031 -0.222656 -0.0563965 0.0961914 -0.239258 -0.0449219 -0.11084 0.0247803 -0.0134888 0.0322266 -0.010437 0.0537109 0.135742 -0.176758 0.170898 0.0786133 0.139648 0.170898 0.152344 0.458984 0.0849609 0.133789 -0.0629883 -0.141602 0.105957 -0.0110474 -0.134766 0.0634766 0.100586 0.0996094 0.0732422 -0.00056076 -0.120605 -0.0169678 0.101562 -0.155273 0.253906 -0.196289 0.115234 0.150391 -0.125 0.0505371 -0.22168 0.0117798 -0.0605469 -0.0437012 -0.00805664 -0.110352 -0.0299072 0.168945 -0.296875 -0.255859 -0.195312 0.208984 0.231445 -0.0673828 -0.302734 -0.00686646 -0.0834961 -0.236328 0.0622559 0.0444336 0.0456543 -0.0830078 0.11084 -0.0476074 -0.302734 0.0893555 -0.0703125 0.0142212 0.0339355 0.261719 0.302734 0.0125732 -0.359375 -0.189453 0.108887 0.169922 0.357422 -0.174805 0.15918 -0.25 0.0419922 0.271484 0.123047 0.25 -0.15625 0.00457764 -0.228516
full 0.132812 -0.109863 -0.197266 0.149414 -0.11377 -0.100586 0.224609 -0.255859 -0.00149536 0.065918 -0.0693359 -0.167969 0.0683594 0.0159912 -0.140625 0.0301514 0.207031 -0.103027 0.136719 -0.151367 -0.206055 -0.0742188 -0.177734 0.211914 -0.00165558 0.041748 -0.0864258 0.0202637 0.318359 0.0322266 -0.128906 0.0708008 -0.289062 0.213867 0.00830078 -0.0859375 -0.10498 -0.178711 -0.112793 0.0922852 0.135742 -0.116699 0.0576172 0.0103149 -0.194336 0.0361328 -0.0163574 -0.0810547 -0.026001 0.0458984 0.269531 0.0693359 0.0441895 0.138672 0.0463867 -0.0339355 -0.0766602 -0.116211 0.0976562 -0.104492 -0.207031 0.0218506 -0.193359 -0.208008 0.197266 -0.00686646 0.28125 0.0644531 0.0229492 0.180664 0.00473022 0.109863 0.0598145 0.359375 -0.0617676 0.074707 0.183594 0.10498 -0.0532227 -0.0834961 -0.112793 -0.0358887 -0.0644531 0.010498 0.0358887 0.0339355 -0.176758 -0.000911713 0.0563965 -0.0625 0.0634766 -0.0371094 -0.000835419 -0.0495605 -0.0629883 0.0654297 -0.0272217 0.125977 -0.0244141 0.0888672 0.0174561 -0.0717773 0.132812 -0.265625 -0.183594 0.149414 -0.0147095 0.128906 -0.0142212 -0.160156 0.143555 -0.0444336 -0.166992 -0.0327148 -0.0751953 0.0742188 0.0480957 0.101562 0.196289 0.24707 0.00891113 -0.289062 0.0751953 0.0549316 0.110352 0.097168 -0.131836 -0.172852 0.103516 0.148438 -0.0615234 0.104492 -0.328125 -0.0159912 0.0269775 -0.103516 -0.000747681 0.107422 0.112305 0.00430298 -0.125977 -0.146484 0.0478516 -0.255859 0.112305 -0.0693359 -0.15918 -0.00509644 -0.0524902 0.129883 0.1875 0.102051 -0.128906 0.0437012 0.112305 0.0180664 0.00674438 0.0172119 -0.119141 -0.0737305 0.108398 -0.0220947 0.133789 -0.0303955 0.105957 -0.213867 0.0154419 0.0712891 -0.0546875 -0.245117 -0.166016 -0.18457 -0.0167236 0.0712891 -0.0055542 0.0634766 -0.126953 -0.0593262 -0.109375 -0.15625 -0.246094 -0.0324707 -0.0131226 -0.0446777 -0.234375 0.0229492 -0.0839844 -0.211914 0.15918 0.102539 -0.00454712 0.0201416 -0.186523 -0.121094 0.134766 0.0213623 -0.0115356 -0.158203 0.0234375 0.001091 -0.0947266 0.162109 0.0205078 0.166992 -0.0825195 0.18457 -0.0539551 -0.0791016 0.125 0.164062 0.0559082 0.0810547 0.00601196 0.155273 0.0456543 -0.0272217 0.196289 -0.134766 -0.267578 -0.15332 0.0966797 0.0529785 -0.059082 -0.171875 0.144531 0.00994873 -0.111328 0.00683594 0.120117 -0.0556641 0.00482178 -0.186523 0.200195 0.139648 -0.259766 -0.0114746 -0.109863 -0.0236816 -0.0820312 0.130859 -0.0522461 -0.0495605 -0.0634766 -0.263672 0.0800781 -0.0512695 -0.12793 0.078125 -0.0854492 -0.0147705 -0.103027 0.0529785 -0.00212097 -0.0991211 -0.0432129 -0.101074 0.0133667 -0.238281 -0.34375 0.179688 0.145508 -0.100098 -0.170898 0.00274658 0.0595703 0.0356445 -0.0883789 0.0786133 -0.147461 -0.0727539 0.0461426 0.0688477 0.138672 0.0834961 0.133789 -0.0185547 -0.0400391 -0.114258 -0.0380859 0.106445 -0.0269775 0.100098 -0.101074 0.135742 0.134766 0.0495605 -0.000421524 0.0825195 -0.0439453 -0.0737305 -0.045166 0.0612793 -0.164062 -0.036377 -0.223633 -0.0688477 0.204102 0.0150757 -0.0874023 -0.241211
empty 0.291016 0.0177002 0.188477 0.0917969 -0.240234 -0.170898 0.11084 -0.0336914 0.28125 0.494141 0.166992 0.0388184 0.102051 0.126953 -0.205078 -0.0908203 0.144531 0.0019455 -0.0588379 0.0756836 0.138672 0.241211 -0.179688 0.11377 -0.138672 0.25 0.0976562 0.0103149 -0.0181885 -0.213867 -0.0366211 -0.000888824 -0.142578 0.133789 -0.00320435 -0.10498 0.0327148 -0.0786133 -0.219727 0.217773 0.0123901 0.161133 0.209961 -0.310547 -0.0742188 -0.112793 -0.242188 0.102051 -0.0529785 -0.0437012 -0.12793 0.185547 -0.0269775 -0.0108032 0.0693359 -0.267578 -0.154297 -0.125977 0.129883 -0.0235596 -0.136719 -0.0510254 -0.200195 -0.246094 0.0090332 -0.257812 0.109375 -0.233398 -0.103516 -0.0159912 0.155273 0.138672 0.189453 0.138672 -0.449219 0.0230713 0.0458984 0.113281 0.167969 -0.116699 -0.0957031 -0.3125 -0.0393066 -0.193359 -0.0339355 0.000793457 0.174805 0.128906 0.0111694 0.00762939 -0.246094 -0.140625 0.0742188 0.0917969 -0.182617 -0.0693359 0.0185547 0.246094 -0.283203 0.0419922 0.0791016 -0.048584 0.410156 -0.100098 -0.0167236 0.0668945 0.12793 -0.0383301 0.0549316 -0.111328 0.265625 -0.0756836 0.0203857 -0.204102 -0.0534668 -0.12793 0.1875 -0.0698242 0.09375 0.229492 -0.246094 -0.347656 0.0678711 -0.0996094 -0.243164 -0.136719 0.151367 0.015625 0.294922 0.0135498 -0.0129395 -0.0118408 -0.0142822 0.287109 -0.25 0.162109 -0.00473022 0.0712891 -0.140625 0.0703125 -0.00842285 -0.116699 0.224609 0.0834961 -0.022583 0.137695 -0.182617 -0.169922 -0.245117 0.0483398 0.0576172 0.12207 -0.0128784 -0.03125 0.21582 0.275391 -0.0388184 -0.213867 0.0317383 0.137695 -0.238281 -0.0322266 -0.22168 -0.0708008 0.369141 -0.0471191 0.202148 0.131836 0.0683594 -0.230469 -0.392578 0.108398 -0.386719 0.0578613 -0.0649414 0.135742 -0.0908203 -0.269531 0.019043 -0.130859 -0.241211 -0.0456543 0.0136719 -0.00643921 -0.081543 -0.111328 0.181641 0.472656 0.0859375 0.341797 -0.234375 -0.0693359 0.0878906 0.150391 -0.235352 0.174805 0.316406 0.0162354 -0.0981445 0.257812 -0.0228271 -0.00610352 -0.304688 -0.345703 0.172852 -0.0172119 0.00442505 -0.0830078 -0.11377 -0.0317383 0.0893555 -0.148438 -0.19043 0.11084 -0.0756836 0.287109 -0.00830078 0.0913086 -0.139648 0.0223389 0.12207 0.291016 -0.123535 -0.0805664 0.269531 -0.0869141 0.151367 0.0119629 -0.149414 -0.212891 0.308594 0.0844727 0.0859375 -0.0125732 0.139648 -0.172852 0.0541992 -0.131836 0.226562 0.230469 0.188477 -0.214844 0.0106812 -0.535156 -0.0810547 0.154297 -0.00787354 -0.131836 -0.0101929 -0.000314713 0.0454102 -0.230469 0.279297 0.365234 -0.0162354 -0.21582 0.0441895 -0.320312 -0.138672 0.09375 -0.166992 0.142578 0.078125 0.12793 -0.119629 -0.304688 -0.00445557 0.032959 -0.146484 -0.164062 0.0805664 -0.0522461 0.213867 -0.240234 -0.298828 0.0228271 -0.182617 -0.230469 0.12207 -0.0334473 -0.0986328 -0.244141 0.0712891 -0.0593262 0.198242 0.139648 -0.0296631 0.0205078 0.074707 -0.015564 -0.231445 -0.165039 -0.180664 -0.0334473 -0.0424805 0.0844727 0.0683594 -0.0344238 -0.419922 -0.116699
content 0.0133057 -0.000999451 0.0800781 0.00445557 -0.28125 0.176758 0.197266 0.0727539 0.244141 -0.234375 -0.208984 -0.257812 -0.130859 -0.015625 -0.196289 -0.188477 0.0263672 0.0639648 0.169922 -0.394531 0.161133 -0.0505371 0.0844727 0.183594 0.166992 -0.0559082 -0.00860596 0.289062 -0.0737305 -0.291016 -0.0717773 -0.11377 0.0957031 0.0639648 -0.0634766 -0.0551758 -0.0172119 0.0300293 -0.0498047 0.120117 -0.0361328 -0.034668 0.0961914 0.0120239 -0.128906 -0.227539 0.00334167 0.0458984 0.148438 -0.0927734 -0.0537109 -0.212891 -0.0693359 -0.0358887 0.0397949 0.162109 0.0273438 -0.0952148 -0.130859 -0.118164 0.220703 -0.0610352 -0.235352 0.0244141 -0.378906 0.224609 -0.285156 -0.201172 0.195312 0.151367 -0.105469 0.0246582 -0.000326157 -0.100586 -0.0634766 -0.191406 0.326172 -0.0600586 -0.0380859 0.106934 0.183594 0.100098 0.166992 0.172852 0.202148 -0.269531 -0.0158691 0.110352 -0.090332 0.248047 0.0112305 -0.237305 -0.0893555 -0.0766602 0.194336 -0.304688 -0.074707 0.0388184 0.0571289 0.320312 0.22168 0.175781 -0.0942383 -0.132812 -0.170898 -0.222656 0.0622559 0.18457 0.0322266 -0.219727 0.151367 0.251953 -0.0888672 0.0407715 0.279297 -0.0854492 0.0712891 -0.34375 -0.0476074 -0.00387573 -0.267578 0.0169678 -0.155273 0.429688 -0.115234 -0.0446777 -0.208008 0.117676 -0.267578 -0.137695 -0.333984 0.253906 -0.119141 0.0698242 -0.18457 0.15918 0.183594 0.138672 0.164062 -0.121582 0.0236816 -0.21582 0.0341797 0.0273438 0.241211 -0.168945 0.429688 0.0874023 -0.142578 -0.171875 0.11377 0.172852 -0.106934 -0.0932617 0.0358887 -0.259766 0.0115356 -0.0488281 -0.0771484 0.0286865 0.0140991 0.154297 0.0366211 0.390625 0.15625 -0.0913086 0.0361328 -0.00582886 -0.0407715 0.0512695 -0.0825195 -0.0883789 0.148438 -0.227539 -0.0219727 -0.21875 0.0893555 -0.453125 -0.359375 0.0368652 -0.0383301 -0.0766602 0.18457 -0.162109 0.102539 0.117188 -0.466797 0.048584 0.157227 -0.145508 0.123535 -0.212891 -0.220703 -0.179688 -0.160156 0.0302734 -0.0737305 -0.0169678 0.105957 -0.133789 0.0495605 0.0163574 -0.113281 0.185547 -0.232422 0.0654297 0.121094 -0.175781 -0.043457 -0.0541992 -0.157227 0.101562 -0.113281 0.144531 -0.0218506 0.15918 0.0223389 -0.133789 -0.157227 0.0290527 0.0117188 -0.178711 -0.00701904 -0.238281 -0.0407715 0.0693359 -0.0302734 -0.150391 0.154297 0.0874023 -0.236328 -0.208984 -0.147461 -0.0134888 0.0218506 -0.197266 0.106934 0.145508 0.167969 0.25 0.0986328 -0.059082 0.259766 -0.145508 -0.0378418 0.0456543 0.125 0.486328 -0.0776367 0.0996094 0.150391 0.0874023 -0.308594 0.145508 -0.0322266 -0.0795898 -0.271484 -0.226562 -0.144531 -0.0947266 0.152344 0.164062 0.0598145 0.121094 0.0300293 0.0559082 0.12793 0.00531006 -0.229492 -0.100586 0.0864258 0.140625 0.0883789 0.019043 -0.0378418 0.200195 -0.28125 0.00933838 0.0854492 0.0233154 -0.0961914 -0.0795898 -0.045166 0.0603027 -0.0380859 0.155273 0.0913086 0.133789 0.0444336 0.125 0.128906 -0.0810547 0.194336 0.118652 -0.0115967 0.0693359 0.0612793 -0.177734 -0.0878906 -0.0291748
balance 0.320312 0.050293 -0.00762939 -0.11084 -0.15625 -0.0644531 0.0198975 -0.183594 -0.0476074 -0.0229492 -0.283203 -0.171875 -0.0683594 0.292969 -0.0634766 0.0898438 0.130859 0.081543 0.238281 -0.010437 0.193359 0.145508 -0.0756836 0.25 0.00946045 0.191406 -0.251953 -0.118652 0.259766 0.134766 -0.0209961 -0.150391 0.304688 0.196289 -0.0830078 -0.0400391 -0.220703 0.0932617 0.108887 0.182617 -0.131836 -0.208008 -0.0766602 -0.0238037 -0.217773 0.103027 0.143555 -0.0273438 -0.0791016 -0.18457 -0.138672 0.00634766 -0.0698242 -0.150391 -0.114258 0.006073 -0.285156 -0.0898438 0.0375977 -0.180664 -0.0966797 0.0927734 -0.101074 -0.0257568 0.196289 0.0605469 0.157227 0.0625 0.328125 0.074707 -0.0488281 -0.237305 0.0742188 -0.0991211 -0.239258 0.0698242 -0.137695 0.0683594 -0.3125 0.277344 0.0219727 -0.105957 0.144531 0.0412598 0.0297852 -0.0493164 -0.15918 0.065918 0.111328 0.316406 0.115723 0.013855 0.163086 0.00286865 -0.131836 -0.233398 -0.155273 0.0148315 -0.146484 -0.216797 -0.123047 -0.470703 -0.0568848 0.199219 0.24707 -0.417969 -0.304688 -0.0437012 0.0493164 0.000495911 -0.196289 -0.0361328 -0.0615234 0.116211 -0.0625 0.310547 -0.0256348 0.180664 -0.176758 0.175781 0.0490723 0.149414 0.408203 0.265625 -0.0583496 0.102539 -0.0551758 -0.0388184 0.0101929 -0.296875 0.232422 -0.0559082 -0.318359 -0.0319824 0.0289307 -0.0170898 -0.110352 0.0292969 0.0732422 0.0123291 -0.00340271 -0.207031 0.0292969 0.263672 -0.0297852 -0.00811768 -0.255859 0.174805 0.185547 0.177734 -0.00848389 -0.0446777 -0.322266 0.136719 -0.0703125 -0.0800781 -0.0134888 -0.333984 -0.232422 0.183594 -0.0913086 -0.185547 -0.0198975 -0.0576172 0.0285645 0.0864258 -0.117188 -0.160156 0.112305 0.0722656 -0.285156 0.114258 0.0341797 -0.0332031 -0.0620117 -0.259766 0.314453 -0.111328 -0.119141 0.019043 -0.155273 -0.0307617 0.0539551 -0.00637817 -0.026001 -0.21875 0.00512695 0.237305 0.046875 -0.102539 0.0211182 -0.0203857 -0.308594 -0.146484 -0.216797 -0.101562 0.0493164 -0.0206299 -0.0480957 -0.222656 -0.171875 0.108398 -0.164062 -0.176758 0.0544434 -0.167969 -0.488281 -0.0250244 0.0593262 0.0917969 -0.382812 -0.0559082 -0.0308838 0.0712891 -0.25 -0.057373 -0.0529785 -0.0307617 -0.041748 0.00107574 0.183594 0.112793 -0.139648 -0.0664062 0.0986328 0.0761719 -0.0791016 0.00872803 -0.229492 0.211914 -0.114746 0.109375 0.0688477 -0.0737305 0.0874023 -0.015625 -0.227539 -0.00830078 0.0140381 0.132812 -0.166992 -0.106445 0.229492 -0.433594 0.0917969 0.122559 -0.335938 -0.100586 -0.19043 0.0854492 -0.0212402 0.134766 -0.253906 -0.0197754 0.0878906 -0.253906 0.143555 -0.0439453 -0.123535 0.3125 0.103027 -0.0615234 -0.349609 -0.0947266 -0.0270996 0.131836 -0.150391 -0.15625 -0.128906 -0.015625 -0.15332 0.0476074 -0.0344238 0.0201416 0.140625 0.223633 -0.130859 -0.208008 -0.234375 0.233398 0.228516 0.21582 -0.0463867 -0.0111694 -0.0164795 -0.194336 -0.138672 -0.169922 0.330078 0.0252686 -0.200195 0.169922 -0.0654297 -0.228516 -0.172852 -0.0561523 0.24707 0.0142212 -0.0458984 -0.078125
unbalance 0.225586 -0.131836 -0.0603027 -0.115723 -0.388672 0.152344 0.0090332 -0.0109863 -0.263672 0.00909424 -0.0776367 -0.125977 -0.0239258 0.19043 -0.0515137 0.0820312 -0.102539 0.19043 0.0213623 -0.105957 0.110352 -0.142578 0.133789 0.198242 -0.0776367 0.118164 -0.10791 -0.00166321 -0.0476074 0.223633 -0.255859 0.122559 0.217773 -0.0820312 -0.0751953 0.0088501 0.081543 0.150391 0.0612793 -0.0981445 0.0522461 0.144531 0.300781 -0.043457 -0.000934601 -0.106934 -0.0198975 0.12793 -0.0187988 0.283203 -0.139648 0.134766 -0.15625 -0.196289 -0.115723 0.0544434 -0.112305 -0.396484 -0.0839844 -0.00415039 -0.0446777 0.0424805 -0.0288086 -0.267578 0.265625 -0.0185547 -0.00720215 0.0756836 -0.137695 0.157227 -0.152344 0.148438 0.0439453 -0.154297 -0.333984 0.0449219 -0.133789 0.109863 0.048584 0.0111694 0.302734 -0.115234 0.00265503 -0.0233154 0.243164 -0.111816 -0.104004 0.511719 -0.132812 0.111328 0.208984 -0.108887 -0.222656 0.367188 0.211914 -0.0324707 -0.0629883 -0.160156 -0.210938 0.0932617 0.0192871 0.186523 -0.212891 0.161133 0.131836 -0.0415039 -0.208984 -0.0722656 -0.0561523 -0.0615234 -0.257812 -0.361328 0.201172 -0.181641 -0.0241699 -0.100586 -0.0859375 -0.194336 -0.195312 0.158203 -0.00102997 -0.0751953 0.0284424 0.00738525 -0.498047 -0.0668945 -0.133789 -0.0810547 -0.0898438 -0.25 0.24707 0.24707 -0.283203 -0.0150757 0.117188 0.0227051 -0.154297 0.0292969 -0.176758 0.0825195 -0.0722656 -0.255859 -0.180664 0.330078 0.0771484 -0.000205994 -0.171875 0.209961 -0.0786133 0.102539 0.263672 0.0222168 -0.253906 0.0898438 0.106445 0.00964355 -0.176758 -0.194336 -0.490234 -0.0961914 -0.207031 -0.191406 -0.116211 -0.193359 0.119141 0.117676 -0.0488281 0.00540161 -0.0981445 0.304688 -0.0996094 -0.0766602 0.341797 0.117188 0.182617 -0.173828 0.176758 -0.324219 0.0255127 -0.114258 -0.189453 -0.105469 -0.0180664 0.238281 -0.000246048 0.236328 0.232422 0.326172 -0.0854492 -0.0495605 0.145508 -0.114746 0.178711 0.0585938 0.137695 0.100098 -0.192383 -0.074707 -0.152344 -0.145508 0.0678711 0.283203 -0.227539 -0.199219 -0.165039 -0.0324707 -0.129883 -0.390625 -0.0786133 -0.0211182 -0.168945 0.118652 0.00939941 0.474609 -0.22168 -0.154297 -0.0874023 -0.310547 -0.402344 0.164062 0.0927734 0.0227051 -0.294922 -0.065918 0.0339355 -0.123047 0.0859375 0.0893555 0.154297 0.416016 -0.103027 0.130859 0.189453 0.178711 0.00927734 0.0373535 -0.0668945 -0.259766 0.0172119 0.0257568 -0.314453 0.0966797 0.128906 -0.0534668 0.126953 0.0375977 -0.40625 0.0449219 0.103027 0.0437012 0.195312 -0.133789 -0.12793 0.059082 -0.0517578 -0.273438 0.043457 -0.255859 -0.100098 0.257812 -0.0722656 0.130859 -0.237305 0.0336914 0.103516 0.050293 -0.0272217 -0.012146 -0.122559 -0.375 -0.431641 0.263672 -0.154297 0.00952148 0.0380859 -0.179688 -0.142578 -0.166016 -0.0222168 0.097168 0.00476074 -0.0825195 0.0422363 -0.0629883 -0.0654297 -0.148438 -0.0510254 -0.275391 0.0133057 -0.275391 0.211914 0.283203 -0.0341797 -0.00628662 -0.263672 -0.152344 -0.128906 -0.0566406 -0.0883789 0.378906
counterforce 0.225586 -0.00860596 0.0874023 0.0490723 -0.392578 0.3125 -0.00146484 0.0551758 0.0168457 0.0664062 0.128906 -0.0961914 -0.065918 0.223633 0.090332 0.15332 -0.00588989 0.244141 0.0751953 -0.400391 0.0898438 -0.000143051 -0.0437012 0.0419922 -0.0947266 0.045166 0.0571289 0.175781 -0.0854492 -0.0727539 0.0239258 -0.166992 -0.133789 0.174805 -0.00765991 0.0708008 -0.107422 0.335938 0.118652 -0.149414 0.10498 -0.081543 0.242188 -0.103516 0.00239563 -0.0717773 0.0351562 0.0515137 -0.019043 -0.0874023 -0.0532227 -0.0131836 -0.292969 -0.0976562 0.121582 0.204102 -0.0090332 0.108887 -0.0595703 -0.118164 -0.273438 0.0683594 -0.0022583 -0.261719 -0.128906 -0.158203 0.175781 -0.0319824 -0.3125 0.263672 -0.0693359 -0.0361328 -0.0488281 -0.0549316 -0.161133 -0.326172 -0.0539551 0.137695 0.15625 -0.0786133 0.271484 0.143555 0.152344 -0.0576172 0.0317383 -0.0466309 0.0515137 0.269531 0.154297 -0.146484 -0.333984 -0.191406 -0.294922 0.273438 0.0549316 -0.141602 0.0454102 -0.101074 -0.201172 -0.0578613 0.0849609 -0.0189209 -0.0106812 0.0532227 -0.0810547 -0.0205078 -0.119141 0.0296631 0.104004 0.130859 -0.235352 -0.242188 -0.239258 0.226562 0.0150757 0.124512 -0.114258 0.0117188 0.345703 0.103516 0.0825195 0.0019989 -0.112305 0.0834961 -0.130859 0.0274658 0.0952148 0.0839844 0.316406 -0.1875 0.388672 0.0524902 0.148438 -0.074707 0.162109 -0.135742 0.161133 -0.225586 -0.00921631 0.121094 0.0118408 -0.25 -0.0981445 0.34375 0.00531006 0.0214844 -0.228516 0.224609 0.0358887 0.117188 0.225586 -0.371094 0.0629883 0.097168 0.0458984 -0.141602 -0.175781 -0.255859 0.306641 -0.306641 0.00402832 -0.1875 -0.267578 -0.225586 0.0693359 -0.0712891 -0.0146484 0.242188 0.0262451 0.457031 0.000419617 -0.017334 0.0805664 -0.166016 0.404297 -0.292969 0.144531 -0.0908203 -0.0717773 -0.143555 -0.119629 -0.304688 0.0169678 -0.0512695 0.00662231 -0.155273 0.145508 0.137695 0.109863 0.0132446 0.00069046 0.169922 0.205078 0.0834961 -0.285156 -0.246094 -0.28125 0.0878906 0.0991211 -0.0561523 0.0524902 -0.0402832 0.074707 -0.0201416 0.0805664 -0.0771484 -0.138672 0.0864258 -0.0878906 -0.0180664 -0.109375 0.168945 -0.128906 -0.111816 -0.207031 -0.134766 -0.232422 -0.142578 0.00823975 0.375 0.0639648 0.158203 0.0179443 -0.129883 -0.128906 -0.0184326 0.302734 -0.0088501 0.390625 -0.195312 -0.296875 0.0644531 0.263672 0.043457 0.400391 -0.114746 -0.414062 0.0311279 0.192383 -0.0412598 -0.0373535 -0.367188 0.124512 -0.0498047 0.162109 0.0563965 -0.294922 -0.116211 -0.102539 0.253906 0.026123 -0.188477 -0.0957031 0.144531 -0.0231934 -0.121582 -0.178711 -0.40625 -0.0057373 0.0388184 -0.0737305 -0.125 -0.243164 -0.0429688 0.0010376 0.106445 -0.081543 -0.251953 -0.4375 -0.0441895 -0.045166 0.380859 0.0111084 0.0566406 -0.0378418 0.150391 -0.0888672 0.104004 0.0339355 0.554688 -0.172852 0.507812 0.0301514 -0.265625 -0.117188 -0.114258 0.114746 -0.0588379 0.230469 -0.0517578 -0.229492 0.019043 -0.000142097 -0.0986328 -0.106445 -0.0839844 -0.117676 -0.0947266 0.229492 0.355469
compulsion 0.287109 -0.193359 -0.125 0.492188 -0.523438 0.0163574 0.182617 -0.173828 0.00872803 0.0834961 -0.0306396 -0.257812 -0.0952148 0.0393066 -0.365234 0.103027 0.359375 0.0351562 0.03125 -0.182617 9.34601e-05 -0.259766 -0.0101318 0.339844 0.0595703 -0.263672 -0.173828 0.167969 0.0510254 0.0649414 -0.116211 -0.12793 0.251953 0.00662231 -0.25 0.234375 0.0742188 -0.103027 0.0722656 -0.0461426 0.277344 -0.109375 0.189453 0.0178223 0.0761719 -0.0874023 -0.112305 -0.0854492 -0.191406 -0.335938 -0.150391 0.140625 -0.118652 0.126953 0.0419922 -0.163086 -0.101074 -0.220703 -0.206055 -0.112793 0.0908203 -0.0444336 0.224609 -0.090332 -0.0292969 -0.0267334 -0.349609 0.421875 -0.275391 -0.0019989 0.130859 -0.155273 -0.154297 0.0947266 0.026001 -0.337891 0.043457 0.131836 0.191406 -0.0427246 0.0634766 0.0800781 0.0354004 -0.170898 -0.11084 0.25 0.116211 0.219727 0.00668335 -0.168945 -0.0274658 -0.12207 -0.0947266 0.0375977 -0.206055 -0.0306396 0.375 -0.0419922 -0.0296631 -0.0571289 -0.0957031 0.0373535 -0.0495605 -0.00140381 0.125977 -0.145508 -0.0742188 -0.101562 0.0751953 -0.0222168 -0.223633 -0.227539 -0.143555 0.174805 0.292969 -0.00613403 -0.128906 -0.21875 0.151367 0.316406 -0.165039 0.363281 -0.179688 0.243164 -0.345703 -0.0893555 0.246094 0.0476074 0.118164 0.230469 -0.289062 -0.132812 -0.0476074 0.0280762 0.21875 0.201172 -0.019165 0.118164 0.0991211 -0.0143433 0.160156 -0.122559 0.048584 -0.024292 0.0155029 0.0688477 -0.0615234 0.328125 -0.141602 -0.136719 0.169922 0.00631714 0.263672 0.123047 -0.0219727 -0.116699 -0.00238037 -0.25 -0.0194092 -0.265625 0.213867 -0.104004 -0.22168 -0.0213623 -0.109375 -0.0883789 0.107422 0.0864258 0.161133 0.0578613 0.0622559 0.074707 -0.257812 0.0301514 -0.182617 -0.351562 0.0131226 -0.392578 -0.149414 0.0727539 0.0893555 0.0402832 0.00167847 -0.21875 -0.0883789 -0.199219 0.0427246 0.125977 0.234375 -0.100586 -0.229492 0.1875 -0.0678711 -0.0405273 0.00442505 -0.302734 -0.0922852 0.279297 -0.138672 -0.169922 0.017334 0.271484 -0.0241699 -0.191406 0.163086 0.183594 -0.0708008 0.0678711 0.296875 -0.121094 -0.139648 -0.0727539 0.163086 -0.213867 -0.150391 0.0319824 0.0698242 0.429688 0.0976562 0.027832 -0.236328 -0.222656 0.269531 0.0673828 -0.216797 -0.0751953 0.226562 -0.0859375 0.0299072 0.0927734 -0.0388184 -0.0246582 0.183594 -0.0625 0.289062 -0.090332 0.143555 -0.161133 -0.0529785 -0.0830078 0.0302734 -0.269531 0.0238037 -0.10498 0.294922 0.0140381 0.0233154 0.09375 0.130859 0.0874023 0.217773 -0.119629 0.154297 0.0600586 -0.0373535 -0.168945 0.0170898 -0.378906 0.363281 0.182617 -0.131836 0.0568848 -0.052002 -0.0544434 -0.453125 0.244141 -0.00823975 -0.103027 0.0500488 0.0390625 0.0446777 0.0284424 0.230469 0.196289 -0.0112915 0.131836 -0.149414 0.0595703 -0.287109 0.363281 -0.199219 -0.143555 0.0559082 0.0568848 0.0524902 -0.0264893 0.0708008 0.0185547 0.102051 0.102539 -0.318359 0.186523 0.0622559 -0.102051 -0.157227 -0.0922852 0.242188 0.0737305 -0.18457 0.0952148
restraint 0.353516 0.116699 -0.0137329 0.228516 -0.0267334 -0.0202637 0.0859375 -0.167969 0.179688 0.0549316 -0.0717773 -0.550781 0.273438 0.124023 -0.253906 0.0727539 -0.0441895 -0.0217285 -0.447266 -0.101074 0.464844 -0.0454102 -0.179688 0.335938 0.25 0.152344 -0.0639648 -0.0078125 0.0471191 -0.0380859 -0.231445 0.081543 -0.155273 -0.0397949 0.0805664 -0.109375 0.143555 0.257812 0.117188 -0.193359 0.237305 -0.0245361 0.0454102 -0.0644531 -0.291016 0.228516 -0.0327148 0.233398 -0.0554199 -0.439453 -0.0109863 0.261719 -0.219727 0.161133 0.0473633 -0.0405273 -0.182617 0.0148926 -0.292969 -0.131836 -0.462891 -0.0339355 0.166016 -0.554688 -0.0380859 0.251953 -0.291016 0.109863 -0.074707 -0.0639648 0.492188 -0.181641 0.203125 0.224609 0.251953 -0.192383 -0.163086 -0.0476074 0.167969 0.188477 0.207031 0.065918 -0.0246582 -0.241211 -0.081543 -0.00927734 0.15918 0.296875 -0.0771484 0.00268555 0.00646973 -0.142578 0.019165 -0.231445 -0.0256348 -0.22168 -0.138672 0.229492 -0.0393066 -0.390625 -0.0322266 -0.460938 0.0437012 0.0888672 0.21875 -0.220703 0.0786133 -0.0688477 0.154297 -0.0437012 -0.183594 0.0664062 -0.0529785 0.166992 -0.287109 -0.283203 -0.0108643 0.0454102 -0.0366211 0.081543 -0.0458984 0.273438 0.166992 0.208008 -0.263672 0.170898 0.144531 -0.125977 0.339844 -0.172852 0.199219 -0.0878906 -0.208984 0.0546875 0.0280762 -0.0727539 0.046875 -0.248047 -0.097168 0.238281 0.113281 -0.0742188 -0.304688 0.041748 -0.0415039 0.0791016 -0.0578613 0.267578 0.382812 0.11377 0.285156 0.0109863 0.210938 -0.146484 0.150391 -0.242188 0.182617 -0.251953 0.28125 0.0498047 0.0654297 0.0429688 -0.0527344 -0.104004 0.0844727 -0.0213623 -0.251953 0.0534668 0.0571289 0.175781 -0.0522461 -0.219727 0.0932617 0.277344 -0.0272217 0.0150146 0.355469 -0.0629883 -0.255859 -0.273438 -0.296875 0.249023 0.0183105 -0.157227 0.185547 -0.0864258 -0.0014801 -0.349609 0.136719 -0.0390625 0.125977 0.131836 -0.027832 -0.065918 -0.115723 -0.102539 0.0957031 -0.320312 -0.0235596 -0.255859 -0.240234 -0.0510254 -0.117676 0.0820312 -0.0395508 -0.4375 -0.298828 -0.166016 -0.09375 -0.0291748 -0.0839844 -0.0458984 0.339844 -0.0480957 -0.382812 0.00726318 -0.191406 -0.0981445 -0.3125 0.289062 -0.155273 -0.0358887 -0.0130005 -0.0179443 -0.00146484 -0.0673828 0.419922 -0.0317383 0.25 0.224609 0.00494385 -0.246094 0.0751953 0.291016 -0.172852 -0.112793 -0.0383301 0.0483398 0.207031 -0.143555 0.240234 -0.116699 0.0717773 -0.273438 0.220703 -0.102051 -0.302734 0.00257874 0.130859 -0.0327148 0.124512 0.0673828 -0.149414 -0.00750732 -0.0057373 -0.0712891 0.140625 -0.34375 0.22168 -0.081543 0.0737305 0.222656 -0.0996094 0.223633 -0.0189209 0.0717773 0.0727539 -0.179688 -0.111328 -0.0869141 -0.0668945 0.285156 0.34375 -0.223633 0.193359 0.111816 -0.204102 0.167969 -0.298828 0.0432129 -0.0252686 0.388672 0.137695 -0.304688 0.0554199 -0.15918 -0.186523 0.0422363 0.25 -0.03125 -0.263672 -0.193359 0.167969 -0.265625 -0.0629883 -0.292969 0.160156 0.0976562 -0.217773 0.0976562
enablement -0.0839844 -0.0991211 -0.609375 0.0625 -0.263672 0.106445 0.257812 -0.0732422 0.10791 0.00390625 0.0981445 0.173828 0.00163269 0.0678711 -0.112305 -0.120117 0.302734 -0.179688 -0.0649414 0.236328 -0.246094 -0.000142097 0.09375 0.376953 0.163086 0.057373 -0.229492 -0.041748 0.0395508 -0.25 0.137695 0.341797 -0.0169678 -0.157227 -0.00343323 0.00164032 -0.117188 -0.328125 0.333984 0.0351562 -0.0108643 0.0874023 0.15332 0.0150146 -0.183594 -0.211914 -0.140625 -0.378906 0.126953 0.198242 -0.269531 0.232422 -0.269531 -0.00418091 -0.0981445 0.0583496 0.0112915 -0.314453 0.390625 0.0269775 -0.1875 -0.225586 -0.110352 0.135742 -0.123535 0.408203 -0.229492 0.267578 0.198242 -0.429688 -0.169922 -0.0507812 0.0356445 0.213867 0.0510254 -0.220703 0.345703 0.0927734 0.392578 -0.0441895 0.226562 0.154297 -0.326172 -0.103516 0.21582 -0.394531 0.0693359 0.234375 -0.034668 -0.0693359 -0.15625 -0.100586 -0.423828 -0.081543 0.137695 -0.273438 -0.150391 0.0756836 -0.135742 -0.202148 -0.259766 -0.0820312 -0.0551758 -0.000640869 -0.257812 -0.041748 -0.115234 0.210938 0.0299072 -0.0366211 -0.197266 0.0439453 -0.408203 0.333984 -0.0180664 0.24707 0.19043 -0.146484 0.404297 -0.0324707 -0.219727 0.304688 0.0231934 0.273438 0.234375 0.0306396 -0.351562 0.353516 -0.151367 0.245117 -0.0100708 0.478516 -0.0966797 -0.237305 -0.106445 0.0437012 0.291016 -0.296875 0.210938 0.036377 -0.204102 0.146484 -0.0454102 0.117676 -0.217773 -0.116211 0.0432129 -0.375 -0.267578 -0.306641 0.427734 0.131836 -0.0810547 0.0169678 -0.0612793 0.0556641 0.204102 0.0976562 -0.21582 -0.394531 0.0395508 -0.189453 -0.15332 -0.0354004 -0.380859 -0.0537109 0.0693359 -0.0834961 -0.363281 -0.143555 0.123047 -0.177734 0.0498047 -0.267578 0.180664 -0.0308838 0.498047 -0.355469 -0.00616455 -0.135742 -0.275391 -0.100098 0.300781 -0.103027 0.12793 0.104004 -0.0456543 0.455078 0.00952148 0.0595703 -0.041748 -0.219727 -0.21582 0.0578613 -0.229492 -0.0124512 0.02771 -0.0262451 0.239258 -0.359375 -0.0322266 -0.081543 -0.0203857 -0.0864258 -0.137695 -0.0390625 0.135742 -0.0825195 0.0947266 0.0625 -0.204102 -0.267578 -0.0712891 -0.0378418 -0.15332 -0.102539 0.283203 0.128906 -0.136719 -0.251953 0.00524902 -0.0495605 0.357422 -0.0422363 -0.237305 -0.178711 0.230469 -0.138672 0.0341797 -0.0825195 -0.412109 0.124023 -0.0144043 -0.208984 0.00128174 -0.0490723 -0.220703 0.275391 0.0849609 0.162109 0.28125 -0.126953 -0.15918 -0.355469 0.122559 -0.542969 -0.15332 0.664062 0.0869141 -0.136719 -0.00415039 0.0893555 -0.0698242 0.597656 0.0532227 -0.131836 -0.0766602 -0.139648 -0.439453 0.1875 0.036377 -0.0214844 0.101562 -0.131836 -0.154297 -0.0908203 0.275391 0.00613403 -0.730469 -0.285156 -0.271484 -0.0578613 -0.5 -0.144531 0.0913086 0.106445 -0.239258 0.185547 0.0354004 -0.0771484 -0.243164 -0.0996094 -0.0878906 0.0615234 0.162109 0.100098 0.0164795 0.0134888 0.267578 -0.0213623 0.291016 0.166992 0.241211 0.229492 0.165039 -0.0786133 0.242188 -0.112305 0.0283203 0.333984
blockage 0.0478516 0.138672 0.172852 -0.00854492 -0.304688 0.138672 -0.140625 -0.0400391 0.240234 -0.283203 -0.0563965 -0.134766 0.09375 0.0164795 0.0849609 0.0541992 0.158203 0.0612793 -0.0437012 -0.275391 0.139648 -0.0996094 -0.0422363 0.168945 -0.176758 -0.167969 -0.0131226 -0.142578 -0.0869141 -0.0410156 -0.263672 -0.180664 0.0839844 -0.238281 0.0864258 -0.283203 0.125 -0.261719 -0.216797 -0.10498 -0.0654297 -0.188477 -0.172852 -0.100586 -0.0766602 -0.145508 -0.186523 0.188477 -0.369141 -0.0942383 -0.00622559 -0.110352 0.0154419 -0.0649414 0.146484 0.0192871 0.0296631 -0.105957 -0.21875 0.0432129 -0.271484 0.0303955 0.207031 -0.010376 0.120117 -0.026123 -0.201172 0.145508 -0.12207 0.106934 0.129883 -0.423828 0.202148 -0.24707 -0.515625 -0.208984 0.257812 0.0407715 0.134766 0.414062 0.176758 0.102539 0.298828 0.0727539 -0.0305176 -0.239258 -0.0319824 0.160156 0.423828 -0.135742 0.0615234 -0.141602 0.0727539 0.417969 -0.041748 -0.198242 -0.181641 -0.0410156 0.139648 0.371094 0.229492 -0.134766 0.0332031 -0.582031 0.251953 -0.0830078 -0.207031 0.0559082 -0.0247803 -0.0397949 -0.027832 -0.398438 0.142578 -0.244141 0.0388184 -0.233398 -0.104004 0.0981445 -0.245117 0.398438 0.0529785 0.0888672 0.0810547 -0.0839844 -0.141602 -0.152344 0.15918 -0.128906 0.240234 -0.160156 -0.0986328 0.59375 0.100098 -0.114258 0.194336 0.0947266 -0.0776367 0.0231934 -0.306641 0.298828 0.0050354 -0.275391 0.123535 0.1875 -0.0952148 -0.296875 -0.574219 -0.176758 -0.269531 -0.203125 0.167969 -0.102051 -0.00674438 0.279297 -0.0317383 -0.18457 -0.251953 0.00909424 -0.116211 0.0578613 -0.0588379 0.220703 -0.363281 -0.0561523 0.24707 -0.480469 0.296875 0.0644531 0.166992 -0.12207 0.0131836 0.427734 0.0947266 0.174805 -0.0737305 -0.328125 0.291016 -0.0864258 0.041748 0.300781 0.00628662 0.113281 -0.103027 0.0167236 0.347656 0.168945 0.125 -0.00265503 0.271484 0.457031 -0.0917969 0.296875 -0.132812 0.227539 0.144531 -0.192383 -0.136719 -0.116211 0.0251465 -0.176758 0.111328 0.236328 0.3125 0.0153198 -0.0593262 0.00732422 -0.0432129 -0.0786133 0.373047 0.0844727 -0.183594 -0.141602 -0.223633 0.277344 -0.353516 -0.192383 -0.205078 -0.0678711 -0.0378418 0.166992 -0.0167236 -0.179688 0.263672 0.177734 0.0859375 -0.0986328 0.239258 0.0703125 -0.0236816 0.349609 0.349609 -0.168945 -0.195312 -0.408203 0.174805 -0.176758 0.261719 -0.103027 0.139648 0.169922 0.206055 -0.0166016 -0.140625 -0.470703 0.498047 -0.0272217 -0.0266113 0.34375 -0.167969 -0.289062 0.207031 -0.355469 -0.257812 0.121582 0.18457 0.0197754 -0.00113678 -0.177734 -0.263672 0.0776367 0.0291748 0.186523 0.180664 0.335938 0.0306396 0.139648 0.0358887 -0.0693359 0.22168 -0.180664 -0.15332 0.0174561 -0.0527344 -0.0432129 0.213867 -0.119141 0.202148 0.0512695 -0.15918 -0.263672 0.0795898 0.380859 -0.0255127 0.0834961 -0.0554199 -0.120117 -0.0148315 0.0688477 -0.0595703 -0.0600586 0.201172 -0.229492 -0.048584 -0.382812 -0.24707 0.213867 -0.0205078 -0.0488281 0.310547 -0.142578
diversion -0.117676 0.302734 0.0712891 0.177734 0.00772095 0.1875 -0.116211 0.0437012 -0.0522461 -0.00271606 0.0683594 0.0615234 0.230469 0.243164 -0.173828 -0.10498 0.149414 -0.144531 0.112305 0.00274658 -0.0299072 0.0264893 -0.0932617 -0.0703125 -0.0310059 -0.21582 0.0810547 0.0986328 -0.132812 0.0595703 -0.243164 -0.328125 -0.183594 -0.0888672 0.0878906 -0.220703 -0.0220947 -0.126953 0.164062 -0.212891 -0.0319824 0.0839844 0.227539 -0.120117 -0.326172 -0.330078 0.0239258 0.296875 -0.124023 0.020752 -0.232422 -0.269531 0.0673828 -0.0507812 0.0708008 -0.0869141 -0.263672 -0.175781 0.151367 -0.224609 -0.154297 -0.0299072 0.0317383 -0.0820312 -0.0253906 0.148438 -0.253906 -0.0717773 -0.236328 -0.25 0.0688477 0.0629883 0.257812 -0.0629883 0.193359 0.0722656 -0.0561523 0.146484 0.0314941 0.0500488 0.131836 -0.0544434 -0.0219727 -0.245117 -0.0478516 0.065918 -0.00101471 0.0299072 0.292969 0.043457 -0.115234 -0.045166 0.0422363 0.125 0.0296631 -0.0722656 0.0306396 0.150391 -0.0559082 0.152344 0.123535 0.241211 0.105957 -0.131836 0.0410156 -0.105469 0.112793 -0.300781 0.22168 -0.0732422 -0.0449219 0.193359 -0.239258 0.0144653 0.0308838 0.209961 0.0319824 0.131836 -0.165039 0.275391 -0.118652 0.28125 -0.160156 0.117676 -0.104492 -0.10791 0.0159912 0.0334473 0.382812 -0.273438 -0.192383 -0.138672 -0.0546875 -0.143555 0.00695801 0.0189209 0.0859375 -0.171875 0.0825195 0.0274658 0.0400391 -0.384766 -0.134766 0.0400391 -0.0262451 -0.0678711 -0.507812 0.0559082 -0.498047 -0.0678711 0.154297 -0.0163574 0.00140381 0.18457 -0.0571289 -0.511719 0.292969 -0.0771484 0.106445 0.0114136 0.0402832 0.115234 -0.0427246 0.0610352 -0.22168 0.0664062 0.133789 -0.0174561 0.375 0.172852 -0.142578 -0.116211 -0.081543 -0.0551758 0.0427246 -0.120117 -0.0145874 -0.335938 -0.120117 -0.022583 0.0251465 0.017334 0.0825195 -0.0461426 0.108398 -0.045166 0.0161133 0.244141 0.0471191 0.129883 -0.0319824 -0.00245667 0.224609 -0.110352 0.0527344 -0.0524902 -0.291016 0.228516 -0.0422363 -0.204102 0.28125 -0.0300293 0.149414 -0.12793 0.154297 0.3125 0.0101929 0.090332 0.0332031 0.310547 0.147461 0.0537109 0.0561523 0.0272217 -0.109375 -0.0288086 0.0444336 -0.251953 -0.0444336 -0.106445 0.135742 0.0437012 -0.0505371 0.251953 0.121582 0.0437012 0.171875 -0.109375 0.0771484 0.149414 0.0541992 0.177734 -0.191406 -0.335938 -0.181641 -0.3125 0.00878906 0.145508 0.439453 -0.0197754 0.0854492 0.162109 -0.0302734 -0.298828 -0.0167236 0.208008 0.00701904 0.0185547 -0.0737305 -0.0761719 0.188477 -0.0571289 -0.00543213 0.298828 0.0446777 0.255859 0.186523 -0.176758 -0.222656 0.0986328 0.191406 -0.00494385 0.0299072 0.162109 -0.18457 0.261719 -0.261719 0.0239258 -0.229492 0.300781 0.0292969 -0.121582 0.171875 -0.0854492 0.0380859 -0.0578613 0.00436401 -0.183594 -0.146484 0.0461426 0.0859375 0.145508 0.125 0.0187988 -0.147461 -0.0203857 -0.0737305 0.0664062 0.118652 0.0805664 -0.0849609 0.0649414 -0.010498 0.0216064 0.00976562 -0.0131836 -0.0231934 -0.261719 0.128906 -0.118652
attraction 0.219727 0.143555 0.0186768 0.0534668 -0.124023 0.203125 0.279297 -0.0166016 -0.12793 0.15625 0.0859375 -0.0390625 -0.015625 -0.152344 0.134766 0.186523 -0.140625 -0.115234 0.239258 -0.0620117 0.228516 0.00952148 0.0437012 0.410156 -0.0893555 -0.135742 -0.0839844 0.347656 -0.00424194 -0.224609 -0.191406 -0.193359 0.0495605 0.0805664 0.139648 -0.00964355 0.134766 0.228516 0.235352 -0.0654297 -0.0732422 -0.119141 -0.00521851 0.220703 -0.214844 -0.574219 0.139648 -0.0512695 0.0703125 0.245117 -0.145508 0.0585938 -0.107422 -0.198242 0.032959 0.0791016 -0.0224609 -0.116699 -0.0957031 0.0539551 0.0913086 -0.142578 0.107422 -0.138672 -0.199219 -0.0383301 -0.417969 0.0239258 -0.0231934 -0.147461 -0.0976562 -0.150391 0.130859 0.00592041 0.0957031 0.114258 0.0422363 0.0454102 -0.0756836 0.0908203 0.0571289 -0.21582 -0.00105286 0.0917969 -0.304688 0.0314941 -0.180664 -0.119141 0.110352 -0.0922852 0.00357056 -0.0415039 -0.289062 0.189453 0.0212402 0.0483398 0.210938 -0.00158691 0.0791016 -0.0991211 -0.078125 0.359375 0.304688 0.104492 0.193359 -0.24707 0.0249023 -0.242188 -0.1875 -0.121582 -0.206055 0.120117 0.173828 0.00976562 0.163086 -0.205078 -0.117676 -0.0253906 -0.0456543 0.0471191 0.130859 -0.0737305 0.202148 0.0332031 -0.0380859 -0.0830078 0.0625 0.130859 0.204102 0.121094 0.0688477 -0.019043 0.199219 -0.0140991 -0.104492 -0.220703 -0.108398 0.00854492 -0.229492 0.0966797 0.126953 -0.174805 0.0427246 0.0693359 0.123047 0.0256348 0.0556641 0.200195 -0.322266 -0.0595703 -0.150391 0.102539 0.0444336 0.0412598 -0.204102 -0.138672 0.00341797 -0.257812 -0.00604248 -0.458984 0.148438 -0.0495605 0.206055 0.0559082 0.104004 -0.0109253 0.142578 -0.100098 -0.108398 0.0603027 -0.210938 0.163086 -0.00285339 -0.0908203 -0.251953 0.181641 0.0576172 -0.271484 0.175781 -0.0361328 -0.0791016 0.115234 0.0776367 -0.164062 -0.0147705 -0.320312 0.0839844 0.0634766 0.198242 -0.0264893 -0.188477 -0.0693359 0.0270996 0.139648 -0.0888672 0.0185547 -0.165039 0.271484 -0.101074 -0.141602 0.423828 0.00872803 -0.227539 -0.412109 0.0610352 -0.0981445 0.214844 0.09375 0.0322266 0.414062 0.0712891 0.162109 0.146484 0.141602 -0.122559 0.171875 0.287109 0.0476074 0.12793 0.398438 0.0883789 0.138672 0.0200195 0.0507812 -0.170898 -0.111328 -0.0178223 0.0356445 0.0117798 -0.0230713 -0.175781 -0.171875 -0.160156 0.121582 0.182617 0.0991211 -0.135742 -0.24707 -0.100098 -0.0517578 -0.0161133 -0.134766 -0.0446777 -0.00546265 0.130859 0.0385742 0.169922 -0.036377 0.167969 -0.0800781 -0.0830078 0.0471191 0.291016 -0.123535 -0.197266 0.160156 0.117676 -0.0698242 -0.404297 -0.114258 -0.078125 -0.0212402 -0.0230713 0.443359 -0.0167236 0.135742 0.257812 -0.178711 0.0314941 -0.229492 0.0454102 0.172852 -0.129883 -0.0617676 0.163086 -0.0922852 -0.197266 -0.145508 -0.244141 -0.0893555 0.208984 0.0844727 -0.0162354 -0.0169678 -0.0742188 -0.300781 -0.162109 -0.0820312 0.0800781 0.020752 -0.212891 0.0622559 -0.0249023 -0.206055 -0.120605 -0.034668 -0.045166 -0.108887 0.103516 0.00927734
merging -0.0490723 0.00558472 0.0344238 0.0292969 -0.119141 0.125977 -0.21582 -0.165039 0.193359 0.210938 0.0649414 -0.0272217 -0.219727 0.0524902 -0.361328 0.090332 -0.108887 0.151367 0.078125 -0.0961914 0.0578613 0.0166016 0.012207 -0.318359 0.0229492 0.300781 0.128906 0.0505371 0.00805664 -0.213867 0.25 0.0795898 0.074707 0.0233154 0.0101318 -0.10498 0.257812 -0.090332 0.0834961 0.0917969 -0.0202637 0.00585938 0.0986328 0.225586 -0.144531 -0.217773 0.0639648 0.0158691 0.0294189 0.123535 -0.00662231 0.00891113 -0.322266 -0.273438 -0.0354004 0.363281 -0.00294495 -0.0554199 0.251953 0.0598145 0.179688 0.0888672 -0.0874023 -0.0991211 -0.0634766 0.199219 -0.21875 0.253906 -0.328125 -0.0878906 -0.304688 -0.0211182 0.059082 0.0554199 -0.00817871 -0.124512 -0.143555 -0.0258789 0.0327148 -0.0612793 0.0327148 -0.0913086 0.141602 0.226562 0.0534668 0.18457 0.0625 -0.0566406 0.0927734 0.150391 0.210938 -0.103516 0.339844 0.107422 0.0189209 0.378906 0.00162506 -0.0644531 -0.108398 0.0981445 -0.257812 0.115234 0.0678711 0.136719 0.160156 0.0776367 0.105957 0.15625 -0.130859 -0.059082 -0.116211 0.0174561 0.163086 -0.302734 0.398438 0.275391 0.212891 0.019043 0.0349121 -0.110352 0.103027 0.0786133 -0.181641 0.200195 -0.125977 -0.158203 -0.137695 0.220703 0.135742 0.171875 0.15332 -0.128906 0.12793 -0.0622559 0.417969 0.22168 -0.119629 -0.314453 -0.0473633 -0.0439453 0.154297 -0.400391 -0.229492 0.283203 0.126953 0.194336 -0.318359 -0.105957 0.130859 0.0703125 -0.194336 0.0163574 -0.231445 0.371094 0.106445 -0.123535 -0.0688477 -0.209961 -0.102539 0.253906 -0.298828 -0.0800781 -0.150391 0.0275879 -0.211914 -0.0888672 0.145508 0.100098 0.0088501 0.195312 0.0703125 -0.386719 0.251953 0.0272217 0.0947266 -0.226562 -0.0625 0.0368652 -0.211914 -0.0820312 -0.0966797 -0.150391 -0.167969 -0.0864258 0.0634766 -0.168945 -0.10498 -0.0480957 -0.177734 0.00604248 -0.130859 -0.0480957 -0.175781 0.19043 0.0532227 0.00524902 -0.121094 0.0222168 0.527344 -0.166016 0.100586 -0.0490723 0.363281 -0.199219 -0.152344 0.12207 -0.0220947 -0.196289 0.155273 0.0505371 0.106934 -0.320312 0.131836 0.427734 -0.0932617 -0.171875 0.128906 -0.195312 0.0634766 0.0559082 0.132812 0.12207 0.0634766 0.145508 -0.337891 -0.205078 -0.128906 -0.168945 -0.283203 0.212891 0.120117 -0.114746 0.0957031 0.392578 0.113281 -0.0412598 -0.174805 -0.351562 -0.128906 0.151367 -0.0603027 -0.267578 -0.345703 -0.15625 0.179688 -0.0874023 -0.0317383 0.104004 -0.0732422 -0.145508 0.0849609 0.108887 0.0490723 0.0600586 0.283203 0.0869141 0.02771 0.193359 -0.036377 0.208984 0.241211 0.0917969 0.189453 0.022583 0.0488281 -0.0296631 0.154297 0.253906 -0.429688 0.304688 0.211914 0.0600586 -0.141602 -0.00102234 0.229492 -0.146484 -0.0556641 0.0776367 -0.341797 0.0532227 -0.355469 0.0354004 -0.224609 0.00964355 -0.00778198 -0.00866699 0.245117 0.164062 0.292969 0.0446777 -0.441406 0.045166 -0.277344 0.182617 -0.0893555 0.0712891 0.402344 -0.118652 -0.104004 0.00939941
collection 0.0441895 0.324219 -0.0581055 0.212891 0.261719 -0.0480957 0.0390625 -0.150391 0.0761719 0.25 -0.0203857 -0.279297 0.0639648 0.0231934 -0.378906 -0.211914 0.294922 0.175781 -0.0463867 0.0361328 -0.0317383 -0.188477 0.0235596 0.125 -0.0795898 -0.0810547 -0.100098 0.0952148 -0.0766602 -0.112305 -0.112305 0.0727539 0.0507812 0.241211 -0.0664062 -0.102051 0.0595703 -0.168945 -0.125977 -0.125977 0.142578 0.183594 -0.0839844 0.0888672 0.0432129 -0.392578 -0.195312 -0.128906 -0.0649414 0.00601196 0.155273 -0.163086 0.0222168 -0.210938 -0.0400391 0.279297 -0.0776367 -0.00576782 -0.125 0.0195312 0.165039 -0.24707 -0.00402832 -0.382812 0.00726318 0.102539 -0.236328 0.0512695 0.146484 -0.024292 0.25 -0.199219 0.234375 -0.18457 -0.0830078 0.265625 0.245117 -0.0137329 0.0961914 -0.0578613 0.0727539 -0.235352 0.216797 -0.191406 0.129883 0.135742 -0.0678711 -0.0437012 0.0766602 0.0878906 0.0256348 -0.0898438 0.0922852 -0.02771 -0.0349121 -0.0732422 0.11084 -0.0266113 0.110352 0.102051 -0.0334473 0.22168 -0.115723 -0.0986328 0.133789 -0.120605 0.0795898 0.191406 -0.198242 -0.0795898 -0.0766602 0.0576172 -0.0830078 -0.00233459 0.0294189 0.0291748 -0.169922 -0.0303955 0.130859 0.0515137 -0.111328 0.0152588 0.133789 0.00735474 0.0810547 0.0498047 -0.00891113 0.0634766 -0.0708008 -0.0126953 0.171875 -0.177734 0.0200195 0.00196838 -0.0561523 -0.0539551 -0.199219 -0.149414 -0.0272217 -0.193359 0.0834961 -0.0844727 -0.0344238 0.196289 0.201172 -0.0522461 0.00415039 0.200195 -0.0307617 0.050293 0.12793 0.0942383 0.0568848 0.296875 0.194336 -0.34375 0.0062561 0.137695 -0.0776367 0.0314941 -0.0187988 -0.0256348 0.0249023 0.208008 0.0324707 -0.0209961 0.519531 -0.197266 -0.175781 0.0395508 -0.0527344 0.128906 0.177734 0.0016098 0.0952148 0.0407715 0.0786133 -0.210938 -0.163086 0.0124512 -0.081543 0.0581055 0.0219727 -0.0305176 -0.0480957 -0.0412598 -0.337891 0.078125 -0.0830078 0.10791 0.128906 -0.164062 0.302734 0.12793 -0.292969 -0.157227 0.121094 0.138672 -0.0566406 -0.0371094 -0.0483398 -0.0415039 -0.0844727 0.119629 -0.208984 0.291016 -0.298828 0.173828 0.0859375 0.0230713 -0.0234375 -0.00341797 0.032959 -0.0200195 0.0617676 0.298828 -0.144531 0.116699 -0.214844 0.0834961 -0.137695 0.090332 -0.204102 -0.0211182 -0.0194092 -0.126953 -0.300781 -0.181641 0.00854492 -0.106445 0.115723 0.111816 -0.253906 0.00221252 0.0639648 0.0673828 -0.00946045 -0.00579834 -0.036377 -0.171875 0.140625 -0.194336 0.131836 -0.0712891 -0.0703125 0.214844 0.12207 0.0178223 -0.0893555 -0.0742188 -0.0981445 0.000534058 -0.0224609 -0.00494385 -0.125977 0.0358887 -0.0211182 -0.166992 -0.103027 -0.230469 0.225586 0.0322266 -0.101074 -0.205078 -0.180664 0.0212402 -0.269531 0.0830078 -0.158203 0.318359 0.139648 0.00799561 0.136719 0.211914 0.431641 0.123047 0.192383 0.0456543 0.0480957 0.0289307 -0.0598145 0.113281 0.515625 -0.144531 -0.0893555 0.0578613 -0.00970459 0.0383301 0.243164 0.0859375 -0.0732422 0.0476074 0.0605469 0.146484 0.0255127 -0.0250244 0.0065918 0.0888672 0.0488281 -0.149414
splitting 0.10498 0.209961 -0.183594 0.0202637 -0.0388184 0.125 -0.257812 -0.296875 0.0480957 0.191406 0.237305 0.0478516 -0.170898 0.298828 -0.359375 0.1875 -0.146484 0.194336 -0.136719 -0.0154419 0.111328 0.125 -0.0441895 0.00171661 0.0264893 0.188477 -0.0727539 0.0554199 -0.0490723 0.0432129 -0.0583496 0.0106812 0.0634766 0.0576172 0.192383 0.146484 0.02771 -0.0966797 0.0429688 0.318359 -0.0581055 -0.118164 0.285156 -0.136719 -0.226562 -0.0197754 0.074707 -0.0732422 0.196289 -0.0361328 0.0449219 0.116699 -0.182617 0.00643921 -0.105957 0.102051 0.0554199 -0.123047 -0.0246582 0.0551758 0.173828 0.208984 0.170898 -0.172852 0.0397949 0.000318527 -0.0913086 0.143555 -0.112305 -0.213867 0.203125 -0.0240479 0.236328 0.145508 -0.253906 -0.0561523 0.0791016 0.15918 -0.144531 0.0854492 -0.0424805 -0.238281 0.0301514 0.154297 0.0981445 -0.157227 0.0947266 0.0810547 0.0195312 0.185547 0.0135498 0.195312 0.0864258 0.246094 -0.0908203 0.181641 0.0378418 -0.359375 -0.129883 0.339844 -0.244141 -0.0539551 0.144531 -0.128906 0.200195 0.0922852 0.257812 0.154297 0.191406 0.0126953 0.0771484 -0.193359 0.248047 -0.0532227 0.462891 0.00158691 0.0791016 0.115234 -0.0932617 -0.0751953 0.283203 -0.130859 -0.090332 0.206055 -0.104004 -0.135742 -0.12207 0.0368652 0.135742 -0.0161133 0.188477 -0.065918 -0.131836 0.134766 0.0864258 -0.0131836 -0.0776367 -0.081543 0.0588379 -0.0395508 -0.279297 -0.136719 -0.0292969 0.251953 -0.101562 0.100098 -0.464844 -0.0932617 0.160156 0.0390625 -0.0390625 0.012146 -0.100098 -0.0483398 0.00106812 -0.0461426 0.0678711 -0.0727539 0.0625 0.131836 -0.554688 0.0280762 0.121582 0.060791 -0.3125 -0.048584 0.255859 0.0800781 -0.147461 0.00157928 -0.192383 -0.404297 0.259766 0.0566406 0.292969 0.0478516 0.216797 -0.143555 -0.283203 0.220703 0.00494385 -0.170898 0.0957031 0.136719 0.137695 -0.0505371 -0.206055 -0.0322266 0.0222168 -0.0898438 0.279297 -0.139648 0.296875 -0.0878906 0.0224609 0.175781 -0.057373 0.11377 0.239258 -0.121582 0.0859375 0.0385742 0.267578 0.0717773 -0.0112915 -0.0712891 -0.0751953 0.0732422 0.0072937 0.0224609 0.0512695 -0.0257568 0.0859375 0.165039 -0.0805664 -0.168945 -0.00296021 -0.0247803 0.0854492 -0.0032196 0.143555 0.0639648 0.157227 0.0786133 -0.180664 -0.189453 -0.202148 -0.0235596 0.108887 0.279297 0.0593262 -0.0234375 0.100586 0.257812 -0.117676 -0.134766 -0.125977 -0.458984 -0.361328 0.119141 0.144531 -0.125977 -0.00031662 -0.335938 0.408203 0.060791 -0.0393066 -0.00860596 0.0483398 -0.0476074 -0.0324707 -0.0571289 0.234375 0.012207 0.421875 0.123047 0.019043 0.0211182 -0.166992 0.294922 0.447266 0.148438 0.182617 0.0336914 0.105469 -0.0222168 0.036377 0.279297 -0.124512 0.0306396 0.15918 -0.0922852 0.117676 -0.0761719 0.275391 -0.125977 -0.306641 0.10498 -0.0476074 0.0490723 0.103027 -0.145508 -0.263672 0.125977 0.126953 -0.136719 0.0166016 -0.0371094 0.200195 -0.00946045 -0.123047 0.103516 -0.0908203 0.0554199 -0.12793 0.157227 0.168945 -0.224609 0.131836 0.0654297
