abandonment 0.0144043 0.0898438 0.135742 -0.0742188 -0.18457 0.0688477 0.019165 -0.134766 0.233398 0.0893555 -0.0664062 -0.0693359 -0.104492 0.308594 -0.090332 0.0581055 0.0649414 -0.163086 -0.21875 -0.0791016 0.115234 -0.285156 -0.0693359 0.0427246 -0.0150146 0.201172 -0.0539551 0.202148 0.192383 -0.170898 0.107422 -0.129883 -0.292969 -0.0174561 -0.163086 0.140625 0.119629 0.0566406 0.0664062 -0.195312 0.118652 0.133789 0.097168 -0.19043 -0.151367 -0.269531 0.059082 0.175781 -0.0722656 -0.148438 0.0327148 0.171875 -0.419922 0.0334473 0.202148 0.0688477 -0.324219 -0.130859 0.0756836 0.00291443 -0.097168 -0.00643921 -0.0493164 -0.157227 -0.109863 -0.275391 -0.0324707 0.137695 -0.209961 0.0211182 0.160156 0.059082 -0.164062 0.0952148 0.0383301 -0.304688 0.166016 0.267578 0.0559082 0.285156 0.193359 -0.10498 0.115234 -0.0427246 0.283203 -0.114746 0.306641 0.0922852 -0.00236511 -0.0228271 0.0488281 0.0678711 -0.0878906 0.0324707 0.0922852 0.0922852 0.144531 -0.138672 -0.191406 0.130859 0.227539 0.114258 -0.0167236 0.0634766 0.0244141 -0.104492 0.206055 -0.0123901 -0.279297 0.0966797 -0.0678711 0.0397949 0.0717773 0.232422 0.0334473 0.310547 0.0942383 -0.00056076 0.0227051 0.324219 -0.0135498 0.0703125 -0.0593262 0.0610352 -0.116211 -0.114258 -0.0200195 0.000595093 0.148438 0.00976562 -0.231445 -0.0305176 -0.180664 -0.0266113 -0.21582 -0.0583496 -0.0222168 -0.209961 -0.21582 0.0112305 -0.0563965 -0.166016 -0.145508 0.390625 0.081543 0.212891 -0.414062 0.050293 -0.357422 0.170898 0.455078 -0.261719 0.398438 -0.0505371 -0.09375 -0.0551758 -0.0761719 -0.108398 0.229492 -0.0247803 0.298828 0.208008 -0.140625 0.0854492 0.026001 0.065918 0.137695 0.0698242 -0.097168 0.102539 -0.0722656 0.0439453 -0.0810547 -0.224609 -0.166016 0.110352 0.0683594 0.010498 0.0578613 0.136719 -0.308594 0.0405273 -0.0649414 -0.242188 0.126953 0.253906 -0.0830078 0.0397949 0.133789 0.361328 -0.00793457 -0.128906 0.148438 -0.00119019 -0.00994873 0.0236816 -0.0522461 0.0712891 0.0673828 0.074707 0.0419922 -0.0517578 -0.142578 -0.361328 -0.0375977 0.197266 -0.229492 0.112305 0.498047 0.229492 -0.0257568 0.166016 0.210938 0.182617 -0.120117 0.019165 -0.0534668 -0.474609 -0.132812 -0.181641 0.0515137 0.103516 0.363281 -0.0281982 -0.0288086 -0.310547 0.285156 -0.195312 0.199219 0.116211 0.0390625 0.00285339 0.0358887 -0.0283203 0.032959 -0.0849609 0.239258 -0.21582 0.306641 0.0228271 -0.176758 -0.113281 -0.0164795 -0.208008 -0.308594 0.167969 0.146484 -0.00120544 -0.0664062 0.129883 0.0131226 0.119141 -0.0942383 -0.0805664 -0.178711 -0.157227 0.132812 -0.154297 -0.0664062 -0.0253906 0.101562 0.12793 0.205078 0.365234 -0.155273 -0.0341797 -0.0166016 -0.151367 -0.207031 0.0390625 -0.324219 -0.0476074 -0.0791016 -0.0932617 0.103516 -0.0150757 -0.0703125 0.225586 0.0976562 -0.0620117 0.271484 -0.132812 0.0756836 0.223633 0.0162354 0.0737305 0.171875 0.0299072 -0.316406 0.0805664 -0.25 0.114746 -0.163086 0.117188 -0.0192871 0.0407715 0.0603027 0.0717773 -0.0373535 0.119141
abundance 0.202148 0.132812 -0.12793 0.0708008 -0.0264893 -0.0383301 -0.097168 -0.330078 -0.257812 0.425781 -0.263672 -0.214844 -0.0732422 -0.03125 -0.3125 0.0810547 -0.185547 0.191406 -0.136719 -0.125977 0.0551758 -0.149414 -0.19043 0.0397949 -0.231445 -0.165039 -0.0252686 0.365234 -0.109375 -0.0480957 -0.0319824 0.117188 0.117676 0.129883 -0.0805664 -0.0393066 0.00320435 -0.326172 0.0966797 0.0334473 0.361328 0.103027 -0.0123901 0.0593262 -0.0600586 -0.328125 -0.0820312 0.0299072 -0.134766 -0.175781 0.0427246 -0.0585938 -0.263672 -0.0127563 -0.013855 -0.105469 -0.015564 -0.433594 -0.050293 0.0588379 0.0310059 0.0067749 -0.28125 0.0143433 0.0194092 -0.316406 -0.249023 0.0563965 -0.152344 -0.0177002 0.00704956 -0.275391 -0.0283203 -0.192383 -0.171875 0.0275879 -0.193359 -0.120117 0.103516 0.351562 -0.09375 -0.0668945 -0.133789 -0.445312 -0.18457 -0.0761719 0.00457764 0.194336 0.101074 0.0522461 0.154297 0.0407715 0.0153198 0.166016 0.0698242 0.197266 -0.0605469 0.373047 -0.0375977 -0.251953 0.294922 -0.0178223 0.0449219 -0.0480957 -0.0541992 -0.111328 -0.332031 -0.0478516 -0.128906 -0.193359 -0.157227 0.0600586 0.0258789 0.0170898 -0.0274658 -0.0483398 0.21582 -0.0957031 0.0532227 0.090332 -0.126953 -0.0368652 0.0317383 0.125977 -0.208008 0.133789 -0.0830078 -0.328125 -0.0412598 0.261719 0.135742 -0.0893555 -0.0336914 0.125977 -0.0712891 -0.0291748 -0.0593262 0.0617676 0.125977 0.0864258 -0.164062 0.0825195 0.00188446 0.211914 0.292969 0.0986328 0.0556641 0.198242 -0.0839844 0.102539 -0.041748 0.246094 -0.027832 -0.0981445 0.0688477 -0.183594 0.0922852 -0.265625 -0.0125122 -0.0612793 -0.0678711 -0.102539 0.027832 -0.074707 0.289062 -0.0864258 -0.188477 0.0688477 0.130859 -0.0800781 -0.447266 0.378906 -0.263672 0.164062 -0.11084 0.136719 -0.167969 -0.287109 0.208984 -0.125977 -0.275391 -0.0128784 0.201172 -0.291016 -0.10498 -0.1875 -0.271484 -0.219727 -0.148438 0.234375 -0.160156 -0.11377 -0.0605469 0.0791016 -0.21875 -0.0771484 -0.129883 -0.204102 -0.10791 -0.174805 0.00341797 0.119141 -0.121094 -0.15625 -0.133789 0.0126343 0.0072937 0.0125122 -0.108398 0.238281 -0.298828 -0.108398 -0.12207 0.0732422 0.181641 0.196289 0.308594 0.00296021 -0.113281 -0.0588379 0.163086 -0.116211 -0.101562 0.0349121 0.0244141 0.130859 0.177734 -0.170898 -0.120605 0.213867 0.013855 0.233398 0.0262451 -0.125 0.208008 -0.00854492 -0.0179443 -0.246094 0.0742188 0.0388184 -0.339844 0.106934 -0.0756836 -0.248047 -0.0717773 0.0996094 -0.0161133 -0.21875 -0.0196533 0.102051 0.160156 0.0446777 0.0898438 0.204102 0.117676 -0.249023 0.0495605 -0.263672 -0.234375 0.0551758 -0.00323486 -0.208984 -0.0500488 0.220703 -0.00141144 -0.0756836 -0.130859 -0.161133 0.00424194 -0.0957031 -0.140625 0.0952148 -0.0319824 -0.0098877 0.0864258 0.248047 -0.0299072 -0.151367 -0.0240479 -0.0393066 -0.120605 -0.294922 0.265625 -0.0488281 -0.267578 -0.0175781 0.0732422 0.00964355 -0.105469 0.0446777 0.0505371 -0.245117 0.0898438 -0.0524902 0.081543 -0.265625 0.106445 -0.302734 -0.181641 0.065918
abusing 0.0563965 0.113281 -0.100098 -0.287109 -0.192383 -0.036377 -0.171875 -0.0476074 -0.291016 0.339844 0.0603027 -0.351562 -0.0498047 0.386719 -0.429688 -0.0422363 -0.0112915 0.0693359 -0.00741577 -0.167969 0.198242 -0.318359 0.296875 0.0209961 0.239258 -0.196289 0.0429688 0.345703 0.208008 0.227539 0.237305 -0.103516 -0.149414 0.104004 0.384766 -0.255859 -0.0471191 -0.0395508 -0.0157471 0.208008 0.123535 -0.0422363 0.279297 -0.192383 0.00439453 -0.143555 0.129883 0.310547 -0.294922 -0.150391 -0.0463867 -0.00363159 0.0088501 0.185547 -0.0495605 -0.0356445 -0.202148 -0.176758 -0.097168 0.0164795 -0.214844 0.316406 0.283203 0.0922852 0.00390625 -0.0615234 0.0368652 0.257812 -0.0314941 0.000572205 -0.204102 0.231445 -0.275391 0.227539 0.242188 -0.0878906 0.146484 -0.118652 0.353516 0.130859 -0.125977 0.0437012 -0.107422 0.314453 0.111328 -0.119141 0.0441895 -0.0270996 0.0395508 -0.113281 0.0349121 -0.0223389 0.0766602 0.0072937 0.0849609 -0.0122681 0.494141 -0.18457 0.0274658 -0.15625 -0.128906 0.0712891 0.133789 0.162109 0.167969 0.0281982 -0.140625 0.103516 0.106934 0.121094 0.0810547 0.0576172 -0.353516 -0.205078 -0.197266 -0.203125 -0.128906 0.130859 -0.020752 0.151367 -0.0493164 0.0883789 0.0258789 -0.25 -0.21875 -0.296875 -0.229492 -0.0108643 0.222656 -0.357422 -0.00521851 -0.105957 -0.200195 -0.207031 -0.228516 -0.337891 0.205078 -0.0849609 -0.157227 0.175781 0.140625 -0.0310059 -0.458984 0.0222168 -0.0568848 0.0805664 -0.157227 -0.000522614 -0.152344 -0.166992 0.5 0.0231934 -0.0908203 0.0708008 0.0898438 0.227539 -0.269531 -0.296875 -0.0055542 0.0349121 0.0327148 0.271484 -0.0864258 -0.273438 -0.141602 0.253906 0.109863 -0.0678711 -0.175781 -0.125 -0.209961 0.160156 0.0776367 0.111328 -0.144531 -0.212891 0.216797 0.0303955 -0.150391 0.0654297 0.00778198 0.154297 -0.0791016 -0.108887 0.199219 -0.200195 -0.237305 -0.112793 -0.243164 0.0942383 0.139648 -0.0996094 0.423828 -0.208984 0.0991211 0.195312 0.0952148 -0.226562 0.0957031 0.0231934 -0.246094 0.135742 0.120117 -0.212891 -0.378906 0.28125 0.253906 0.201172 -0.233398 -0.0380859 0.109375 0.249023 0.246094 0.145508 0.289062 0.0732422 0.0593262 0.210938 -0.296875 -0.0927734 -0.078125 0.0722656 0.226562 0.120117 0.211914 0.019165 -0.197266 -0.0441895 -0.0327148 0.248047 -0.333984 -0.375 0.0319824 0.341797 -0.026001 -0.129883 0.209961 -0.488281 -0.0456543 -0.0264893 0.0123901 -0.197266 0.10791 -0.244141 -0.0947266 0.223633 -0.402344 0.000415802 0.12793 -0.34375 0.376953 0.0327148 0.0786133 0.138672 -0.0522461 0.161133 0.0390625 -0.0419922 -0.0644531 -0.074707 -0.12793 0.00689697 0.0444336 0.119141 -0.194336 0.103516 -0.078125 0.287109 -0.0432129 -0.0888672 0.0390625 0.0178223 0.0615234 0.168945 -0.0996094 -0.133789 -0.15625 0.0922852 -0.239258 -0.0532227 0.170898 0.130859 -0.0283203 0.5 -0.125 -0.0429688 -0.216797 -0.154297 0.492188 -0.0844727 0.261719 0.237305 0.0649414 0.235352 -0.380859 0.0878906 0.0130615 -0.0668945 -0.257812 0.246094
accompaniment 0.0062561 -0.320312 -0.244141 -0.0192871 -0.000278473 0.180664 0.228516 -0.0942383 0.0125732 0.273438 -0.249023 -0.103516 0.0625 0.108887 0.0103149 0.249023 0.279297 -0.137695 0.0473633 -0.566406 0.292969 0.386719 0.143555 -0.101562 -0.158203 -0.398438 -0.197266 -0.0559082 -0.519531 0.216797 -0.204102 -0.15625 -0.0712891 0.0712891 0.0561523 -0.0810547 -0.0463867 -0.0234375 0.0615234 -0.0952148 -0.0368652 0.150391 -0.138672 -0.0737305 0.244141 -0.322266 -0.251953 0.0200195 0.163086 0.0441895 -0.128906 -0.0169678 0.0223389 -0.0820312 0.231445 -0.0441895 -0.222656 -0.21875 -0.128906 -0.19043 -0.400391 -0.226562 0.0339355 -0.269531 0.0732422 0.0756836 -0.361328 -0.216797 0.0839844 0.161133 0.0212402 0.147461 0.154297 -0.0864258 -0.0383301 -0.141602 -0.139648 -0.304688 0.225586 -0.0888672 0.232422 0.09375 0.129883 0.0480957 -0.0488281 0.332031 -0.12207 0.129883 0.0471191 0.065918 -0.0888672 -0.214844 -0.00244141 0.316406 0.09375 -0.170898 0.074707 -0.0617676 -0.335938 -0.355469 -0.15332 0.269531 -0.0737305 0.222656 -0.410156 -0.111816 0.302734 0.0588379 -0.211914 -0.0625 -0.0598145 0.197266 0.243164 0.0114746 -0.12793 -0.150391 0.078125 0.1875 -0.0810547 0.186523 0.0534668 -0.162109 0.097168 -0.142578 0.0466309 0.078125 -0.10498 -0.0698242 0.246094 0.00382996 -0.239258 0.109863 -0.0952148 0.351562 0.0241699 0.371094 0.0864258 -0.220703 0.142578 0.146484 0.271484 -0.133789 -0.259766 0.228516 0.00282288 0.275391 0.199219 0.261719 -0.124023 0.371094 0.142578 0.0576172 0.078125 0.0480957 0.0147705 -0.382812 -0.141602 0.0234375 -0.273438 -0.198242 -0.202148 -0.0303955 0.296875 0.206055 -0.0864258 -0.179688 -0.00595093 -0.0267334 0.0385742 -0.172852 -0.236328 0.0629883 0.183594 -0.0480957 0.00665283 0.0128174 -0.119629 -0.249023 -0.160156 0.0683594 -0.0123291 -0.135742 0.1875 -0.229492 0.0776367 -0.0267334 0.0461426 -0.394531 0.0625 0.196289 -0.253906 -0.029541 -0.0113525 -0.408203 -0.0864258 0.124512 0.0322266 -0.119629 -0.0385742 -0.0198975 0.0546875 -0.0214844 -0.337891 0.00427246 0.237305 -0.120117 -0.022583 0.0324707 0.108398 -0.0218506 0.0123291 -0.0549316 -0.212891 -0.0299072 -0.178711 -0.180664 0.060791 0.141602 -0.232422 -0.12793 0.101562 0.115723 -0.0917969 -0.0742188 0.217773 0.213867 -0.0142212 -0.109375 0.203125 0.09375 -0.125977 -0.142578 -0.0834961 0.0913086 0.0771484 -0.169922 -0.104492 -0.125977 0.115723 -0.124023 -0.0839844 0.029541 -0.145508 0.10498 0.460938 -0.0693359 0.128906 0.0310059 -0.0378418 0.0166016 0.3125 -0.0568848 0.142578 -0.0471191 -0.027832 -0.19043 0.052002 -0.460938 -0.00202942 0.0120239 -0.15918 0.239258 0.0361328 -0.310547 -0.212891 -0.0140991 -0.302734 0.0275879 -0.341797 0.097168 -0.0300293 -0.371094 -0.0349121 0.238281 0.116699 -0.090332 -0.28125 0.097168 -0.0412598 0.0942383 0.101562 -0.259766 0.0134277 -0.0218506 -0.217773 0.0947266 0.132812 -0.103027 0.0800781 0.34375 -0.118652 -0.0500488 -0.0722656 -0.0422363 0.28125 0.178711 0.0839844 -0.398438 0.161133 0.255859
accomplishment 0.0512695 0.0751953 0.0732422 0.0327148 0.227539 -0.236328 0.0473633 -0.131836 0.34375 0.367188 -0.193359 -0.259766 0.347656 0.0106812 0.0351562 0.223633 0.161133 0.109375 0.0810547 -0.196289 -0.205078 0.233398 -0.128906 -0.0864258 0.220703 -0.131836 0.0439453 -0.185547 -0.447266 0.141602 0.0405273 -0.166992 0.3125 -0.126953 0.433594 -0.0981445 0.197266 0.0668945 0.192383 0.0625 0.183594 0.206055 -0.046875 0.283203 -0.0849609 -0.141602 -0.149414 0.18457 -0.118164 -0.0240479 -0.145508 0.0233154 0.0698242 0.123535 0.300781 0.199219 0.0976562 0.0148315 0.0140991 -0.108398 0.0795898 0.0776367 0.0678711 -0.425781 -0.0952148 0.130859 -0.128906 -0.0483398 -0.322266 -0.182617 -0.166016 -0.226562 -0.201172 -0.0991211 0.243164 -0.136719 0.298828 0.151367 0.0805664 0.174805 -0.233398 -0.074707 -0.00500488 0.213867 0.0957031 -0.160156 0.0170898 0.0144043 0.0751953 -0.0595703 0.0471191 -0.172852 0.0174561 0.124512 0.12793 0.00389099 0.0961914 0.453125 0.0498047 -0.167969 -0.15918 0.0639648 -0.0198975 0.019165 0.103516 0.090332 0.00408936 -0.21875 -0.101562 0.0712891 -0.0952148 0.0878906 -0.0120239 0.108398 -0.0441895 0.238281 -0.136719 0.0932617 -0.200195 -0.203125 -0.273438 -0.0169678 0.211914 -0.0830078 -0.192383 -0.0439453 0.162109 0.120117 0.125977 0.394531 -0.137695 -0.00396729 0.151367 0.21875 -0.104004 0.306641 -0.104492 0.192383 -0.291016 0.0976562 -0.0810547 -0.117188 -0.191406 -0.147461 -0.0148926 0.103027 -0.175781 -0.112305 -0.0230713 -0.269531 0.113281 0.324219 -0.253906 0.25 0.111816 -0.0133057 0.0110474 -0.129883 -0.231445 -0.279297 -0.0488281 -0.0478516 0.121582 0.259766 -0.00653076 -0.447266 -0.138672 -0.12207 -0.0324707 0.601562 0.11084 -0.214844 -0.0776367 -0.265625 -0.186523 0.0563965 -0.0280762 -0.124023 0.0317383 -0.100098 -0.455078 -0.0125122 -0.0133057 -0.188477 -0.106934 -0.0305176 -0.0874023 0.0205078 -0.150391 0.236328 0.0371094 -0.0957031 -0.00454712 -0.119629 -0.277344 -0.078125 0.177734 0.357422 0.0727539 -0.169922 0.00921631 0.224609 0.029541 0.0247803 -0.176758 -0.115723 -0.310547 -0.117676 -0.0908203 0.117188 -0.0559082 0.161133 -0.302734 0.147461 -0.206055 0.200195 0.0233154 0.152344 0.0493164 0.103516 -0.100586 0.0898438 -0.132812 0.0303955 0.043457 -0.11377 0.124023 -0.107422 0.0512695 0.114258 0.0551758 0.199219 -0.166992 -0.0683594 -0.0908203 -0.0883789 -0.123535 -0.0800781 -0.0693359 -0.0703125 -0.0444336 -0.178711 -0.0300293 -0.25 0.0649414 0.0302734 -0.00704956 -0.209961 -0.117676 -0.140625 -0.199219 -0.135742 0.0151978 0.0712891 0.11377 0.188477 0.292969 -0.122559 -0.249023 -0.144531 0.148438 -0.0559082 -0.0649414 0.0664062 0.182617 0.324219 0.40625 -0.162109 -0.201172 -0.219727 -0.0629883 -0.141602 0.253906 0.144531 -0.0141602 -0.111816 0.0673828 -0.231445 -0.0571289 -0.310547 0.248047 -0.100586 -0.0279541 0.208984 -0.378906 0.0257568 -0.231445 -0.0986328 -0.0874023 -0.0366211 -0.269531 -0.0795898 -0.324219 -0.287109 -0.300781 0.0986328 -0.0253906 0.238281 -0.0927734 -0.118652
accoutrements 0.228516 0.192383 -0.152344 0.292969 -0.019165 -0.0766602 0.124023 -0.0490723 -0.216797 -0.00741577 -0.10791 -0.371094 0.00463867 0.298828 -0.0280762 0.144531 0.00106812 -0.0427246 0.1875 -0.128906 0.0751953 -0.206055 -0.0791016 0.160156 -0.0668945 0.172852 -0.318359 0.376953 -0.160156 -0.320312 0.34375 -0.0849609 0.18457 0.472656 0.0402832 -0.169922 0.208008 -0.15625 0.0498047 -0.118164 0.0224609 0.152344 0.0186768 0.111816 0.115234 -0.12793 -0.158203 0.18457 0.034668 -0.00860596 -0.242188 0.0668945 0.132812 -0.255859 -0.00267029 0.0274658 -0.22168 -0.249023 -0.0888672 -0.191406 -0.208984 0.0267334 0.0375977 -0.279297 0.0187988 0.090332 -0.361328 0.0629883 -0.398438 0.310547 0.523438 0.117188 -0.121094 0.271484 -0.012207 -0.157227 -0.119629 -0.101562 -0.0629883 -0.222656 0.125977 -0.0600586 -0.134766 0.129883 -0.224609 0.0222168 0.126953 0.373047 0.0947266 0.0795898 -0.0515137 -0.238281 0.000797272 -0.0123291 0.241211 -0.081543 0.0756836 -0.0751953 -0.0373535 -0.164062 0.0825195 0.263672 0.228516 0.0439453 -0.00546265 -0.0966797 0.12207 0.206055 -0.0402832 -0.163086 0.0566406 0.15918 0.227539 0.169922 -0.111328 -0.108887 0.226562 0.188477 -0.0756836 0.104004 -0.0131226 0.000237465 0.0272217 -0.145508 0.192383 0.198242 0.0149536 0.027832 0.189453 0.118164 -0.122559 0.255859 0.140625 0.351562 -0.0805664 0.554688 0.105469 -0.0161133 -0.0168457 -0.078125 0.131836 -0.137695 -0.186523 0.0996094 0.474609 0.0834961 0.135742 0.141602 -0.168945 0.169922 -0.186523 0.294922 -0.0874023 -0.0228271 -0.230469 -0.0898438 -0.298828 -0.0981445 -0.152344 -0.181641 0.135742 -0.145508 -0.0693359 0.255859 -0.417969 -0.241211 -0.0252686 -0.0703125 -0.257812 0.0603027 -0.129883 0.174805 0.0559082 -0.0334473 -0.108398 0.121094 4.88758e-05 -0.304688 -0.0385742 -0.0898438 -0.0991211 0.0966797 -0.15332 -0.0976562 -0.21582 -0.140625 0.202148 -0.542969 0.177734 -0.0529785 -0.0280762 0.0927734 -0.292969 0.235352 -0.171875 0.10498 -0.279297 -0.0537109 -0.138672 -0.170898 -0.0488281 0.0761719 -0.285156 0.195312 -0.118652 0.0756836 0.0664062 -0.298828 0.00494385 0.00726318 -0.106934 0.0336914 -0.168945 0.0917969 -0.103516 0.123047 0.0603027 0.316406 -0.0800781 -0.120117 0.032959 0.0390625 0.143555 0.212891 0.0114136 0.0349121 -0.0327148 -0.194336 0.0424805 -0.15625 0.0281982 -0.103027 -0.026123 -0.0917969 0.144531 0.0957031 -0.0478516 0.00576782 0.245117 -0.204102 0.0742188 -0.0966797 -0.00854492 0.0281982 -0.0883789 -0.00799561 0.0561523 -0.0358887 0.185547 0.109375 0.0378418 0.378906 0.141602 0.00817871 -0.271484 -0.081543 0.0612793 -0.292969 -0.0544434 0.123047 0.292969 -0.0800781 -0.259766 0.0214844 0.131836 0.269531 -0.126953 -0.123047 0.149414 0.161133 -0.0830078 0.183594 0.269531 0.00933838 0.0849609 -0.119141 0.0488281 0.00463867 -0.167969 0.316406 0.0708008 -0.259766 0.129883 0.121582 -0.0140381 0.216797 -0.00479126 -0.155273 -0.0144653 -0.0532227 -0.285156 -0.0446777 -0.0351562 -0.0673828 -0.00131989 -0.219727 0.380859 -0.378906 0.168945 0.207031
accuracy 0.0991211 -0.129883 0.00297546 -0.10791 0.124512 0.182617 0.0703125 0.0419922 0.326172 0.427734 -0.219727 -0.326172 0.261719 0.236328 -0.013916 -0.0446777 0.105469 -0.130859 0.0986328 -0.462891 -0.310547 -0.332031 -0.367188 0.447266 -0.177734 -0.179688 -0.347656 -0.134766 -0.0805664 -0.0549316 -0.151367 -0.186523 -0.0576172 0.0756836 -0.291016 0.213867 -0.224609 0.0130005 0.396484 0.059082 0.143555 -0.0849609 -0.234375 0.00549316 -0.0437012 -0.179688 -0.203125 -0.10791 -0.117188 -0.00689697 -0.318359 0.166016 0.0264893 -0.226562 -0.0683594 0.507812 0.233398 -0.139648 -0.0383301 0.0566406 0.416016 -0.0800781 -0.425781 -0.287109 0.283203 0.216797 0.0795898 -0.226562 0.108887 0.243164 0.131836 -0.152344 0.251953 -0.279297 -0.322266 -0.060791 0.0427246 0.0625 0.28125 0.227539 -0.0664062 0.173828 0.108887 -0.138672 0.355469 0.0517578 0.117676 0.117188 0.0917969 -0.00915527 0.234375 -0.0222168 0.0673828 -0.251953 0.294922 -0.0859375 -0.0181885 -0.123047 0.115723 0.120117 0.412109 0.0356445 0.119629 -0.21582 0.02771 0.0035553 -0.333984 0.332031 0.0339355 -0.255859 0.208984 0.208984 -0.0275879 0.550781 -0.0654297 0.121582 -0.0864258 -0.275391 -0.169922 -0.275391 -0.585938 0.245117 0.148438 0.117188 0.208984 0.300781 -0.255859 -0.0446777 -0.0371094 -0.107422 -0.21875 0.000329971 -0.652344 -0.0412598 0.0222168 -0.0322266 0.371094 -0.251953 0.24707 0.124023 -0.143555 -0.197266 -0.161133 0.291016 -0.15625 0.097168 0.211914 0.130859 -0.00170135 0.330078 -0.208008 0.172852 -0.146484 -0.107422 0.166992 -0.00466919 0.0358887 -0.10791 -0.101562 0.0201416 -0.0966797 -0.00308228 0.351562 0.255859 -0.0162354 -0.112305 0.0458984 -0.0683594 0.114746 0.0187988 0.380859 -0.0415039 -0.0517578 -0.0240479 -0.162109 -0.115234 -0.0991211 -0.351562 -0.0742188 -0.195312 -0.243164 -0.00289917 0.318359 -0.249023 0.0698242 -0.423828 -0.0854492 -0.176758 -0.0908203 0.078125 0.145508 0.11377 -0.211914 -0.277344 -0.196289 -0.0751953 0.367188 -0.0898438 0.206055 -0.0554199 -0.0383301 0.149414 -0.15332 0.283203 -0.152344 0.0825195 0.103516 -0.137695 0.208008 -0.176758 0.112305 -0.211914 0.0131836 0.192383 -0.298828 -0.347656 0.0119019 -0.0561523 -0.429688 -0.257812 -0.101074 -0.119141 -0.255859 -0.180664 -0.0244141 0.0825195 0.150391 0.0800781 0.0708008 -0.207031 0.0620117 0.065918 0.194336 0.104004 -0.19043 0.162109 -0.298828 -0.052002 -0.0522461 0.0849609 0.0449219 -0.220703 0.0893555 -0.279297 -0.019043 0.185547 -0.0441895 0.294922 -0.229492 0.0654297 -0.0771484 -0.125977 -0.148438 0.0874023 0.222656 -0.182617 0.535156 -0.144531 -0.0373535 -0.000617981 0.0942383 0.119629 -0.0942383 -0.111816 0.0336914 0.1875 0.404297 -0.53125 0.203125 -0.289062 -0.0617676 0.0478516 -0.0649414 -0.236328 -0.0234375 -0.283203 -0.0358887 -0.287109 0.164062 0.222656 -0.236328 0.202148 0.283203 0.024292 -0.172852 -0.132812 -0.111328 0.12793 -0.197266 -0.111816 0.0368652 0.21875 -0.132812 0.0668945 -0.078125 0.15918 -0.122559 -0.0991211 -0.402344 -0.00130463
activity 0.0683594 -0.0795898 0.129883 0.283203 -0.0629883 -0.209961 -0.222656 -0.0407715 0.0898438 -0.0541992 0.0874023 -0.119629 -0.194336 0.00260925 0.0164795 -0.00364685 -0.240234 -0.0712891 0.251953 -0.400391 -0.0349121 -0.283203 -0.496094 0.287109 -0.164062 -0.0224609 -0.15625 0.246094 -0.15625 0.10498 0.140625 -0.539062 0.151367 -0.0629883 0.0344238 0.112305 -0.0849609 -0.0727539 0.188477 0.0922852 -0.0117188 0.101562 0.0427246 0.0390625 -0.0559082 0.00744629 -0.0375977 -0.111328 -0.180664 -0.0198975 0.230469 -0.129883 0.0603027 0.124512 0.355469 -0.00411987 0.0410156 -0.208008 -0.0722656 -0.0517578 -0.261719 -0.074707 -0.271484 -0.00588989 -0.349609 0.0844727 -0.145508 -0.0322266 -0.123535 0.104492 0.107422 -0.206055 0.257812 0.302734 0.132812 -0.181641 0.199219 -0.229492 0.195312 0.120605 -0.0397949 -0.03125 0.204102 -0.0388184 0.0737305 -0.0541992 -0.119141 0.396484 -0.148438 0.0378418 -0.00738525 -0.277344 -0.0756836 -0.202148 0.160156 0.10791 0.285156 0.11377 0.0390625 0.00933838 0.15332 -0.21875 0.029541 -0.0116577 0.170898 -0.189453 -0.134766 0.122559 -0.117188 -0.11377 -0.110352 -0.0612793 0.112305 -0.126953 -0.0996094 -0.0825195 0.15332 0.165039 0.0825195 -0.0888672 -0.166016 0.0432129 0.120605 0.15332 -0.0898438 0.137695 -0.102539 0.102051 -0.0422363 0.326172 -0.170898 -0.104004 0.322266 -0.166016 0.00105286 -0.140625 0.369141 0.0942383 -0.144531 -0.112305 0.0742188 -0.0712891 -0.0766602 0.195312 -0.0961914 -0.188477 0.15332 0.137695 -0.203125 -0.259766 0.00921631 -0.142578 -0.125977 0.253906 -0.0566406 0.117188 0.0205078 -0.160156 0.15625 -0.125977 0.147461 0.200195 -0.161133 0.0717773 -0.15625 -0.0864258 0.0927734 -0.18457 0.195312 0.233398 -0.388672 -0.0109863 -0.0189209 0.0688477 0.0383301 0.194336 0.0266113 0.0825195 0.265625 0.0103149 -0.097168 -0.228516 -0.0383301 -0.119141 0.0844727 -0.0722656 -0.0510254 0.115723 0.1875 0.155273 -0.185547 -0.176758 -0.0366211 0.138672 -0.119141 -0.00970459 -0.0825195 0.0427246 -0.00915527 -0.240234 0.0742188 0.176758 -0.349609 -0.351562 0.12793 -0.0737305 0.0429688 0.0644531 0.065918 0.0224609 0.00765991 -0.0844727 -0.431641 0.267578 -0.139648 0.0296631 0.00424194 0.109375 -0.0473633 0.0319824 0.204102 -0.0255127 -0.0776367 -0.00823975 -0.194336 0.147461 0.188477 0.0405273 0.137695 0.139648 0.0830078 0.0288086 -0.0354004 -0.166992 0.00143433 -0.207031 0.101562 0.0864258 0.328125 -0.170898 0.102051 0.00915527 0.10498 0.0319824 0.0432129 -0.154297 0.0834961 -0.000423431 0.165039 -0.0634766 0.119141 -0.0571289 -0.0869141 0.0698242 0.0145874 0.213867 0.229492 -0.28125 0.0649414 -0.160156 -0.0108643 -0.294922 0.00552368 0.00637817 -0.306641 0.194336 -0.188477 0.230469 -0.11084 0.0230713 0.00379944 0.171875 0.208008 -0.0810547 -0.217773 -0.490234 -0.145508 0.0202637 -0.0227051 0.0415039 -0.0344238 0.0742188 0.0976562 0.0839844 0.181641 -0.0220947 0.036377 -0.0834961 0.10498 0.0820312 -0.271484 -0.00582886 0.361328 -0.128906 0.223633 0.0825195 0.120117 0.00662231 0.109375 -0.0339355
addiction 0.00286865 -0.180664 -0.378906 0.255859 -0.149414 0.380859 0.1875 -0.0439453 -0.141602 -0.0737305 -0.192383 -0.165039 0.147461 0.0142822 0.0148315 0.253906 0.349609 0.114258 0.578125 0.0291748 0.078125 -0.142578 0.355469 0.125977 -0.141602 -0.149414 -0.0186768 0.170898 0.170898 0.000766754 -0.022583 0.00588989 -0.227539 0.100586 -0.229492 -0.0537109 -0.349609 -0.335938 -0.116699 0.0722656 0.320312 -0.0539551 0.0177002 -0.186523 0.109863 0.0625 0.152344 0.18457 -0.236328 0.194336 -0.132812 0.232422 -0.246094 -0.145508 0.441406 -0.0703125 -0.341797 0.0341797 -0.12793 -0.445312 0.0180664 0.585938 0.135742 0.165039 0.032959 -0.0854492 0.0800781 0.0805664 0.0756836 0.0805664 -0.0351562 -0.106934 -0.0192871 0.0908203 0.0407715 -0.0976562 0.0625 0.408203 0.036377 0.0078125 -0.269531 -0.141602 -0.219727 -0.314453 0.135742 0.263672 -0.0274658 0.466797 -0.0395508 -0.53125 0.0507812 -0.0664062 0.129883 0.00393677 -0.081543 -0.125 0.0966797 -0.337891 0.208984 0.129883 0.220703 0.291016 0.132812 -0.230469 0.394531 -0.194336 -0.296875 -0.108398 0.287109 -0.0253906 -0.108887 -0.161133 0.0158691 -0.000495911 0.214844 0.125977 0.123047 -0.110352 0.132812 0.320312 -0.101074 0.0371094 -0.15332 0.186523 -0.121582 -0.527344 -0.0703125 -0.0103149 0.285156 0.211914 -0.0301514 -0.214844 -0.097168 0.182617 -0.00643921 0.0488281 0.0678711 0.0678711 -0.0527344 0.287109 0.149414 -0.157227 -0.34375 0.242188 0.048584 -0.0703125 -0.0366211 -0.00982666 -0.382812 -0.212891 0.398438 0.0717773 0.261719 -0.0284424 -0.111328 -0.146484 0.15332 -0.162109 0.0664062 -0.478516 0.316406 0.263672 -0.308594 0.0805664 -0.121094 -0.0849609 -0.164062 -0.0311279 0.0595703 -0.15332 0.462891 0.0449219 -0.0349121 -0.21582 -0.0795898 -0.165039 -0.0441895 -0.202148 -0.0922852 0.235352 0.065918 -0.0800781 0.020874 0.179688 0.114746 -0.118652 -0.455078 0.078125 -0.233398 0.0512695 0.0708008 -0.100586 0.183594 -0.476562 -0.255859 0.145508 -0.0683594 -0.0517578 -0.0668945 -0.0966797 0.223633 0.15918 -0.0644531 -0.106445 0.138672 0.243164 0.124512 -0.0415039 -0.0296631 0.275391 -0.40625 -0.0283203 -0.180664 -0.168945 0.141602 0.146484 -0.0100098 0.130859 -0.125 -0.310547 -0.462891 -0.150391 0.109375 0.128906 -0.0563965 -0.417969 -0.0844727 -0.392578 -0.0322266 0.157227 -0.032959 -0.0302734 -0.0756836 -0.386719 0.0267334 -0.253906 0.195312 0.123535 0.0289307 -0.0786133 0.177734 -0.53125 -0.157227 -0.166016 0.125977 0.296875 0.0517578 0.246094 0.237305 -0.363281 -0.112305 -0.0534668 0.332031 0.155273 -0.124023 0.09375 -0.126953 -0.376953 -0.0019989 0.107422 -0.0913086 -0.214844 0.25 0.143555 -0.19043 0.0869141 0.0458984 0.00915527 -0.0825195 0.1875 -0.12793 0.0281982 0.145508 0.0303955 -0.0966797 0.108398 -0.0961914 -0.0270996 -0.550781 -0.0942383 0.0192871 -0.244141 0.134766 -0.0405273 -0.357422 -0.318359 -0.267578 -0.108887 0.324219 0.206055 0.191406 0.00756836 -0.108398 -0.118652 -0.169922 -0.112305 0.103516 0.0922852 -0.208984 0.0480957
adducing -0.048584 0.175781 0.0541992 -0.0115356 -0.105957 -0.124023 0.373047 0.0737305 0.0563965 0.239258 -0.0664062 0.0898438 -0.125977 0.205078 -0.182617 0.326172 0.11084 -0.147461 -0.12207 0.00805664 0.0444336 -0.224609 0.139648 0.00299072 0.0629883 -0.341797 -0.00976562 0.0098877 -0.0478516 0.225586 -0.0703125 -0.217773 0.0354004 0.118164 -0.123535 0.020874 -0.0267334 0.145508 0.0854492 -0.168945 0.0250244 0.0527344 0.0961914 -0.101562 -0.0371094 -0.267578 -0.106934 -0.013855 -0.216797 0.0196533 0.0114136 -0.0551758 -0.186523 -0.113281 -0.0605469 0.265625 -0.0708008 -0.197266 0.0236816 -0.240234 0.208008 0.078125 0.102051 -0.205078 -0.060791 -0.0791016 -0.0339355 0.0761719 0.013916 -0.126953 0.105469 -0.00254822 0.0932617 0.0308838 -0.0664062 -0.0795898 -0.0625 -0.0913086 0.126953 0.123047 -0.196289 0.121582 -0.00314331 -0.188477 -0.0522461 -0.133789 0.125977 0.19043 -0.115234 0.110352 0.0344238 0.0737305 -0.0634766 -0.0375977 0.199219 0.0153198 0.167969 0.109375 0.273438 -0.0839844 -0.0869141 0.0354004 0.308594 -0.0317383 -0.0349121 0.134766 0.0585938 0.0708008 0.0432129 -0.0566406 0.00720215 -0.0169678 -0.120605 0.208984 0.100098 0.00205994 0.0649414 0.0410156 0.191406 -0.0202637 0.0319824 0.214844 -0.0612793 -0.0664062 -0.0927734 0.139648 -0.041748 -0.0874023 -0.333984 -0.0622559 0.0615234 -0.0515137 -0.137695 -0.116211 0.135742 -0.0898438 0.0756836 -0.198242 0.0932617 0.0561523 0.193359 -0.0268555 0.0603027 0.0605469 -0.177734 0.171875 -0.167969 0.114258 0.0844727 0.244141 0.0189209 -0.183594 0.118164 -0.0991211 0.105957 -0.163086 0.0693359 0.0148315 -0.0603027 0.0693359 -0.15332 -0.180664 0.0179443 -0.0539551 -0.217773 -0.100098 0.149414 -0.0339355 -0.192383 0.152344 -0.03125 -0.0522461 -0.0280762 -0.0106201 -0.0559082 -0.206055 0.0264893 -0.392578 0.0839844 -0.238281 0.0385742 -0.0136719 -0.175781 -0.19043 0.0332031 0.128906 -0.212891 -0.144531 0.0927734 -0.0544434 -0.129883 0.0252686 0.0151367 0.0115967 0.139648 -0.0693359 -0.125 -0.140625 0.0849609 -0.0839844 0.00515747 0.198242 0.0123291 -0.0380859 0.19043 0.0942383 0.198242 -0.0795898 -0.00069809 -0.0239258 -0.0854492 0.0961914 0.0179443 -0.165039 -0.0285645 0.0620117 0.0839844 0.0478516 -0.0334473 -0.139648 0.0299072 0.123047 -0.0610352 0.291016 -0.117188 0.0351562 -0.0128174 -0.0566406 0.139648 0.195312 -0.0146484 0.0151978 0.0334473 0.138672 0.0332031 -0.0251465 0.328125 0.101074 -0.126953 -0.168945 0.0167236 -0.0952148 0.013855 -0.0512695 0.0561523 0.11377 -0.148438 0.202148 -0.11377 0.168945 0.300781 0.0444336 -0.0649414 0.136719 0.0554199 -0.0529785 0.0378418 -0.0756836 0.0566406 0.0285645 -0.045166 0.0289307 0.0800781 -0.0100708 0.0893555 0.402344 0.078125 -0.0184326 -0.0600586 -0.130859 -0.172852 0.0186768 0.0874023 0.0932617 0.24707 -0.0693359 -0.0810547 -0.333984 0.0849609 0.275391 -0.0595703 -0.0524902 0.0795898 -0.0717773 0.0537109 -0.0373535 -0.0693359 0.0610352 0.1875 0.0410156 -0.182617 0.0766602 0.00273132 0.0874023 0.0307617 0.0366211 0.138672 -0.0673828 -0.0515137 0.171875
adjacency -0.152344 -0.0163574 -0.0678711 0.263672 -0.15625 0.169922 -0.193359 0.0751953 0.050293 0.201172 -0.186523 -0.263672 0.0244141 -0.0393066 -0.0693359 -0.177734 -0.0581055 0.0407715 -0.0644531 0.0800781 -0.106445 0.0473633 -0.375 0.212891 -0.0908203 -0.0952148 0.0151978 0.259766 -0.15625 -0.0961914 -0.03125 -0.223633 -0.255859 0.15332 -0.0991211 -0.0405273 0.185547 0.146484 0.292969 -0.19043 0.101074 0.0419922 -0.0114746 0.101074 -0.223633 -0.425781 0.0612793 -0.0761719 -0.0112915 -0.0541992 -0.183594 -0.0722656 -0.353516 -0.139648 -0.109375 -0.081543 0.236328 0.0148926 0.320312 0.158203 -0.134766 0.129883 -0.212891 -0.283203 -0.231445 -0.213867 -0.21582 0.114258 -0.212891 -0.263672 0.185547 -0.112305 0.189453 -0.219727 -0.332031 -0.236328 0.0344238 -0.136719 0.111328 0.078125 -0.206055 0.242188 0.359375 0.0146484 -0.0324707 -0.0571289 0.239258 0.173828 0.109863 -0.169922 0.0314941 -0.365234 -0.294922 0.34375 0.0202637 0.253906 -0.0446777 -0.0761719 -0.0444336 0.162109 0.0761719 0.0908203 0.0146484 0.0336914 0.0683594 -0.0373535 0.0209961 0.133789 -0.225586 -0.154297 -0.365234 -0.101562 0.102539 -0.195312 0.19043 0.138672 0.114746 -0.174805 -0.00708008 -0.0732422 -0.0952148 -0.166992 -0.267578 0.160156 -0.180664 0.137695 0.0795898 0.294922 0.289062 -0.0820312 -0.00805664 0.0395508 -0.057373 -0.0581055 0.200195 -0.034668 0.0622559 -0.0422363 0.165039 0.166992 0.249023 -0.00909424 0.128906 0.0307617 0.0115967 -0.130859 -0.0612793 0.257812 -0.142578 0.133789 -0.112305 0.339844 0.0490723 -0.0859375 -0.123535 -0.208984 0.0761719 0.0257568 -0.171875 0.0712891 -0.412109 -0.271484 -0.122559 -0.124512 -0.182617 0.12207 0.103027 -0.03125 -0.0250244 0.265625 -0.0272217 -0.0512695 0.109375 -0.126953 0.0703125 0.251953 0.154297 -0.433594 0.057373 0.0273438 0.0634766 -0.253906 -0.128906 0.0185547 0.126953 0.0197754 0.0375977 0.291016 0.0893555 0.161133 -0.273438 -0.308594 0.226562 -0.0854492 -0.060791 0.227539 -0.00375366 -0.158203 0.0966797 -0.154297 0.142578 0.0776367 0.110352 -0.108887 0.110352 -0.0883789 -0.0874023 -0.144531 -0.0581055 0.219727 -0.236328 -0.105469 -0.386719 0.0568848 -0.0106201 -0.0441895 0.197266 0.144531 -0.0639648 0.202148 0.0218506 0.207031 -0.0698242 -0.227539 -0.265625 -0.169922 0.238281 0.0776367 0.131836 -0.0194092 -0.292969 0.126953 -0.0717773 -0.0554199 -0.00253296 -0.146484 -0.0585938 0.0844727 0.28125 0.00640869 0.21875 0.107422 0.0108643 -0.0039978 0.0375977 0.0800781 -0.118164 0.416016 -0.171875 -0.141602 -0.166992 0.00799561 -0.271484 0.109375 -0.0664062 -0.0517578 -0.0559082 -0.0209961 -0.322266 0.0241699 0.0617676 -0.161133 0.185547 0.203125 0.265625 0.0349121 -0.0820312 -0.296875 -0.24707 -0.289062 -0.28125 -0.0294189 -0.21875 -0.0727539 -0.0234375 -0.171875 -0.0373535 -0.0383301 0.00118256 0.0952148 -0.179688 0.0279541 0.213867 0.22168 0.138672 0.097168 -0.209961 -0.102051 -0.148438 -0.239258 0.00436401 0.181641 -0.160156 -0.057373 0.144531 0.0463867 0.238281 0.0148315 -0.0588379 0.11084
adjusting -0.225586 0.384766 -0.275391 0.10498 -0.194336 0.0371094 -0.136719 -0.115723 0.0305176 -0.0617676 0.292969 -0.166992 -0.111816 -0.0178223 -0.100586 -0.116699 -0.0957031 0.207031 0.133789 -0.283203 -0.155273 0.145508 -0.292969 -0.0510254 0.11377 0.300781 -0.210938 0.0415039 -0.0791016 0.3125 -0.185547 -0.111328 0.0932617 -0.022583 0.09375 -0.12793 0.0341797 -0.191406 0.21582 0.135742 0.285156 -0.169922 0.209961 -0.0581055 0.00389099 -0.183594 0.101562 0.224609 0.15625 -0.0703125 -0.308594 -0.189453 -0.279297 -0.189453 -0.154297 0.170898 -0.097168 -0.100586 0.149414 -0.165039 -0.273438 0.257812 -0.161133 -0.135742 0.574219 0.236328 -0.152344 -0.0800781 -0.0196533 0.0932617 0.100586 0.0722656 -0.105957 -0.0668945 -0.279297 -0.107422 0.332031 0.0151978 -0.141602 0.0344238 0.188477 -0.0162354 -0.0703125 0.492188 0.0649414 -0.121094 -0.167969 0.205078 0.108398 0.165039 0.164062 -0.0269775 0.0625 0.0683594 -0.145508 0.032959 0.109863 -0.296875 -0.0291748 -0.105957 -0.126953 -0.15918 0.081543 -0.065918 0.0163574 -0.0463867 0.078125 -0.065918 -0.0158691 -0.175781 -0.0864258 -0.0139771 -0.3125 0.0402832 -0.0402832 0.165039 0.189453 0.112793 -0.0898438 -0.0888672 -0.263672 0.210938 0.0201416 -0.0103149 -0.00457764 0.12793 -0.214844 0.0128784 -0.143555 0.0942383 0.287109 -0.188477 -0.416016 0.105469 -0.131836 0.117676 -0.017334 0.188477 0.0310059 0.109863 0.019043 0.0432129 -0.318359 0.181641 0.0688477 0.0883789 0.0864258 -0.111328 -0.029541 0.11377 -0.116699 0.0703125 -0.136719 -0.0551758 0.0522461 0.19043 -0.235352 0.00294495 0.0756836 0.0854492 0.199219 0.18457 0.231445 -0.141602 -0.271484 0.142578 0.0490723 0.0795898 0.185547 0.0351562 -0.19043 -0.0961914 -0.090332 0.267578 0.0556641 0.326172 0.267578 -0.0529785 -0.0366211 0.0175781 0.090332 -0.0219727 0.162109 0.131836 -0.0380859 -0.15332 -0.273438 0.0383301 -0.00640869 -0.137695 0.0942383 0.0249023 -0.0878906 0.0235596 -0.175781 0.175781 -0.113281 -0.210938 0.119629 -0.21582 0.0644531 0.0289307 0.0522461 -0.208984 0.167969 -0.19043 -0.304688 -0.166992 0.119629 0.0634766 0.138672 0.267578 0.0125732 -0.0532227 -0.100586 -0.104492 0.132812 0.032959 -0.0439453 -0.283203 -0.0507812 0.116699 -0.148438 -0.234375 -0.316406 -0.0668945 -0.182617 -0.00386047 -0.222656 0.339844 0.0150146 0.139648 -0.00915527 -0.0183105 0.205078 -0.0625 -0.0515137 -0.455078 -0.396484 0.194336 -0.0534668 -0.0488281 -0.15918 -0.238281 -0.0456543 -0.0854492 -0.515625 0.032959 -0.0756836 -0.283203 -0.0202637 0.137695 -0.0908203 -0.0874023 6.1512e-05 -0.0356445 0.0986328 -0.0583496 0.109863 0.257812 0.0698242 -0.0544434 0.0693359 0.0603027 0.102539 0.0334473 0.333984 -0.115234 0.0197754 -0.00466919 -0.206055 0.194336 0.163086 -0.300781 0.0834961 0.0244141 -0.265625 0.0559082 0.117188 -0.0212402 0.166992 -0.0317383 -0.135742 -0.0864258 0.322266 0.0727539 -0.0114136 0.208008 0.25 -0.0742188 -0.316406 0.259766 0.0603027 -0.101562 -0.142578 0.150391 0.116211 0.213867 0.149414 0.10498
aesthetics 0.165039 0.177734 0.171875 -0.0483398 -0.158203 0.186523 0.328125 -0.205078 0.0368652 0.161133 -0.367188 -0.277344 0.186523 0.0128784 0.191406 -0.0180664 0.196289 0.108398 0.0174561 -0.000396729 -0.126953 -0.0112915 -0.328125 0.090332 -0.314453 -0.116211 0.00457764 0.0795898 -0.143555 -0.369141 -0.00250244 0.106934 -0.0441895 0.0429688 0.216797 -0.223633 0.332031 0.0285645 0.208008 -0.121582 -0.0766602 0.0810547 -0.0598145 0.237305 -0.189453 -0.110352 0.106934 0.100098 0.283203 -0.0588379 -0.0839844 0.205078 -0.029541 -0.25 0.333984 0.296875 -0.149414 0.0529785 0.198242 -0.129883 0.204102 -0.00320435 -0.0090332 -0.328125 -0.00588989 -0.0761719 -0.167969 0.277344 -0.0378418 0.202148 0.0932617 -0.0771484 0.0437012 -0.133789 -0.332031 -0.257812 -0.0942383 -0.106934 -0.0383301 0.273438 -0.116699 -0.00891113 -0.104492 0.207031 -0.0673828 0.0112305 0.0393066 0.335938 0.019165 0.0288086 0.109375 -0.126953 -0.173828 0.119629 -0.150391 0.0189209 -0.373047 -0.180664 -0.237305 0.210938 0.116699 0.298828 0.0341797 -0.0649414 0.345703 0.0432129 -0.0419922 -0.0371094 -0.243164 -0.263672 -0.206055 0.24707 0.162109 0.121582 0.205078 -0.330078 -0.0524902 -0.359375 -0.155273 0.132812 -0.212891 0.112793 -0.231445 0.166016 0.0942383 0.203125 -0.292969 0.10498 0.0932617 0.019043 -0.105469 -0.188477 -0.259766 -0.0551758 0.0556641 0.316406 -0.0480957 -0.00653076 0.136719 -0.165039 0.126953 -0.050293 -0.169922 0.206055 -0.0351562 -0.0942383 0.108887 0.371094 -0.233398 0.154297 -0.294922 0.0869141 -0.0615234 -0.0332031 -0.298828 0.0864258 -0.181641 -0.150391 -0.108398 -0.0761719 -0.244141 -0.298828 -0.253906 0.414062 -0.230469 0.10791 -0.00244141 -0.180664 0.0517578 -0.0402832 -0.151367 -0.0429688 -0.171875 0.144531 -0.0114136 -0.029541 0.285156 -0.179688 -0.275391 0.0368652 -0.202148 0.133789 0.0524902 -0.217773 0.045166 -0.209961 0.0800781 -0.265625 0.0634766 -0.0585938 -0.130859 0.0461426 0.228516 0.0581055 0.0273438 -0.081543 0.0446777 0.267578 -0.0505371 0.283203 -0.0805664 0.193359 -0.166016 0.0480957 -0.0678711 0.0917969 0.106445 -0.357422 -0.230469 -0.0349121 -0.263672 -0.169922 -0.100586 0.0065918 -0.148438 -0.176758 -0.145508 0.203125 -0.0839844 0.0605469 -0.0883789 0.0634766 -0.213867 0.10791 -0.163086 -0.147461 -0.0668945 -0.041748 -0.12793 0.212891 -0.160156 0.134766 -0.225586 0.0532227 0.10791 -0.0795898 0.259766 0.090332 0.10791 -0.12793 0.255859 -0.128906 -0.00469971 -0.0612793 -0.0703125 -0.052002 -0.21875 -0.000667572 -0.275391 -0.0238037 -0.024292 0.292969 -0.000934601 0.0859375 0.244141 -0.279297 0.0158691 0.138672 0.0137329 0.365234 0.0761719 -0.132812 -0.337891 -0.22168 0.185547 0.3125 -0.197266 -0.457031 -0.0583496 0.00427246 -0.0322266 -0.126953 -0.11084 -0.0439453 -0.143555 -0.193359 0.0317383 -0.170898 -0.578125 0.361328 0.0991211 0.111816 0.195312 -0.137695 -0.0551758 0.199219 -0.00823975 -0.0600586 0.00805664 0.141602 -0.484375 0.0493164 -0.126953 0.155273 0.11084 0.189453 0.182617 -0.236328 0.194336 -0.119629
age 0.155273 0.208984 -0.151367 -0.0327148 -0.0192871 0.0238037 0.271484 -0.0664062 0.141602 0.0174561 0.074707 -0.10791 -0.251953 -0.243164 -0.135742 -0.181641 0.114258 0.382812 0.00469971 -0.232422 -0.120117 -0.229492 -0.140625 0.0388184 -0.0976562 -0.339844 -0.200195 0.140625 0.0175781 -0.0717773 -0.147461 -0.120117 -0.0218506 0.0634766 -0.0480957 0.0722656 0.0344238 -0.140625 -0.123047 0.257812 0.00334167 0.238281 0.111816 -0.213867 0.129883 0.114746 -0.0927734 0.166016 -0.232422 -0.144531 -0.147461 -0.118652 -0.296875 -0.0820312 0.257812 -0.0131226 0.126953 -0.168945 -0.345703 -0.0268555 0.0549316 0.0483398 0.0712891 -0.265625 0.263672 -0.128906 -0.0561523 0.294922 0.139648 0.0864258 -0.140625 -0.208984 0.0108643 0.3125 -0.125 0.126953 -0.00393677 0.0625 0.0766602 0.419922 0.108887 -0.106445 -0.0280762 0.269531 -0.257812 0.188477 -0.104492 0.0617676 0.231445 0.146484 0.143555 -0.0922852 -0.255859 0.0229492 0.0380859 -0.11377 0.390625 -0.202148 -0.00799561 -0.182617 -0.147461 -0.0174561 -0.28125 0.137695 -0.179688 -0.239258 0.117676 -0.0605469 0.0142212 0.103027 0.285156 0.0583496 -0.12793 -0.0495605 -0.00683594 0.0952148 -0.0898438 -0.0810547 0.0324707 -0.192383 -0.283203 0.074707 0.0334473 0.137695 0.0532227 0.057373 0.34375 0.0405273 0.0130005 0.241211 -0.0175781 -0.233398 -0.292969 -0.126953 -0.12793 0.027832 -0.0139771 -0.100586 -0.10498 0.0117188 -0.00364685 -0.0844727 -0.201172 0.0114746 0.12793 0.0334473 0.15625 0.0603027 -0.134766 -0.220703 0.0157471 -0.123535 -0.166992 -0.0529785 -0.129883 0.0324707 0.0272217 -0.171875 0.141602 -0.287109 0.0235596 0.0158691 0.130859 -0.0332031 -0.121582 -0.0922852 -0.277344 -0.0532227 0.0490723 0.0290527 0.0576172 -0.298828 0.147461 0.0385742 0.0688477 -0.0751953 -0.0913086 -0.0598145 -0.00708008 0.078125 0.102539 -0.326172 -0.0844727 0.0505371 0.0178223 0.0673828 -0.0561523 -0.0510254 0.138672 0.0766602 0.114258 0.0566406 -0.158203 -0.179688 0.0668945 0.231445 0.287109 0.139648 0.00500488 -0.0603027 -0.18457 -0.140625 -0.0522461 0.0466309 0.0644531 -0.0913086 -0.000112057 -0.0334473 0.0341797 -0.0383301 -0.15332 -0.0913086 -0.0130615 -0.0849609 -0.251953 0.00466919 -0.289062 0.122559 -0.0388184 0.0505371 -0.0810547 -0.128906 0.341797 -0.271484 0.176758 -0.104492 0.11377 -0.204102 -0.198242 -0.00561523 0.122559 -0.304688 -0.148438 0.000789642 -0.0366211 -0.0566406 0.161133 -0.0549316 0.0141602 0.174805 -0.0825195 -0.0961914 0.0361328 -0.081543 -0.209961 0.234375 -0.19043 0.0952148 0.000778198 -0.0454102 0.283203 -0.0224609 0.0708008 0.0712891 0.237305 0.0893555 -0.0126343 0.235352 -0.224609 0.0258789 0.186523 -0.306641 0.0568848 -0.0742188 0.100098 0.119141 -0.318359 0.0100098 -0.0275879 0.0169678 0.0375977 0.00671387 0.109863 -0.00274658 0.115234 0.0159912 0.0201416 -0.117188 -0.059082 -0.0446777 0.045166 0.00148773 -0.129883 0.0368652 -0.211914 -0.0791016 0.128906 0.197266 -0.111816 0.115234 0.0178223 0.0834961 -0.263672 -0.396484 -0.138672 -0.0668945 -0.0839844 -0.0664062 -0.017334 0.0883789
aggregate -0.102539 -0.0961914 0.133789 -0.03125 0.105469 -0.118652 0.0766602 -0.150391 0.163086 -0.0167236 -0.322266 -0.106934 0.0727539 0.259766 -0.179688 0.0302734 -0.15332 0.292969 -0.0424805 0.181641 -0.199219 -0.0825195 -0.298828 0.0776367 0.306641 -0.203125 -0.100098 -0.00650024 -0.275391 -0.126953 0.0263672 0.0622559 0.174805 0.0178223 0.0201416 -0.020874 0.0361328 -0.160156 0.265625 0.275391 -0.141602 0.164062 0.449219 0.243164 0.0898438 -0.189453 0.21875 -0.135742 -0.0223389 -0.0458984 0.175781 0.257812 -0.271484 -0.0300293 -0.224609 0.0327148 -0.109863 0.003479 0.0410156 0.0133667 0.0600586 0.081543 -0.185547 -0.261719 -0.217773 -0.126953 -0.0488281 0.134766 0.162109 -0.0678711 -0.108398 -0.357422 0.289062 -0.191406 0.0264893 -0.0913086 -0.0908203 -0.125 -0.0688477 -0.0703125 -0.10791 -0.314453 -0.144531 0.168945 0.243164 0.0703125 -0.158203 0.0922852 -0.0991211 0.239258 0.183594 0.0712891 -0.145508 0.057373 -0.0634766 -0.0795898 -0.345703 -0.130859 -0.148438 -0.114746 0.283203 -0.24707 -0.265625 -0.208008 0.0505371 0.106445 -0.0217285 0.0849609 -0.109863 0.00640869 0.09375 -0.371094 0.224609 -0.255859 0.0932617 0.285156 0.0617676 0.133789 0.160156 0.21875 0.287109 2.8491e-05 -0.0098877 -0.0227051 -0.22168 0.158203 -0.036377 -0.257812 -0.175781 0.192383 0.0839844 -0.0262451 -0.142578 0.0693359 -0.0634766 -0.034668 -0.210938 0.0578613 -0.201172 0.208984 -0.0274658 -0.106445 0.0449219 0.157227 0.208008 -0.106445 -0.25 0.0756836 -0.12793 -0.010376 -0.144531 -0.164062 -0.0439453 -0.0698242 -0.0258789 0.0810547 -0.226562 -0.265625 0.010437 0.0947266 0.00909424 -0.013916 -0.231445 -0.102051 -0.00698853 0.0991211 -0.188477 0.0639648 -0.200195 -0.0130615 -0.0500488 0.0673828 0.115234 0.0393066 -0.166992 -0.0427246 0.0688477 -0.259766 -0.0018692 -0.302734 -0.113281 -0.0776367 -0.0149536 0.203125 0.15918 -0.104492 0.145508 0.220703 0.107422 0.164062 -0.0105591 -0.234375 -0.24707 -0.217773 -0.192383 -0.193359 0.375 0.0415039 -0.233398 -0.19043 -0.141602 0.427734 0.214844 -0.0437012 0.0356445 -0.204102 -0.0825195 0.196289 0.00616455 0.0515137 -0.289062 -0.012085 -0.291016 0.00242615 -0.175781 -0.0703125 0.259766 0.0380859 -0.0510254 -0.186523 -0.0456543 0.361328 -0.0105591 -0.324219 -0.0101929 0.347656 0.28125 -0.152344 0.198242 -0.0245361 0.0864258 0.0917969 0.0688477 -0.0212402 -0.1875 0.113281 0.104004 0.139648 0.146484 0.200195 -0.133789 0.0400391 0.259766 -0.259766 -0.212891 -0.0786133 -0.148438 0.355469 -0.1875 -0.0393066 0.271484 -0.0505371 -0.155273 0.163086 0.0161133 0.0932617 -0.109863 -0.151367 -0.200195 -0.154297 -0.0140991 0.0415039 -0.0500488 0.125977 0.003479 -0.185547 -0.0449219 -0.0220947 -0.119141 -0.113281 0.0179443 0.0235596 0.111328 -0.136719 0.0898438 0.205078 -0.0397949 0.122559 0.169922 0.175781 -0.195312 -0.25 -0.193359 0.0588379 -0.376953 0.0722656 -0.010376 0.177734 0.149414 0.129883 0.108398 0.0405273 0.131836 0.0153198 -0.0180664 0.0820312 0.0383301 -0.119141 0.074707 -0.026001
aging -0.074707 0.498047 -0.0737305 0.0727539 -0.353516 0.209961 0.125 -0.410156 0.160156 0.128906 0.00585938 0.15332 -0.0893555 0.0576172 -0.0859375 0.0422363 0.0107422 0.435547 0.15332 0.162109 0.164062 0.0854492 -0.0108032 0.18457 0.0132446 -0.0776367 -0.15332 0.435547 -0.129883 -0.0795898 0.147461 -0.081543 -0.178711 -0.107422 0.119629 -0.0478516 -0.0302734 0.128906 0.115234 -0.0131836 -0.0839844 -0.158203 -0.000839233 -0.28125 0.164062 -0.100098 0.0957031 0.0148926 -0.194336 0.00765991 -0.139648 0.141602 -0.458984 -0.173828 -0.0410156 0.152344 -0.120117 -0.21875 0.120117 0.198242 -0.0366211 0.206055 -0.0527344 -0.155273 0.142578 -0.0378418 -0.178711 0.188477 -0.168945 0.020874 0.00933838 0.151367 -0.0830078 0.0119019 -0.192383 0.129883 -0.328125 0.223633 -0.0373535 0.22168 0.166016 -0.148438 -0.0137939 -0.0991211 -0.0683594 0.0839844 -0.337891 0.445312 0.22168 0.109375 0.232422 0.101074 -0.142578 0.0883789 -0.257812 0.0727539 0.169922 0.0644531 -0.371094 -0.304688 -0.0332031 0.126953 0.183594 0.367188 -0.0722656 -0.0296631 0.0922852 0.0966797 -0.0263672 0.324219 -0.104492 -0.10791 -0.130859 0.130859 0.161133 0.12793 -0.0622559 -0.152344 0.167969 -0.166016 -0.265625 -0.0539551 -0.0800781 -0.150391 0.146484 -0.0180664 0.074707 0.292969 0.113281 0.237305 0.400391 -0.0568848 -0.378906 0.0358887 0.00671387 -0.0233154 -0.0488281 -0.059082 -0.111328 0.0495605 0.226562 -0.0883789 -0.170898 0.3125 0.4375 -0.347656 0.0986328 0.208008 -0.0247803 -0.000873566 -0.248047 -0.539062 0.112305 0.0576172 -0.00341797 0.151367 -0.166992 -0.314453 0.145508 -0.174805 0.181641 -0.00201416 -0.261719 0.0883789 0.120117 -0.162109 -0.117676 -0.0883789 0.135742 -0.106445 0.0268555 -0.143555 -0.126953 0.15625 -0.0130615 -0.151367 -0.0795898 -0.0893555 -0.0932617 0.136719 0.0830078 -0.170898 -0.0976562 -0.241211 -0.057373 0.0698242 0.0864258 0.0201416 -0.120605 -0.0568848 0.00891113 -0.0703125 0.0498047 -0.0854492 0.0571289 0.108887 0.106445 0.120605 0.206055 0.169922 0.0634766 0.101562 -0.466797 0.0524902 0.0957031 0.00836182 0.103027 -0.166016 0.118164 0.0546875 -0.507812 0.0541992 -0.0625 -0.109863 0.0179443 0.244141 0.128906 0.197266 -0.126953 0.0100708 0.0383301 0.0131836 0.0634766 -0.302734 0.148438 -0.219727 -0.139648 -0.404297 -0.167969 0.158203 0.306641 -0.0194092 -0.0634766 0.110352 -0.0942383 -0.179688 0.0927734 -0.316406 0.0380859 0.0664062 -0.0296631 -0.0402832 -0.0383301 -0.21582 -0.194336 -0.0737305 -0.0205078 -0.130859 -0.308594 0.00561523 -0.02771 -0.097168 -0.11377 0.333984 0.0908203 -0.0480957 0.147461 -0.169922 -0.34375 0.242188 -0.124512 0.020752 -0.065918 0.300781 0.296875 -0.19043 -0.310547 -0.00485229 0.00585938 0.160156 0.015564 -0.0300293 0.052002 -0.196289 0.0527344 -0.012146 0.0913086 -0.198242 -0.308594 -0.0144043 0.0588379 -0.251953 -0.0771484 0.0240479 -0.142578 -0.277344 0.167969 -0.0136108 0.253906 -0.225586 0.203125 0.0634766 -0.0544434 0.00245667 -0.0493164 0.128906 -0.109375 0.236328 0.081543 0.0196533
agriculture -0.0341797 -0.0217285 -0.0429688 -0.0262451 -0.0712891 -0.015625 0.0698242 -0.196289 -0.0805664 -0.3125 0.211914 -0.115234 -0.223633 -0.0466309 -0.287109 0.136719 -0.197266 0.231445 0.0844727 0.202148 -0.186523 0.0544434 0.0197754 0.179688 0.0101318 -0.050293 -0.0400391 -0.257812 0.204102 -0.0141602 -0.306641 -0.241211 0.065918 -0.0390625 0.0454102 0.0249023 0.217773 0.0957031 0.175781 0.0654297 0.0446777 0.0727539 0.119629 0.257812 -0.124512 -0.287109 0.169922 0.0834961 -0.228516 0.0262451 0.0522461 -0.324219 0.0839844 0.097168 -0.148438 -0.00506592 -0.123047 0.158203 -0.00982666 -0.230469 -0.384766 -0.0737305 -0.224609 -0.0629883 -0.0228271 -0.0947266 0.0299072 0.0981445 0.00866699 -0.265625 -0.287109 -0.0544434 0.104004 0.0317383 -0.285156 -0.0883789 -0.0742188 0.152344 -0.0654297 -0.119629 -0.129883 -0.145508 0.233398 0.102539 0.0888672 -0.00527954 -0.141602 0.265625 -0.0756836 0.0402832 0.0927734 0.0864258 -0.0878906 -0.21582 -0.0952148 -0.115234 0.237305 -0.0145264 0.15918 -0.384766 -0.178711 -0.0639648 -0.0849609 0.0615234 0.00619507 -0.000204086 -0.204102 -0.160156 0.222656 -0.0419922 -0.0301514 -0.196289 -0.0164795 0.261719 0.15625 0.289062 0.036377 -0.0478516 0.103027 0.0617676 0.120117 0.0351562 -0.314453 -0.185547 -0.155273 -0.0275879 0.00891113 -0.108398 -0.0825195 0.0644531 -0.181641 -0.0427246 -0.0629883 -0.0299072 -0.00494385 0.198242 -0.119141 -0.0883789 -0.0336914 -0.0247803 0.12793 -0.196289 -0.273438 -0.259766 -0.376953 -0.128906 0.205078 0.206055 -0.182617 0.15625 0.0717773 0.0510254 -0.0825195 0.0480957 -0.114258 -0.119141 0.128906 -0.306641 0.206055 -0.519531 -0.21582 0.0122681 -0.00043869 0.137695 0.386719 0.189453 -0.0275879 -0.111328 -0.0571289 -0.195312 -0.0405273 0.408203 -0.102051 -0.0510254 0.194336 -0.180664 -0.0189209 -0.223633 -0.115723 0.206055 -0.535156 0.0522461 0.167969 0.104492 0.0927734 -0.141602 -0.0262451 0.188477 0.0561523 0.265625 -0.0266113 -0.0888672 -0.0480957 0.203125 0.275391 0.0805664 0.166016 -0.133789 0.12793 -0.102539 -0.195312 -0.259766 0.158203 -0.102051 -0.298828 0.0883789 0.365234 -0.132812 -0.125 0.0175781 -0.160156 -0.143555 0.300781 0.0375977 0.119629 0.117676 -0.0717773 0.0698242 0.194336 0.160156 0.211914 -0.081543 0.0874023 0.339844 0.279297 -0.182617 0.378906 0.279297 -0.0498047 0.217773 0.000406265 0.145508 -0.0698242 0.0698242 -0.209961 -0.241211 0.118652 -0.121582 0.0113525 -0.15625 0.273438 0.128906 0.180664 0.0791016 0.00056839 -0.199219 0.0336914 -0.447266 -0.234375 0.126953 -0.291016 0.113281 0.0561523 -0.0588379 0.160156 -0.308594 0.208008 -0.132812 -0.22168 -0.0732422 -0.0299072 -0.0986328 0.242188 0.191406 0.240234 0.220703 -0.0385742 0.00891113 -0.170898 0.0141602 -0.192383 0.0142822 0.00466919 -0.429688 -0.103027 -0.0336914 -0.0181885 -0.226562 0.0722656 0.228516 -0.157227 0.0126953 0.470703 0.0544434 -0.287109 -0.0458984 -0.15625 0.0629883 0.12793 0.261719 -0.597656 -0.0820312 0.0358887 -0.145508 0.137695 0.0634766 -0.173828 -0.251953 0.347656 0.178711
aiming 0.149414 0.410156 0.234375 -0.198242 0.00848389 -0.0412598 0.294922 -0.139648 -0.0683594 0.09375 -0.183594 0.135742 0.029541 -0.224609 -0.0859375 -0.135742 -0.186523 0.182617 0.104492 -0.0913086 -0.0922852 0.0380859 -0.0344238 -0.174805 -0.0306396 -0.306641 -0.10498 0.208008 0.0844727 0.135742 0.145508 -0.0722656 -0.0483398 -0.248047 -0.0874023 -0.0141602 -0.00148773 -0.00598145 0.328125 -0.0693359 0.065918 -0.161133 -0.100098 0.116211 0.00424194 -0.15625 0.0480957 0.125 0.0625 0.105957 -0.0615234 -0.0966797 0.0966797 0.155273 0.257812 0.0981445 -0.00479126 -0.214844 0.0476074 -0.0478516 -0.244141 0.0483398 -0.181641 -0.120605 0.124023 0.150391 0.116211 0.265625 0.00244141 -0.0187988 -0.269531 0.150391 0.135742 0.121582 -0.241211 -0.050293 0.00140381 0.125977 -0.219727 -0.198242 0.165039 -0.189453 -0.0358887 0.160156 0.108398 -0.0830078 0.0727539 -0.0810547 0.0722656 0.217773 0.15625 -0.191406 -0.209961 -0.359375 0.0578613 -0.230469 0.00842285 -0.237305 -0.15625 0.316406 -0.219727 0.0244141 -0.177734 0.0644531 0.265625 0.0050354 -0.0264893 -0.00946045 0.0366211 0.0844727 -0.0966797 0.03125 -0.239258 -0.0194092 -0.0917969 0.0400391 -0.145508 -0.0429688 -0.034668 -0.0272217 0.0189209 0.0229492 0.155273 -0.139648 -0.106934 -0.196289 -0.00640869 -0.283203 -0.227539 -0.117188 0.106934 0.0952148 -0.0800781 -0.0620117 0.019043 -0.0554199 0.0888672 0.149414 -0.0415039 0.175781 0.0664062 -0.244141 0.0422363 0.0539551 0.0402832 0.0668945 -0.263672 -0.167969 0.120117 -0.214844 -0.121582 0.108887 -0.0110474 0.00196838 0.113281 0.0546875 -0.220703 0.0922852 -0.100098 -0.192383 -0.118164 0.0371094 0.25 -0.106934 0.0405273 -0.103027 0.146484 0.0274658 0.032959 -0.157227 -0.0544434 -0.135742 -0.0976562 -0.0612793 0.0756836 -0.0231934 0.15332 -0.19043 -0.178711 0.0776367 -0.128906 -0.0688477 -0.0432129 0.0615234 -0.148438 -0.235352 -0.205078 -0.0393066 0.238281 -0.149414 -0.0593262 -0.0324707 0.0712891 -0.118652 -0.146484 0.0290527 0.296875 0.263672 -0.00769043 -0.167969 0.0981445 0.263672 0.101074 0.0595703 -0.0322266 0.171875 -0.0488281 0.0415039 -0.0664062 -0.137695 0.10498 0.245117 0.00300598 0.263672 0.180664 -0.0996094 -0.0463867 -0.0583496 0.137695 0.117676 -0.102539 0.0385742 -0.0549316 0.0598145 -0.0307617 0.0654297 0.0378418 -0.114258 0.19043 -0.100098 -0.0830078 -0.208008 -0.121094 0.371094 -0.0178223 0.178711 -0.0534668 -0.0844727 0.0830078 0.115723 0.0917969 0.111816 -0.0693359 -0.0703125 -0.121582 0.0507812 0.142578 0.230469 0.304688 -0.0981445 -0.217773 0.00878906 0.137695 0.122559 0.214844 0.229492 0.106445 -0.074707 -0.263672 0.0622559 -0.310547 0.149414 0.0878906 -0.155273 -0.0170898 -0.15918 0.117188 -0.168945 -0.0317383 0.11084 0.0932617 0.136719 0.213867 0.00297546 -0.110352 -0.0238037 -0.00415039 -0.0878906 -0.148438 0.433594 -0.269531 -0.0358887 -0.18457 0.0310059 0.0177002 0.0722656 -0.081543 0.0629883 0.0537109 -0.142578 -0.0874023 0.0437012 -0.225586 -0.0791016 -0.249023 -0.0419922 0.238281 0.103516 0.101074 -0.0483398
alliance -0.0693359 -0.133789 -0.0908203 0.0275879 -0.0527344 0.134766 -0.369141 -0.253906 0.172852 0.00604248 -0.275391 0.034668 -0.151367 0.0649414 -0.511719 -0.0286865 0.15918 -0.136719 0.00177002 -0.141602 0.0480957 0.170898 0.157227 -0.103516 -0.105957 -0.015625 -0.162109 0.00836182 0.03125 -0.306641 0.223633 -0.217773 0.0219727 0.194336 0.308594 0.0791016 0.0279541 0.0380859 0.129883 -0.0262451 -0.065918 0.0454102 0.115234 0.15918 -0.12793 -0.273438 -0.0332031 0.00192261 -0.133789 0.10791 0.0756836 0.167969 -0.203125 0.304688 0.137695 -0.00497437 -0.192383 -0.00485229 0.0512695 0.0228271 0.146484 0.199219 -0.246094 -0.0581055 -0.269531 0.154297 0.0844727 -0.0664062 0.074707 0.0917969 -0.0539551 0.371094 -0.0629883 0.00836182 -0.259766 -0.0544434 -0.149414 -0.0067749 0.245117 0.149414 -0.148438 -0.106934 -0.105469 0.00527954 -0.010376 -0.275391 0.0162354 -0.200195 0.182617 0.119141 -0.0441895 -0.240234 -0.0742188 0.145508 -0.0703125 -0.00476074 -0.0617676 -0.257812 -0.0556641 -0.0664062 0.00866699 0.097168 -0.109375 0.212891 0.00830078 0.0294189 -0.0981445 -0.0688477 -0.00756836 0.273438 -0.0213623 -0.0727539 0.380859 -0.144531 0.180664 0.128906 -0.0341797 -0.09375 0.0844727 -0.00769043 0.193359 0.0378418 -0.291016 0.163086 -0.308594 -0.140625 -0.0397949 0.0111694 0.175781 0.0402832 0.043457 -0.00180054 0.116211 0.046875 0.34375 0.11084 0.114258 -0.120605 -0.0544434 -0.015625 -0.165039 0.116211 -0.0830078 0.357422 0.046875 -0.152344 -0.0244141 -0.026123 0.0490723 0.316406 0.0751953 0.0200195 -0.074707 -0.162109 0.199219 -0.386719 -0.112305 -0.269531 -0.114258 0.183594 0.0227051 -0.152344 0.0820312 -0.194336 0.0957031 -0.138672 0.34375 -0.151367 0.0147095 0.337891 0.0644531 -0.202148 0.330078 -0.181641 0.453125 -0.679688 -0.00613403 -0.0976562 0.00750732 -0.0118408 -0.306641 -0.124023 0.160156 -0.0952148 0.145508 -0.0480957 0.265625 0.302734 0.00312805 0.0281982 -0.165039 -0.0168457 -0.00195312 -0.0172119 -0.257812 0.139648 0.137695 0.206055 0.189453 -0.176758 0.0742188 -0.0976562 0.154297 0.22168 -0.148438 -0.00100708 0.143555 -0.396484 0.180664 -0.0771484 -0.0673828 -0.102539 0.0128784 0.240234 0.119141 0.0622559 0.196289 -0.0223389 -0.208008 0.337891 -0.00582886 0.226562 0.320312 0.271484 -0.176758 -0.238281 0.0456543 0.21875 0.109863 -0.0563965 -0.164062 0.239258 0.148438 -0.421875 0.166016 0.200195 0.0668945 0.0957031 -0.00714111 0.00805664 -0.129883 -0.102539 0.00854492 0.285156 0.0859375 0.140625 -0.0495605 -0.140625 0.279297 -0.0515137 -0.137695 -0.298828 -0.0786133 -0.0517578 0.097168 -0.015625 -0.0112915 -0.0269775 -0.15625 -0.036377 -0.0534668 -0.166016 -0.0279541 0.233398 -0.0800781 0.129883 0.0874023 -0.0145874 -0.503906 0.251953 0.00326538 -0.0446777 0.0299072 -0.0290527 0.029541 0.0120239 -0.167969 0.132812 -0.161133 0.237305 -0.0419922 0.0664062 -0.210938 -0.142578 -0.227539 -0.204102 0.212891 0.161133 0.0693359 -0.199219 -0.0981445 -0.00228882 -0.21875 -0.0308838 -0.0358887 0.0820312 0.423828 0.227539 -0.0703125 0.109375
alternatives -0.225586 0.124023 0.0600586 0.233398 -0.265625 0.134766 0.137695 -0.0717773 0.0668945 -0.048584 -0.265625 -0.119141 -0.0380859 -0.0129395 -0.065918 0.102051 0.101074 -0.231445 0.242188 -0.0471191 0.164062 0.0693359 -0.232422 0.239258 -0.396484 0.259766 -0.115234 0.233398 -0.0791016 -0.246094 0.178711 0.125 -0.333984 0.0751953 0.132812 0.124512 0.240234 -0.134766 -0.00915527 -0.0673828 0.00747681 0.0144653 -0.0834961 0.0830078 -0.138672 0.0727539 -0.0476074 0.103027 -0.174805 0.271484 -0.0549316 -0.0708008 -0.300781 -0.129883 -0.129883 -0.158203 -0.130859 -0.0512695 -0.0703125 -0.423828 -0.261719 -0.00564575 -0.201172 0.137695 -0.110352 -0.273438 -0.0698242 0.361328 -0.316406 0.125 -0.169922 0.0296631 0.198242 0.045166 -0.0266113 -0.239258 -0.239258 0.0732422 -0.110352 0.202148 -0.00909424 0.145508 0.126953 -0.00469971 0.0388184 0.097168 0.00119019 0.376953 0.378906 0.0825195 0.180664 0.216797 0.0488281 0.308594 0.0751953 -0.137695 -0.223633 0.195312 0.0289307 -0.0678711 0.0120239 0.000267029 0.0756836 0.267578 0.116211 -0.132812 0.148438 0.0209961 0.170898 -0.0617676 0.306641 -0.0561523 0.0288086 -0.0220947 0.130859 -0.0213623 0.237305 -0.339844 0.0262451 0.157227 -0.0200195 0.246094 -0.0568848 -0.0380859 0.0281982 0.0358887 -0.0761719 0.222656 0.138672 0.0693359 -0.0549316 0.0432129 0.0517578 0.046875 -0.132812 0.00421143 0.199219 -0.173828 0.176758 0.441406 0.12207 0.0366211 0.0288086 0.223633 0.455078 -0.0415039 -0.196289 -0.0830078 -0.09375 -0.117188 0.0344238 0.0830078 -0.0839844 -0.150391 0.198242 0.0654297 0.0078125 -0.243164 -0.181641 -0.10791 0.0708008 0.204102 -0.0115356 0.108887 -0.170898 0.121582 -0.173828 0.125977 0.0289307 -0.231445 0.0505371 0.170898 -0.122559 0.0349121 0.328125 -0.0947266 0.198242 -0.186523 -0.237305 0.267578 -0.166992 -0.201172 -0.202148 0.229492 0.198242 -0.21875 -0.00106812 -0.0383301 0.214844 0.0864258 -0.375 -0.154297 -0.0495605 -0.244141 -0.228516 0.0932617 -0.210938 -0.230469 0.00570679 -0.217773 -0.0488281 -0.164062 0.020752 0.12793 0.059082 0.167969 -0.0202637 0.090332 -0.259766 -0.0351562 0.0549316 0.00308228 -0.211914 0.192383 -0.289062 0.0766602 0.144531 -0.0554199 0.000644684 0.300781 0.173828 -0.134766 -0.179688 0.304688 -0.0466309 -0.145508 -0.128906 -0.196289 0.026001 0.3125 -0.169922 0.0100098 0.3125 -0.0125122 0.0612793 -0.0284424 -0.000553131 -0.133789 0.183594 0.00836182 -0.15332 -0.057373 -0.0270996 0.0957031 -0.00445557 0.139648 -0.026123 0.00939941 -0.00817871 0.144531 -0.0620117 -0.00148773 0.0375977 -0.036377 -0.0317383 -0.217773 -0.0476074 -0.0546875 0.141602 -0.0183105 0.230469 0.150391 0.0361328 -0.0110474 0.0149536 0.175781 -0.183594 0.122559 -0.3125 0.10791 0.078125 0.125 0.275391 0.165039 -0.177734 0.223633 -0.0510254 -0.174805 -0.020752 -0.052002 -0.057373 -0.0539551 0.0301514 -0.0136108 -0.241211 0.166016 0.214844 0.0461426 0.0505371 0.00143433 -0.236328 -0.0839844 -0.166992 0.363281 0.0336914 0.414062 0.267578 -0.0534668 -0.121094 0.232422
amalgamation -0.162109 -0.0864258 -0.0893555 0.205078 0.027832 0.00534058 0.0678711 -0.369141 0.21582 0.328125 -0.0893555 -0.106934 -0.117188 -0.081543 -0.34375 0.326172 0.182617 0.376953 0.00982666 -0.122559 -0.0766602 0.230469 0.149414 -0.246094 0.0678711 0.154297 0.0966797 -0.161133 0.181641 -0.179688 0.211914 -0.144531 0.240234 0.380859 0.178711 -0.152344 0.332031 -0.121582 0.191406 -0.335938 -0.139648 0.183594 0.0791016 0.126953 -0.0737305 -0.375 -0.0917969 -0.139648 -0.0839844 -0.0864258 0.0415039 -0.19043 -0.314453 -0.0708008 -0.146484 0.142578 -0.0966797 -0.186523 0.0336914 0.147461 0.154297 0.0375977 -0.244141 -0.0869141 -0.137695 0.186523 -0.355469 0.179688 -0.0942383 -0.277344 -0.126953 -0.0388184 0.0712891 -0.0544434 0.158203 -0.0629883 -0.0668945 -0.0869141 0.0883789 -0.0830078 -0.175781 0.00250244 -0.0932617 0.34375 0.00491333 0.0371094 -0.289062 -0.0869141 0.140625 0.0634766 0.0578613 0.046875 0.237305 0.150391 -0.117676 0.402344 -0.0693359 -0.0588379 -0.182617 0.0766602 0.0576172 0.15625 -0.125 0.24707 -0.024292 -0.416016 -0.0620117 0.287109 -0.0820312 -0.00674438 -0.102539 0.101074 0.294922 -0.189453 0.259766 0.209961 -0.0810547 -0.12207 -0.134766 -0.204102 0.269531 -0.0257568 -0.310547 -0.0380859 -0.271484 -0.0830078 -0.261719 -0.166992 0.212891 0.147461 0.146484 -0.0220947 -0.180664 -0.0649414 0.246094 0.5 -0.101074 -0.310547 -0.15332 0.123535 0.144531 0.0471191 -0.00799561 0.253906 0.182617 0.351562 -0.349609 0.239258 -0.124512 0.236328 0.0170898 -0.380859 0.0578613 0.337891 -0.0358887 -0.259766 0.0015564 -0.131836 0.138672 0.135742 -0.0961914 -0.0639648 -0.0244141 0.000846863 -0.0158691 -0.227539 -0.032959 0.0441895 0.0556641 0.300781 0.0449219 -0.375 0.341797 -0.0849609 0.0568848 -0.0869141 -0.0266113 -0.283203 0.0683594 -0.0698242 -0.015564 -0.0756836 0.0932617 -0.279297 0.0334473 -0.125977 -0.15625 0.0461426 0.186523 -0.00561523 -0.0281982 -0.10791 -0.21582 -0.0422363 0.355469 -0.113281 0.00958252 0.180664 0.376953 0.112793 0.291016 0.217773 0.388672 -0.330078 -0.112305 0.193359 0.147461 -0.333984 0.412109 0.0279541 0.0917969 -0.324219 0.174805 0.0150757 -0.339844 -0.109375 0.141602 -0.167969 0.239258 -0.376953 0.213867 0.394531 -0.148438 0.143555 -0.209961 -0.0300293 -0.208008 -0.162109 -0.0490723 0.402344 0.143555 0.0612793 0.111328 0.183594 0.179688 0.275391 0.149414 -0.217773 0.351562 0.0258789 0.0098877 -0.0678711 0.00439453 -0.0795898 0.013916 0.141602 -0.261719 0.232422 -0.25 0.1875 0.0991211 0.259766 0.227539 0.341797 0.447266 0.125977 0.0124512 0.0162354 -0.131836 0.0220947 0.416016 -0.00115204 0.0174561 -0.209961 -0.123535 -0.341797 -0.112793 0.273438 -0.519531 0.0991211 -0.129883 -0.11377 0.0461426 0.09375 0.101562 -0.0233154 0.0874023 0.166016 0.0164795 0.191406 -0.00601196 0.0859375 -0.152344 -0.183594 -0.0115967 -0.15918 -0.0400391 -0.102051 0.0708008 0.0917969 -0.349609 -0.0844727 -0.341797 0.194336 -0.0688477 0.146484 0.25 -0.114746 -0.361328 -0.135742
amassing 0.279297 0.355469 -0.148438 -0.15332 0.223633 0.0285645 -0.515625 -0.0371094 0.145508 0.0791016 -0.0761719 -0.164062 0.010498 0.451172 -0.0629883 -0.132812 -0.0297852 0.106445 -0.486328 0.024292 -0.294922 -0.285156 -0.0561523 -0.0483398 0.097168 -0.25 -0.107422 -0.132812 -0.263672 -0.141602 0.113281 -0.135742 -0.123047 -0.0143433 -0.043457 0.0180664 -0.102539 -0.150391 0.239258 0.18457 0.355469 -0.0568848 0.273438 0.112305 -0.180664 -0.220703 -0.103516 0.243164 0.219727 -0.00390625 0.255859 -0.157227 0.0505371 -0.052002 -0.271484 0.464844 -0.12793 -0.392578 -0.0766602 0.0203857 -0.0795898 0.324219 0.118164 -0.351562 -0.0649414 0.108398 -0.117188 -0.106934 -0.0439453 -0.0981445 0.147461 -0.00337219 0.0991211 -0.0708008 0.11084 -0.0820312 0.0303955 -0.0600586 -0.0981445 -0.0932617 -0.265625 -0.257812 0.136719 0.0510254 0.231445 -0.265625 -0.285156 0.155273 -0.189453 0.11084 0.00454712 -0.143555 -0.0610352 -0.010376 -0.0258789 -0.15625 0.394531 0.137695 -0.0415039 0.289062 -0.115723 -0.0143433 0.029541 -0.0380859 0.0131836 -0.0120239 0.0932617 -0.00134277 0.121582 0.102539 0.322266 0.00534058 -0.0966797 -0.0639648 0.11377 0.166016 -0.240234 0.237305 0.0110474 -0.0371094 0.186523 -0.0649414 0.09375 -0.0388184 -0.263672 0.0300293 0.214844 -0.261719 -0.217773 0.03125 0.173828 -0.133789 -0.0397949 -0.109863 -0.0480957 0.113281 -0.182617 0.101074 -0.273438 0.0247803 -0.0625 -0.00494385 -0.171875 0.216797 0.182617 0.0235596 -0.202148 -0.287109 -0.21875 0.00531006 0.090332 -0.121094 -0.296875 -0.0776367 -0.00787354 0.0522461 0.0133667 -0.0766602 0.0927734 0.19043 -0.0820312 0.026123 -0.010437 -0.1875 -0.171875 -0.046875 0.22168 0.00769043 0.0458984 0.0297852 -0.357422 0.0527344 0.131836 -0.0471191 -0.227539 -0.233398 -0.0761719 -0.318359 0.0375977 0.0751953 0.289062 0.207031 0.0952148 0.0541992 0.161133 -0.158203 -0.131836 -0.104004 0.0322266 -0.00836182 0.261719 0.0751953 0.15625 0.0942383 -0.419922 0.0268555 0.0114746 0.0454102 0.322266 -0.182617 -0.114258 0.339844 0.181641 -0.0454102 0.0234375 0.241211 -0.162109 -0.147461 -0.324219 0.0922852 -0.0605469 -0.0305176 0.100098 -0.0383301 -0.043457 0.224609 -0.292969 0.193359 -0.239258 0.0698242 0.131836 0.275391 0.142578 0.0976562 0.0223389 0.0268555 0.00230408 -0.277344 -0.03125 -0.0507812 0.15625 -0.161133 0.132812 0.0722656 -0.0761719 -0.125 0.0878906 -0.238281 -0.186523 -0.195312 -0.0458984 0.0664062 -0.0634766 -0.314453 0.0883789 0.115723 0.146484 -0.0568848 0.0256348 0.139648 -0.00769043 -0.0908203 0.186523 0.326172 0.125977 0.0410156 0.0771484 0.0615234 -0.219727 -0.0129395 0.279297 0.0107422 0.263672 0.0324707 -0.15918 -0.000312805 0.0678711 0.107422 -0.0142822 -0.0888672 -0.0078125 -0.0385742 -0.010437 -0.022583 0.157227 0.108398 0.0349121 -0.0284424 -0.106445 0.163086 0.0116577 0.00323486 0.0296631 0.0986328 -0.245117 0.0830078 0.110352 0.163086 0.466797 -0.0149536 -0.0458984 0.074707 -0.0593262 0.185547 -0.261719 -0.357422 0.292969 0.0644531 -0.0185547 0.0864258
ambient_temperature -0.1875 -0.15625 -0.277344 -0.137695 0.209961 -0.166016 -0.188477 -0.109863 -0.00153351 0.244141 0.0864258 0.0115967 -0.0795898 -0.154297 -0.203125 0.235352 -0.222656 -0.0324707 0.21582 0.0791016 0.081543 0.206055 -0.273438 0.279297 -0.0820312 -0.367188 -0.198242 0.347656 -0.285156 -0.0595703 -0.236328 -0.3125 -0.0756836 0.279297 -0.408203 -0.283203 0.176758 0.000138283 0.0444336 0.144531 0.121582 0.0722656 -0.0786133 -0.0544434 -0.0429688 -0.375 -0.0629883 0.0427246 -0.361328 -0.0153198 0.0717773 0.0673828 -0.226562 -0.0192871 0.28125 0.081543 0.180664 0.0507812 0.0444336 0.617188 -0.148438 -0.106445 -0.332031 -0.390625 0.554688 -0.351562 0.196289 0.162109 0.0480957 0.120605 -0.0206299 -0.0947266 0.227539 -0.410156 -0.455078 -0.46875 0.378906 -0.414062 0.275391 0.106934 0.265625 0.0825195 -0.208984 -0.0825195 0.0683594 0.339844 -0.0620117 0.194336 0.193359 0.351562 -0.0668945 -0.145508 -0.490234 0.243164 -0.204102 -0.133789 0.226562 -0.722656 0.476562 -0.12793 0.275391 -0.253906 -0.175781 -0.104492 -0.205078 -0.155273 0.0127563 0.0639648 -0.105957 -0.285156 0.0693359 -0.357422 0.145508 -0.206055 0.0197754 0.090332 0.0371094 -0.123535 -0.154297 0.118164 -0.283203 -0.0534668 -0.0539551 0.103027 -0.0751953 -0.00292969 0.105957 0.0810547 0.199219 0.0678711 0.174805 0.0410156 0.0161133 0.117188 -0.0947266 0.0349121 0.090332 -0.060791 -0.155273 0.158203 0.285156 0.0888672 -0.152344 0.0600586 0.243164 -0.0957031 0.132812 0.322266 -0.027832 -0.347656 -0.0235596 -0.0358887 -0.196289 0.0310059 -0.160156 -0.0717773 0.451172 0.197266 -0.0317383 -0.097168 -0.169922 -0.34375 0.296875 0.429688 0.251953 -0.155273 -0.449219 0.425781 0.15625 -0.400391 -0.40625 0.0878906 0.170898 -0.0996094 -0.322266 0.223633 -0.166016 -0.439453 -0.238281 -0.101562 -0.143555 0.188477 0.0561523 0.0135498 0.162109 -0.328125 -0.0415039 0.0559082 0.0603027 0.53125 -0.101562 0.0986328 0.0168457 0.0947266 -0.0341797 0.345703 0.233398 -0.24707 0.10498 -0.19043 0.609375 0.167969 -0.742188 0.167969 0.404297 -0.0961914 -0.130859 -0.100098 0.205078 -0.21582 -0.1875 0.0223389 -0.0147095 -0.212891 -0.337891 -0.0522461 -0.137695 0.0454102 -0.115723 0.0629883 -0.102051 -0.0717773 -0.112305 -0.0336914 -0.188477 0.351562 -0.0424805 0.0927734 0.0566406 0.103516 -0.165039 0.0761719 0.148438 -0.283203 -0.244141 -0.206055 -0.0169678 0.249023 0.271484 0.0703125 -0.263672 0.0344238 0.0942383 -0.108887 -0.22168 -0.0170898 -0.625 0.204102 0.166016 -0.244141 0.259766 0.0668945 -0.0284424 -0.143555 0.217773 -0.25 0.302734 -0.0898438 -0.0644531 0.129883 0.443359 -0.435547 0.0126953 -0.228516 0.103027 -0.00970459 -0.134766 -0.539062 0.271484 -0.519531 -0.154297 -0.0177002 -0.0283203 0.0490723 -0.185547 -0.275391 -0.196289 -0.0603027 -0.0124512 0.18457 0.390625 0.198242 0.269531 -0.0593262 0.0263672 -0.378906 0.4375 -0.00805664 -0.138672 0.246094 0.0639648 0.445312 -0.0981445 0.330078 -0.209961 0.034668 -0.178711 0.0952148 -0.0444336 0.189453
ammunition 0.160156 0.337891 0.253906 -0.12793 0.0737305 -0.078125 -0.296875 -0.172852 -0.0266113 0.0286865 0.143555 -0.353516 -0.144531 0.287109 -0.235352 0.0050354 -0.0429688 0.175781 -0.507812 -0.515625 0.206055 -0.188477 0.125977 0.28125 -0.0991211 -0.163086 -0.0595703 -0.0966797 -0.150391 -0.376953 0.225586 -0.0688477 -0.0605469 0.0240479 0.0296631 -0.00062561 -0.11377 -0.0961914 -0.173828 -0.0339355 -0.296875 -0.0301514 0.285156 -0.104004 -0.283203 -0.183594 0.113281 0.22168 -0.168945 -0.078125 0.0415039 -0.269531 0.0390625 -0.34375 -0.152344 -0.386719 0.0334473 -0.102051 0.0869141 -0.300781 -0.236328 0.0476074 -0.180664 -0.0336914 -0.143555 0.013916 0.113281 -0.205078 -0.363281 0.337891 0.0512695 0.09375 0.34375 0.144531 -0.137695 -0.0439453 -0.154297 -0.21582 -0.171875 -0.318359 0.107422 -0.0400391 -0.0566406 0.12207 -0.0517578 -0.103516 -0.00765991 0.150391 -0.105469 0.0751953 -0.328125 0.423828 -0.036377 -0.265625 0.0317383 -0.267578 0.162109 0.165039 -0.0356445 0.359375 0.210938 0.0483398 0.0859375 -0.0625 0.132812 -0.0334473 0.460938 -0.0290527 0.283203 -0.191406 -0.0654297 -0.176758 -0.193359 0.0932617 -0.239258 0.0415039 0.322266 0.170898 0.142578 -0.0737305 0.149414 0.0742188 -0.133789 -0.421875 -0.147461 -0.28125 0.273438 -0.332031 -0.339844 -0.0183105 0.129883 -0.230469 -0.410156 0.404297 0.0214844 0.134766 0.0859375 -0.129883 0.0961914 0.106445 0.0116577 -0.0057373 0.308594 0.0800781 0.0478516 -0.328125 -0.0286865 -0.0786133 -0.125 0.0761719 0.292969 0.0134277 -0.102539 -0.130859 0.21875 -0.00750732 -0.251953 -0.0593262 -0.478516 -0.234375 -0.00668335 -0.0605469 -0.131836 -0.000484467 0.125 -0.245117 0.15625 0.269531 0.177734 -0.195312 -0.135742 0.137695 0.140625 -0.314453 0.165039 -0.0239258 -0.112793 -0.233398 -0.0888672 -0.320312 -0.296875 -0.0546875 0.0952148 0.0976562 -0.0620117 -0.160156 0.019043 0.15332 0.231445 0.157227 0.119141 -0.0561523 -0.0556641 0.133789 -0.00650024 -0.0115356 0.00479126 -0.0805664 0.036377 -0.15918 -0.0708008 -0.00570679 -0.081543 -0.0385742 0.146484 -0.10498 -0.0524902 0.0218506 0.104492 -0.0605469 0.151367 -0.0272217 -0.0654297 -0.0517578 -0.12207 -0.135742 0.169922 0.310547 -0.351562 0.0212402 -0.0883789 0.0810547 -0.28125 -0.251953 0.151367 0.121094 -0.048584 -0.154297 0.239258 -0.0154419 0.0463867 0.0257568 -0.168945 -0.0319824 0.115234 0.0927734 0.09375 0.0952148 0.259766 0.0145874 -0.00183868 0.0466309 -0.310547 -0.1875 -0.0336914 0.0583496 -0.0238037 -0.0834961 0.198242 0.227539 0.142578 0.176758 -0.231445 0.129883 -0.115723 0.164062 -0.0578613 -0.135742 -0.0275879 -0.179688 0.00683594 0.21875 -0.0500488 -0.140625 0.235352 0.267578 -0.00772095 -0.353516 -0.102051 -0.0786133 -0.019043 -0.179688 0.141602 0.00411987 -0.0727539 -0.25 0.201172 0.0588379 0.330078 0.207031 -0.419922 -0.204102 0.220703 -0.225586 -0.204102 -0.203125 0.211914 0.195312 0.419922 0.208984 -0.162109 -0.5 -0.057373 0.0524902 0.00270081 -0.482422 -0.125 0.0839844 -0.0108032 -0.0742188
animals 0.0198975 0.24707 -0.236328 0.15332 -0.173828 0.00570679 0.0908203 0.227539 -0.196289 -0.0167236 0.171875 -0.539062 -0.0981445 -0.112793 -0.255859 -0.22168 -0.210938 0.210938 -0.257812 0.170898 0.208984 -0.3125 0.162109 -0.0585938 -0.166016 -0.143555 -0.206055 0.113281 0.199219 -0.384766 -0.457031 0.0227051 -0.157227 -0.120605 -0.164062 0.121582 -0.217773 -0.137695 0.0585938 0.227539 0.105957 0.0270996 -0.0310059 0.164062 -0.109863 -0.263672 0.283203 0.289062 -0.010437 0.112305 -0.0581055 -0.216797 0.333984 0.0178223 0.0810547 -0.0493164 0.0712891 -0.118164 0.131836 0.15625 0.0549316 0.0839844 0.128906 -0.130859 -0.0510254 -0.275391 0.12793 0.134766 -0.289062 0.0319824 0.0722656 -0.193359 -0.142578 -0.0144653 -0.188477 -0.179688 -0.0732422 -0.129883 0.0644531 -0.167969 -0.146484 -0.0244141 0.178711 -0.154297 -0.0927734 0.0629883 -0.195312 0.211914 -0.0549316 -0.123047 0.00683594 0.155273 -0.12793 -0.163086 0.0893555 -0.206055 0.147461 -0.115234 0.22168 -0.314453 0.0571289 -0.0512695 0.0917969 0.120605 0.255859 -0.294922 -0.026123 -0.269531 0.0439453 0.0644531 -0.194336 0.125977 0.259766 0.294922 -0.102539 0.0201416 0.00164795 -0.259766 -0.0556641 0.0164795 -0.330078 0.0546875 -0.226562 -0.0976562 -0.150391 0.032959 0.0864258 -0.0177002 0.0373535 -0.138672 -0.192383 -0.116211 -0.0437012 0.145508 -0.00124359 -0.032959 0.172852 -0.034668 -0.00695801 -0.0644531 0.120117 0.0168457 0.105957 0.185547 0.144531 0.232422 0.0534668 0.171875 -0.19043 -0.173828 0.394531 0.0378418 -0.388672 -0.0898438 -0.141602 0.0393066 -6.4373e-05 -0.212891 -0.0512695 -0.0244141 0.00891113 0.15332 0.0161133 0.25 0.0786133 0.0366211 -0.111328 0.219727 -0.0224609 -0.0185547 0.0126953 0.00646973 0.00314331 0.207031 -0.119141 -0.00485229 0.0395508 0.0249023 -0.273438 -0.0101318 -0.511719 0.0194092 0.0505371 0.0441895 0.124023 0.00952148 0.117188 -0.0214844 0.0568848 0.322266 -0.28125 -0.104004 -0.105469 -0.100098 0.168945 -0.00964355 0.11377 -0.255859 -0.259766 0.0373535 0.18457 -0.308594 -0.0805664 -0.0437012 -0.332031 0.0600586 -0.00994873 0.0366211 0.147461 -0.0218506 -0.570312 -0.0195312 -0.0169678 -0.141602 -0.225586 0.0761719 0.178711 -0.0402832 0.0927734 -0.0480957 0.439453 0.078125 -0.0422363 -0.0947266 0.113281 -0.0583496 0.0605469 0.104004 0.206055 0.0446777 0.100098 0.0825195 -0.0270996 0.166016 -0.125 -0.209961 0.294922 0.0722656 0.157227 -0.189453 0.199219 -0.306641 -0.0344238 -0.211914 0.106934 0.238281 -0.0123291 0.180664 0.0976562 0.0112915 -0.251953 0.148438 -0.435547 -0.166016 -0.0187988 -0.141602 0.0112305 0.0371094 -0.237305 0.0336914 -0.25 -0.149414 0.0942383 0.12793 0.0732422 0.019165 0.0561523 -0.0776367 -0.0534668 0.0532227 -0.0859375 0.119141 -0.12793 0.306641 0.132812 -0.277344 0.00909424 0.168945 -0.0280762 0.0678711 0.158203 -0.0932617 0.140625 0.109863 -0.105957 0.0388184 0.121582 0.0429688 0.359375 0.359375 -0.470703 0.22168 -0.244141 0.202148 0.0124512 0.353516 0.0424805 0.289062 0.129883 -0.0383301
annoyance 0.265625 -0.121094 -0.0461426 0.0683594 -0.429688 0.15625 0.161133 0.0549316 0.199219 0.25 -0.041748 -0.15625 0.15332 0.00762939 0.00622559 0.0708008 0.267578 0.230469 0.0622559 -0.257812 0.0117798 0.386719 0.0529785 -0.0644531 0.00202942 0.00222778 0.0327148 0.0615234 -0.0839844 0.170898 -0.0761719 -0.11084 0.0732422 -0.111816 0.219727 -0.232422 0.369141 0.171875 -0.133789 0.0737305 0.253906 -0.0444336 -0.034668 -0.0883789 -0.202148 -0.337891 -0.0324707 0.179688 -0.179688 0.00836182 -0.242188 0.00668335 -0.0158691 -0.100586 -0.0410156 0.145508 0.0120239 -0.181641 0.0703125 0.0175781 0.0090332 -0.0341797 -0.0683594 -0.104004 -0.294922 0.166016 -0.664062 0.142578 -0.464844 0.0424805 0.0869141 0.0927734 0.0625 -0.00476074 -0.0117188 -0.0134277 0.171875 0.210938 0.0175781 0.225586 -0.10791 0.121094 0.0490723 -0.0267334 -0.0673828 -0.0566406 0.0629883 -0.115723 -0.0458984 0.189453 -0.0717773 -0.166016 -0.378906 0.112305 -0.0893555 -0.0114136 -0.0898438 -0.00267029 -0.175781 0.158203 0.245117 0.0279541 -0.0534668 -0.128906 0.328125 0.0407715 0.152344 0.178711 0.143555 -0.0722656 -0.425781 -0.115723 0.0771484 0.0893555 -0.124512 -0.0344238 0.141602 -0.00762939 -0.0859375 0.0673828 -0.294922 0.105469 -0.4375 0.0480957 -0.271484 0.0322266 -0.0583496 -0.0549316 0.167969 0.0600586 -0.257812 -0.0620117 -0.029541 0.253906 -0.0854492 -0.125 -0.0179443 0.185547 -0.378906 -0.0263672 0.304688 -0.128906 -0.347656 0.158203 0.238281 -0.373047 -0.245117 0.0546875 -0.131836 -0.179688 0.0617676 0.171875 0.175781 -0.0198975 -0.239258 -0.192383 -0.074707 -0.192383 -0.174805 -0.265625 0.0174561 0.19043 0.0888672 0.0449219 0.0600586 -0.209961 -0.0859375 0.0283203 0.0187988 0.0612793 0.102051 0.0168457 -0.214844 0.0981445 -0.355469 -0.125 -0.109863 -0.375 -0.0136108 0.0942383 -0.0358887 0.179688 0.0800781 0.0378418 0.212891 0.0996094 -0.287109 -0.0986328 -0.0402832 0.0415039 -0.0222168 -0.0168457 -0.0583496 0.0515137 -0.168945 0.175781 -0.100586 0.271484 -0.181641 -0.026123 0.259766 -0.048584 -0.224609 0.0483398 0.347656 0.0301514 -0.1875 0.333984 0.00976562 0.238281 0.198242 -0.0947266 0.0737305 0.0727539 -0.259766 -0.034668 -0.294922 0.00153351 -0.0678711 0.0683594 -0.225586 0.0625 0.0751953 -0.0255127 -0.0471191 -0.0888672 0.19043 0.065918 0.279297 -0.3125 -0.0128784 0.0664062 0.0038147 0.0135498 0.0986328 -0.0986328 0.0874023 -0.057373 -0.229492 0.0561523 -0.173828 -0.0324707 0.233398 -0.142578 0.0429688 0.104004 0.0126343 -0.115723 0.228516 0.0825195 0.211914 0.120117 0.177734 0.0708008 -0.121094 0.0356445 -0.144531 -0.00382996 -0.100586 0.0576172 0.0262451 0.199219 0.128906 0.123535 -0.279297 0.065918 0.00254822 -0.000203133 0.1875 -0.179688 -0.157227 0.213867 0.0301514 -0.172852 0.045166 -0.203125 -0.136719 0.0148315 0.0154419 0.115234 0.318359 0.11084 0.205078 0.230469 -0.0115967 0.0125732 -0.0437012 0.149414 0.00616455 0.165039 0.0334473 -0.0252686 0.090332 -0.245117 -0.0262451 0.157227 -0.169922 0.0169678 0.105957 0.191406
appeal 0.0583496 0.118164 0.0088501 0.0290527 0.257812 0.177734 0.131836 -0.222656 0.0559082 0.0140381 -0.228516 0.302734 -0.0141602 0.097168 0.0088501 -0.0216064 0.180664 0.251953 0.0144043 -0.0344238 0.138672 0.0859375 0.0869141 0.0957031 0.131836 -0.458984 0.0222168 0.169922 0.296875 0.137695 0.0893555 -0.027832 -0.0336914 0.09375 0.253906 -0.0244141 0.242188 0.0395508 -0.0175781 0.0678711 -0.0532227 0.00778198 -0.111816 0.168945 -0.341797 -0.408203 -0.3125 0.0378418 0.012207 0.289062 0.119141 -0.0913086 -0.052002 0.150391 -0.137695 0.0859375 -0.0109253 -0.245117 0.00564575 0.0654297 0.0639648 -0.271484 -0.048584 0.032959 -0.259766 -0.0883789 -0.12793 0.174805 0.0566406 -0.0776367 -0.0233154 -0.388672 0.10791 0.175781 0.0275879 0.00759888 0.308594 -0.0240479 0.177734 0.145508 0.00123596 -0.195312 0.0678711 0.25 0.0625 -0.108398 -0.322266 0.158203 -0.000732422 -0.167969 0.0157471 -0.106934 0.09375 -0.00193024 -0.164062 -0.119629 -0.163086 0.0454102 -0.255859 -0.155273 -0.00585938 0.15625 0.251953 0.213867 0.10791 -0.226562 0.110352 -0.0111694 0.0864258 -0.0991211 -0.036377 -0.161133 -0.193359 0.300781 0.0942383 -0.225586 -0.135742 0.0595703 0.219727 0.0358887 -0.0250244 0.208008 -0.140625 0.304688 0.0209961 -0.175781 0.166016 -0.121582 0.263672 -0.065918 0.486328 0.0324707 -0.104004 -0.294922 -0.169922 0.0761719 -0.107422 1.4782e-05 0.131836 0.0292969 0.402344 0.0825195 -0.0922852 0.0668945 0.117676 -0.0174561 -0.0478516 -0.0622559 -0.0888672 0.0612793 0.0125732 0.0373535 0.0668945 -0.223633 -0.114746 -0.182617 -0.208984 -0.0563965 -0.361328 -0.0849609 -0.0537109 -0.0961914 0.271484 0.0407715 -0.0732422 -0.118164 0.231445 -0.0534668 0.172852 0.00805664 0.000453949 -0.0834961 -0.351562 -0.0639648 -0.0893555 -0.0693359 0.230469 0.0717773 0.0678711 0.138672 -0.201172 -0.144531 -0.318359 -0.183594 0.178711 0.0292969 -0.137695 -0.212891 0.0252686 -0.3125 -0.0698242 -0.0405273 0.244141 0.146484 -0.0111694 -0.0583496 0.169922 0.105957 -0.147461 0.157227 0.158203 -0.00300598 -0.164062 -0.249023 0.124023 0.0349121 -0.050293 -0.0673828 -0.0766602 0.233398 0.0101318 0.18457 0.21582 0.0151367 -0.226562 0.219727 -0.141602 -0.0878906 -0.0183105 -0.012085 -0.0266113 0.11377 -0.0286865 0.316406 0.0247803 -0.106445 -0.0854492 -0.0776367 -0.0131226 0.160156 -0.0415039 0.0131226 -0.164062 0.0336914 0.263672 -0.10498 -0.25 -0.00811768 0.3125 -0.0908203 -0.34375 -0.208984 0.0200195 -0.065918 -0.133789 0.302734 -0.0119629 -0.105469 0.289062 -0.126953 0.103027 0.171875 -0.186523 0.111328 0.197266 -0.0742188 -0.0388184 0.192383 0.207031 -0.110352 -0.245117 -0.229492 -0.314453 0.347656 -0.211914 0.123535 -0.0688477 -0.121582 0.0913086 -0.195312 0.213867 0.195312 0.223633 0.107422 0.0549316 0.0407715 -0.00524902 -0.259766 -0.119141 0.131836 -0.0805664 0.0179443 0.118164 0.0800781 -0.179688 0.059082 0.0712891 0.259766 -0.0600586 0.0227051 -0.0286865 0.0037384 0.0527344 -0.200195 0.198242 0.181641 0.253906 -0.182617 -0.182617 0.28125
appellations 0.242188 -0.0495605 0.271484 0.271484 0.0378418 0.0629883 0.163086 -0.341797 0.129883 0.470703 0.244141 0.0250244 -0.0805664 0.078125 -0.296875 0.384766 -0.0456543 0.640625 -0.169922 0.199219 -0.120605 0.241211 0.0603027 -0.178711 0.320312 -0.15625 -0.211914 -0.0388184 -0.188477 0.032959 -0.0625 0.0947266 -0.00396729 0.478516 0.0849609 0.0878906 0.324219 -0.453125 0.135742 -0.257812 -0.193359 0.125977 -0.376953 -0.000556946 0.273438 -0.601562 0.359375 0.0415039 -0.225586 -0.129883 -0.347656 -0.143555 -0.15625 -0.0834961 0.113281 0.263672 -0.0942383 -0.146484 0.078125 -0.355469 -0.105469 0.3125 -0.0351562 -0.617188 -0.0761719 -0.0654297 -0.0639648 0.128906 0.142578 -0.223633 0.133789 0.304688 -0.0644531 -0.291016 -0.124023 0.090332 -0.277344 -0.285156 0.19043 0.267578 -0.209961 -0.00836182 -0.0505371 -0.166992 0.0698242 0.170898 -0.0356445 -0.231445 0.172852 0.132812 0.0107422 -0.251953 -0.371094 0.0273438 0.310547 0.131836 -0.113281 -0.0708008 0.0332031 -0.558594 -0.0961914 0.211914 -0.150391 0.0742188 0.180664 -0.404297 -0.1875 0.168945 0.0368652 0.0195312 -0.107422 0.116211 0.19043 -0.335938 0.0179443 0.259766 0.0257568 0.060791 -0.249023 -0.507812 0.00695801 0.466797 -0.0639648 -0.216797 0.296875 -0.0253906 -0.132812 0.198242 -0.0893555 0.189453 -0.032959 -0.103516 0.050293 0.019043 -0.0981445 0.171875 0.105957 0.0286865 -0.00592041 -0.113281 0.0463867 -0.162109 -0.169922 -0.271484 0.449219 -0.143555 0.164062 0.0786133 -0.332031 -0.226562 -0.163086 0.235352 -0.304688 -0.00683594 0.0197754 -0.15918 -0.170898 0.292969 -0.120605 -0.251953 0.0118408 0.371094 0.18457 -0.225586 -0.302734 0.0551758 0.0751953 0.176758 -0.223633 0.345703 -0.163086 -0.160156 0.0439453 -0.00656128 -0.0371094 -0.180664 -0.0217285 -0.275391 -0.115723 -0.283203 -0.207031 -0.140625 -0.365234 -0.0473633 0.144531 0.296875 -0.132812 0.142578 -0.0349121 0.330078 0.0544434 -0.166016 -0.294922 0.0771484 -0.0422363 0.182617 -0.151367 0.178711 0.298828 -0.148438 -0.15332 0.137695 0.175781 0.34375 -0.118164 -0.0281982 0.230469 -0.0197754 0.151367 0.196289 -0.00619507 -0.0761719 -0.119629 0.339844 -0.287109 0.114746 -0.203125 0.234375 0.150391 0.00286865 0.546875 -0.239258 -0.134766 -0.0159912 0.166992 0.0500488 0.574219 0.283203 0.0118408 0.492188 -0.310547 -0.279297 -0.0942383 0.223633 0.0844727 -0.00958252 0.208008 -0.0800781 0.523438 -0.28125 0.204102 -0.0698242 0.217773 0.423828 0.00524902 0.0825195 0.026123 -0.191406 -0.322266 0.558594 -0.0544434 -0.157227 0.189453 -0.208984 0.148438 0.0177002 -0.0742188 0.0942383 0.324219 -0.0947266 -0.0025177 0.193359 0.0227051 0.0559082 0.439453 0.0722656 -0.129883 -0.239258 -0.308594 -0.244141 -0.503906 -0.0324707 0.178711 0.443359 0.349609 0.324219 0.10498 -0.237305 -0.149414 0.183594 -0.330078 -0.114746 0.351562 -0.351562 0.191406 0.188477 -0.0194092 -0.0407715 0.0319824 0.0961914 0.15918 -0.0339355 -0.126953 -0.199219 0.213867 -0.140625 0.46875 -0.125977 0.195312 0.40625
appointing -0.108887 0.265625 0.121094 -0.00263977 -0.0238037 -0.125 0.105469 -0.128906 0.0115356 0.139648 0.474609 0.0180664 0.111328 -0.0830078 -0.332031 0.339844 -0.0617676 0.0805664 0.00909424 -0.0368652 0.131836 0.0908203 0.181641 -0.22168 0.1875 0.0224609 -0.333984 0.0600586 -0.259766 0.339844 0.0805664 0.165039 -0.121582 0.0683594 0.0568848 -0.131836 0.171875 0.143555 -0.0898438 -0.126953 0.257812 -0.0306396 -0.0825195 -0.0703125 -0.404297 -0.367188 0.180664 0.196289 -0.412109 -0.163086 -0.124023 0.0539551 -0.180664 0.0942383 -0.261719 0.496094 -0.109375 0.261719 -0.00897217 0.0351562 -0.0976562 0.326172 -0.0893555 0.0324707 -0.172852 0.0410156 -0.269531 0.0170898 0.146484 -0.0986328 0.0512695 0.078125 0.0258789 0.0332031 0.00915527 -0.412109 0.0322266 0.103027 0.242188 0.115234 0.105469 0.0598145 0.138672 0.195312 0.25 -0.0644531 0.191406 -0.181641 0.0317383 -0.0111694 0.445312 -0.0742188 0.0441895 0.21582 0.0307617 0.0249023 -0.0170898 0.00830078 -0.0849609 0.111328 -0.0844727 0.129883 0.269531 0.10791 0.273438 0.0310059 0.139648 -0.0612793 0.0439453 -0.133789 0.0825195 0.135742 -0.186523 0.00376892 0.24707 -0.326172 0.0932617 0.00418091 0.253906 -0.320312 -0.233398 0.173828 -0.291016 0.238281 -0.0810547 0.0419922 -0.108887 -0.0629883 0.15625 0.161133 0.172852 -0.206055 -0.176758 0.146484 0.0142822 0.120117 -0.211914 0.302734 0.146484 0.25 -0.255859 0.0268555 -0.400391 0.0383301 0.0380859 0.228516 -0.110352 -0.191406 0.480469 0.133789 0.0893555 -0.0120239 -0.0192871 0.140625 0.233398 -0.074707 0.0088501 -0.0961914 0.132812 -0.0874023 0.145508 -0.0795898 -0.0192871 -0.232422 -0.316406 -0.138672 -0.0109863 -0.0708008 -0.0664062 -0.154297 -0.232422 0.0966797 0.236328 -0.0791016 0.12793 -0.22168 0.0878906 -0.114746 -0.0766602 0.0810547 -0.0268555 -0.0412598 0.010437 -0.398438 0.0810547 0.0917969 -0.109863 -0.0153198 0.202148 0.306641 -0.267578 0.233398 -0.0218506 0.148438 0.169922 -0.0478516 0.0336914 0.0864258 0.292969 -0.142578 -0.361328 0.0493164 -0.0336914 -0.185547 0.0122681 -0.113281 0.196289 0.0913086 -0.0239258 -0.148438 -0.19043 -0.00135803 0.00646973 0.141602 0.171875 -0.166992 -0.178711 -0.298828 0.0334473 -0.157227 0.0810547 0.0410156 0.0198975 0.527344 0.0664062 -0.146484 0.0795898 0.186523 -0.0301514 0.0878906 -0.279297 -0.110352 -0.186523 0.141602 0.168945 0.0490723 0.173828 -0.249023 -0.166016 -0.0576172 -0.175781 0.0917969 0.0703125 -0.154297 0.00915527 -0.0776367 -0.0395508 -0.0415039 0.173828 0.0820312 -0.0534668 0.0219727 -0.0698242 0.310547 -0.0135498 0.119141 0.157227 0.429688 0.326172 -0.081543 0.316406 0.0356445 0.205078 0.032959 0.0839844 -0.0368652 0.140625 0.246094 -0.287109 -0.0625 0.0888672 -0.130859 -0.112305 0.152344 0.0598145 -0.0805664 0.15918 0.050293 0.168945 0.151367 -0.162109 -0.203125 -0.150391 0.244141 0.396484 0.149414 -0.145508 -0.0561523 0.59375 -0.265625 -0.0473633 0.167969 -0.208008 0.106934 -0.188477 0.0986328 0.150391 0.105469 -0.3125 0.114258
arithmetic 0.390625 0.0742188 0.057373 0.255859 -0.306641 0.111816 0.170898 -0.00228882 -0.171875 -0.0600586 0.283203 -0.111328 -0.204102 0.151367 -0.251953 0.347656 -0.0737305 -0.102539 -0.125977 -0.306641 -0.103516 -0.0201416 0.21875 0.150391 0.0981445 -0.144531 -0.046875 -0.34375 -0.200195 0.0742188 0.144531 0.00360107 0.15918 0.200195 -0.0131836 0.271484 0.0703125 0.289062 0.332031 0.0849609 0.146484 -0.106445 0.265625 0.188477 0.0351562 0.308594 -0.0839844 0.170898 -0.400391 0.0625 -0.296875 0.0639648 0.0515137 -0.0549316 0.0441895 0.0524902 0.00228882 -0.414062 -0.198242 -0.204102 0.131836 0.25 0.144531 -0.232422 0.257812 -0.275391 -0.116211 0.404297 -0.167969 -0.175781 0.378906 -0.245117 0.12207 -0.113281 -0.0245361 -0.139648 0.15918 0.0351562 0.0791016 -0.202148 0.0830078 -0.106445 -0.177734 0.229492 0.185547 0.0981445 0.261719 0.320312 0.171875 -0.392578 0.171875 -0.0588379 -0.228516 0.0688477 -0.275391 -0.0280762 0.130859 -0.0874023 -0.0612793 0.00346375 0.0522461 -0.0800781 -0.176758 0.0537109 -0.21582 -0.167969 -0.00418091 -0.161133 0.125 0.0620117 0.322266 -0.112305 -0.097168 0.230469 0.12793 0.609375 0.117188 -0.213867 -0.0991211 0.0732422 -0.0108643 0.170898 0.0505371 0.0250244 -0.416016 0.339844 -0.53125 0.00976562 -0.0432129 -0.116211 -0.0698242 -0.457031 -0.205078 -0.162109 0.0419922 0.25 0.0644531 0.097168 -0.24707 0.0742188 0.0378418 -0.355469 -0.279297 0.206055 -0.0932617 -0.0212402 -0.0585938 -0.140625 -0.0292969 0.0839844 0.0351562 -0.143555 -0.12207 -0.155273 -0.0820312 -0.416016 -0.388672 -0.138672 -0.199219 -0.0157471 -0.21582 0.0216064 -0.102051 -0.065918 0.169922 0.283203 0.302734 -0.158203 -0.0147705 -0.0388184 0.0300293 -0.0737305 -0.417969 -0.105469 0.271484 0.0966797 -0.142578 -0.109863 0.265625 -0.128906 -0.212891 0.203125 0.0859375 0.291016 0.361328 0.138672 0.314453 0.114258 0.121094 0.0500488 -0.0102539 -0.182617 -0.328125 -0.0339355 -0.0202637 0.261719 0.378906 -0.11377 0.202148 0.0898438 -0.335938 0.0178223 -0.185547 -0.10791 -0.026123 -0.0913086 -0.0407715 -0.125 -0.0678711 -0.277344 -0.110352 0.110352 0.132812 -0.0541992 -0.126953 0.160156 0.265625 0.144531 -0.15332 0.194336 0.0463867 0.289062 0.0461426 -0.217773 -0.120117 0.292969 0.241211 -0.0290527 0.00183105 0.453125 0.0258789 -0.032959 0.347656 0.125977 -0.0986328 0.0771484 0.137695 -0.078125 0.248047 0.0361328 -0.0537109 0.139648 -0.0805664 -0.10791 -0.0576172 -0.0795898 0.166992 0.19043 -0.306641 -0.0203857 -0.0961914 0.0211182 0.081543 0.154297 0.12793 -0.259766 -0.135742 0.157227 0.000999451 0.103516 0.392578 -0.00390625 -0.101074 -0.128906 -0.224609 0.271484 0.328125 -0.0334473 -0.169922 -0.0585938 0.112305 0.152344 -0.236328 -0.224609 0.0274658 0.164062 0.232422 -0.204102 -0.15625 0.0766602 0.0981445 0.179688 -0.177734 -0.135742 0.251953 -0.289062 -0.0115356 0.207031 0.152344 0.46875 0.0310059 0.205078 -0.0200195 -0.195312 -0.189453 -0.0878906 0.022583 -0.00674438 0.0703125 -0.0361328
armor 0.121094 0.3125 -0.124023 -0.050293 -0.0142212 0.205078 0.150391 -0.287109 0.206055 0.289062 0.22168 0.00634766 0.199219 0.0786133 -0.160156 -0.0296631 -0.244141 0.132812 -0.114258 -0.398438 -0.00854492 -0.167969 0.197266 0.0132446 -0.108887 -0.130859 -0.0942383 0.0605469 -0.246094 -0.369141 -0.0932617 0.0488281 0.1875 0.0917969 0.00933838 -0.251953 0.204102 0.198242 -0.333984 -0.251953 0.0175781 -0.148438 0.149414 0.185547 0.15332 -0.119629 0.195312 0.0300293 -0.0380859 6.29425e-05 0.15625 0.15625 -0.0246582 0.163086 -0.175781 0.115723 0.202148 0.0180664 -0.0454102 -0.202148 -0.124512 0.0908203 -0.0422363 -0.0527344 -0.373047 0.186523 -0.330078 -0.287109 -0.347656 0.464844 0.158203 0.145508 -0.246094 0.109863 -0.219727 -0.238281 0.102051 -0.0147705 -0.257812 -0.239258 0.0529785 -0.0245361 -0.273438 0.0444336 -0.0644531 -0.0678711 0.117676 0.390625 -0.183594 0.133789 -0.207031 0.100098 -0.177734 0.180664 0.175781 -0.0986328 0.149414 -0.363281 0.0539551 -0.249023 0.183594 -0.201172 -0.145508 -0.302734 -0.0546875 -0.163086 0.300781 0.0976562 0.188477 -0.0194092 -0.081543 0.0400391 0.216797 0.171875 -0.230469 -0.101074 0.0189209 0.245117 0.1875 0.0771484 0.227539 -0.0223389 0.015564 -0.21875 0.124023 -0.065918 0.197266 0.165039 0.00741577 -0.202148 0.128906 -0.0717773 -0.777344 -0.0151367 0.21875 0.0874023 0.0219727 -0.59375 -0.186523 0.0400391 0.106934 0.0393066 0.265625 -0.081543 0.139648 -0.298828 0.275391 -0.206055 -0.0334473 0.398438 -0.131836 -0.453125 0.148438 0.12207 -0.173828 -0.0251465 -0.00506592 0.0198975 -0.423828 0.10791 0.318359 -0.196289 -0.144531 -0.271484 -0.404297 -0.523438 0.0164795 -0.155273 0.132812 0.632812 0.0380859 0.010498 0.118652 -0.097168 0.213867 -0.220703 -0.105469 -0.410156 -0.0615234 -0.296875 -0.154297 -0.228516 -0.166016 0.294922 -0.333984 -0.539062 0.202148 -0.188477 0.0888672 -0.119141 0.217773 0.026001 -0.0510254 0.128906 -0.180664 0.167969 0.157227 -0.100098 -0.0805664 -0.244141 0.0795898 0.0427246 -0.0839844 0.202148 0.0275879 0.0134888 -0.18457 -0.205078 -0.00273132 -0.199219 -0.154297 0.511719 -0.124512 -0.480469 -0.304688 0.121582 0.194336 -0.00848389 -0.158203 0.0622559 -0.326172 -0.345703 0.0952148 -0.124023 -0.0108032 -0.126953 -0.205078 -0.0644531 0.277344 0.155273 0.0349121 -0.11084 -0.0240479 -0.0368652 0.0986328 -0.139648 0.0148926 -0.0737305 0.0942383 -0.105469 0.28125 0.0654297 -0.0273438 -0.0996094 0.126953 0.101562 0.0195312 -0.12207 -0.0145264 0.0791016 0.0380859 0.0541992 0.125 0.121094 -0.244141 -0.390625 -0.0727539 -0.314453 -0.0927734 -0.217773 -0.00952148 -0.191406 -0.12793 -0.177734 0.283203 0.0336914 0.0463867 -0.289062 -0.126953 0.0966797 -0.050293 0.24707 0.0349121 0.0292969 0.0947266 -0.349609 0.144531 -0.292969 0.0805664 0.447266 -0.147461 0.18457 0.425781 -0.235352 0.0144653 0.00686646 -0.0004673 -0.0703125 0.208984 -0.106934 -0.330078 -0.201172 -0.328125 -0.0410156 0.101074 -0.136719 0.0712891 -0.0820312 0.020752 -0.0717773
arraignment 0.126953 0.0366211 -0.246094 -0.267578 -0.289062 -0.167969 0.369141 -0.628906 0.421875 0.170898 0.318359 0.00952148 0.00494385 0.0228271 -0.230469 0.273438 0.223633 0.0571289 0.11377 0.330078 0.208984 -0.0296631 0.394531 0.186523 0.0449219 -0.117676 -0.0522461 0.0649414 -0.222656 -0.228516 0.065918 -0.18457 -0.0206299 -0.263672 -0.0385742 0.238281 0.263672 -0.296875 -0.234375 -0.373047 0.107422 0.158203 0.126953 -0.453125 -0.0358887 -0.0456543 -0.197266 0.445312 -0.375 0.535156 0.0419922 -0.351562 -0.136719 0.0169678 0.0996094 -0.0708008 -0.302734 0.0429688 -0.28125 -0.209961 -0.25 -0.15918 -0.145508 0.0825195 -0.166992 0.130859 -0.010498 -0.0849609 -0.0169678 -0.511719 0.291016 0.384766 -0.1875 0.0314941 -0.470703 0.0356445 -0.154297 -0.271484 0.180664 -0.484375 0.460938 -0.0834961 -0.318359 0.0507812 0.179688 -0.554688 -0.296875 0.376953 0.675781 -0.3125 0.294922 -0.554688 0.165039 -0.123535 0.115234 -0.53125 0.427734 -0.034668 -0.292969 -0.289062 -0.0115967 -0.188477 0.119629 -0.205078 0.21582 -0.0791016 -0.181641 -0.0529785 -0.0170898 -0.0576172 0.0140991 0.0893555 -0.213867 -0.177734 -0.515625 -0.294922 -0.232422 -0.59375 0.114746 -0.175781 0.361328 0.246094 -0.149414 -0.25 0.217773 -0.410156 -0.015625 0.106934 0.443359 0.11084 0.141602 -0.162109 0.235352 0.157227 -0.423828 -0.224609 -0.118652 0.515625 -0.261719 -0.224609 -0.201172 0.664062 -0.373047 -0.0245361 0.0532227 0.636719 -0.0378418 -0.0588379 0.00668335 -0.0168457 0.507812 0.00866699 0.217773 -0.236328 -0.320312 -0.0927734 0.074707 -0.003479 0.0220947 -0.279297 -0.149414 0.131836 0.198242 0.0310059 -0.207031 -0.00830078 0.546875 -0.283203 0.255859 0.480469 0.257812 -0.03125 -0.332031 0.176758 -0.597656 -0.251953 -0.00836182 0.0742188 -0.337891 -0.597656 -0.0898438 0.188477 -0.161133 -0.640625 0.351562 0.200195 -0.0708008 -0.151367 -0.059082 0.0289307 0.210938 -0.124512 -0.273438 -0.235352 -0.113281 0.558594 -0.232422 -0.120605 -0.335938 0.375 0.237305 0.277344 0.394531 -0.12793 0.375 -0.188477 0.188477 0.15625 0.168945 -0.28125 -0.0698242 -0.114258 -0.134766 0.0527344 -0.25 0.253906 0.0478516 -0.232422 0.0424805 -0.53125 -0.0289307 0.175781 0.0737305 -0.0299072 0.0544434 -0.183594 -0.128906 0.265625 -0.198242 0.253906 0.222656 0.146484 -0.308594 -0.10791 0.197266 0.507812 -0.263672 0.112793 0.292969 0.149414 -0.120605 0.207031 -0.388672 -0.601562 -0.632812 0.488281 -0.460938 -0.140625 0.242188 0.0722656 0.265625 0.269531 -0.373047 -0.0549316 0.140625 -0.149414 0.238281 0.173828 -0.162109 -0.214844 -0.203125 -0.129883 -0.294922 -0.46875 0.0532227 0.376953 -0.0957031 -0.333984 -0.199219 -0.294922 -0.0991211 0.275391 -0.0284424 -0.257812 0.0257568 0.124023 -0.109863 -0.164062 -0.177734 -0.000934601 0.296875 0.144531 0.0644531 0.236328 -0.111816 0.194336 0.427734 0.140625 0.178711 0.296875 -0.104492 -0.251953 0.219727 0.0795898 0.078125 0.205078 -0.116699 -0.507812 -0.123535 -0.21582
arranging 0.0605469 0.267578 -0.0532227 -0.201172 0.00442505 -0.00230408 -0.125 0.0805664 0.078125 -0.332031 0.0151367 -0.219727 -0.0529785 -0.00695801 -0.142578 0.0888672 -0.0446777 -0.0834961 0.0065918 -0.0898438 0.0712891 -0.170898 -0.0125732 -0.0151978 0.0639648 -0.0698242 -0.289062 0.0057373 -0.283203 0.0981445 -0.0209961 -0.0230713 -0.0534668 0.106445 0.106934 0.273438 0.0913086 -0.163086 0.161133 -0.388672 0.104492 -0.0603027 0.0712891 -0.202148 -0.116211 -0.373047 0.065918 0.0756836 0.0952148 0.00628662 -0.0117188 0.0111694 0.0771484 0.0168457 -0.275391 0.185547 -0.00318909 -0.0458984 0.123047 -0.10791 -0.0771484 0.182617 -0.12793 0.0148926 0.0942383 -0.0334473 -0.375 -0.243164 -0.0761719 -0.0583496 0.101074 0.114258 -0.0301514 0.168945 -0.0405273 -0.0639648 -0.176758 0.006073 -0.09375 0.0568848 -0.0927734 -0.0549316 -0.169922 0.0986328 0.155273 -0.300781 -0.0603027 -0.114258 0.124023 0.466797 0.330078 -0.0125732 0.0378418 -0.347656 -0.0371094 -0.261719 0.216797 -0.211914 -0.138672 0.116211 -0.328125 -0.183594 -0.0732422 -0.118164 0.0380859 0.194336 0.0476074 -0.074707 0.0825195 -0.0301514 -0.163086 0.151367 -0.0410156 -0.0206299 0.0634766 0.0961914 0.249023 -0.0292969 0.213867 0.235352 0.0341797 0.0527344 0.129883 0.155273 0.0507812 0.229492 -0.130859 -0.119141 0.0849609 0.112305 0.0427246 -0.179688 -0.0751953 0.0795898 -0.0898438 -0.0639648 -0.155273 0.131836 -0.186523 0.135742 0.0311279 -0.104004 -0.1875 0.151367 0.0209961 0.279297 -0.365234 -0.0922852 -0.115234 0.0466309 0.241211 0.074707 -0.117676 -0.0393066 0.0183105 -0.210938 -0.129883 0.0415039 -0.0247803 0.198242 -0.134766 -0.210938 0.178711 0.248047 -0.0761719 0.255859 0.333984 -0.150391 0.00209045 -0.0598145 -0.121582 -0.134766 0.217773 -0.034668 -0.0849609 -0.103516 0.00592041 -0.109863 -0.176758 0.263672 0.0098877 -0.0844727 0.0576172 -0.0301514 0.158203 -0.129883 0.0617676 -0.125 -0.141602 -0.050293 -0.145508 0.231445 0.267578 -0.12207 -0.175781 -0.195312 0.0306396 -0.223633 0.108887 -0.210938 0.183594 0.228516 -0.212891 -0.373047 0.122559 -0.120117 0.0644531 0.183594 -0.0183105 0.132812 0.0517578 -0.0649414 -0.0742188 0.02771 0.12207 -0.125 0.104004 0.242188 -0.145508 -0.263672 0.129883 -0.163086 0.0234375 0.285156 -0.140625 0.0432129 -0.241211 0.0717773 0.0358887 -0.104004 -0.0544434 -0.161133 -0.147461 0.199219 -0.136719 -0.310547 0.134766 -0.316406 -0.173828 -0.114258 0.102539 0.164062 -0.347656 0.170898 0.217773 -0.0888672 0.130859 0.165039 0.000640869 -0.267578 0.0571289 0.217773 -0.00424194 0.137695 0.214844 0.0952148 0.0820312 0.0461426 0.0786133 0.137695 -0.0595703 -0.165039 0.0825195 -0.225586 0.125 0.0771484 0.10791 0.0649414 0.0194092 0.097168 0.125977 0.113281 0.259766 0.0147705 0.166992 -0.158203 0.0311279 0.229492 0.0859375 -0.174805 -0.0198975 -0.294922 -0.249023 -0.0603027 0.105469 0.261719 -0.0264893 0.0629883 0.202148 0.361328 -0.326172 0.0488281 -0.0986328 -0.233398 -0.129883 0.0551758 0.000606537 0.0493164 -0.0253906 0.0922852
